9745 16
8898 0.25243622 1.419288 0.43243983 0.34621757 -1.5741502 -0.682645 4.199003 0.96161085 -0.8316083 -0.92921406 1.4829059 -0.023173189 -1.2368112 -2.4658725 -0.2708339 -1.5637704
6300 -0.25325665 0.85689473 -0.0013604729 -0.33793387 0.21234499 -1.2580013 2.8559427 1.3810962 2.1082342 -0.67351025 -0.5105685 -1.0665345 -1.3583615 -2.4572065 -1.7294508 -2.0811954
7236 -0.10730665 0.62039447 0.042080097 -0.3740788 -0.13637455 -1.500426 2.953099 1.110993 1.9161191 -0.5461928 -0.533512 -0.88509023 -1.0821782 -2.271686 -2.062288 -2.1187243
7250 -0.7091096 0.7562412 -0.09140238 0.32831317 -0.47245374 -0.8280804 2.9545653 1.0200907 2.0070262 -0.5446023 0.1898232 -0.5025156 -1.3169478 -2.2327414 -1.8263543 -2.3246434
6520 -0.22828141 -0.09692015 0.59531426 -0.15793948 -0.80018467 -0.51074415 2.8195896 0.9385813 1.8911769 -0.412665 -0.2858957 -0.20007436 -0.28881928 -2.2946205 -1.3932852 -3.1627364
8068 -0.0015614389 0.087195486 0.16769414 -0.29856786 -1.4531344 -0.95105296 3.7029712 0.9654101 1.0596355 -0.20666063 -0.69687146 -1.387631 -0.6204436 -1.9399673 -0.3469248 -3.0778856
6629 -0.19541061 0.25599188 -0.21207097 -0.2851052 -0.7108916 -0.9710271 3.0509684 0.92381006 1.7965366 -0.6178132 -0.65561503 -0.3695556 -0.4446787 -2.6453056 -1.163968 -3.4592516
6633 0.3855752 0.48138538 0.2975108 -0.6703464 -0.7060241 -0.81014365 3.8221915 0.4604276 -0.09324456 -1.0101676 -0.26229805 -1.654615 -0.94976926 -1.5838994 -0.07040135 -2.3854167
7310 -0.72391635 0.98960453 1.2510264 -0.33189657 0.43268362 -1.5187505 2.5069697 0.29391652 1.7208714 -0.6300961 0.6944967 -0.83981085 -1.5783916 -1.8410052 -2.196766 -1.4014695
4169 0.95162094 -0.88411844 -0.72886574 1.7536799 1.3901297 2.6296244 -1.9690268 -0.2934598 -1.391538 2.012543 -0.8826049 1.3300703 3.2696934 0.8988768 1.3403487 3.3899348
7620 -0.2887505 -0.06637121 0.4956085 -0.31113583 -0.3933234 -1.0183011 2.4683394 0.012725305 2.4075077 -0.24394321 -0.38868997 0.36274716 -0.5970416 -1.984153 -0.9909614 -2.9703267
7238 -0.85963917 0.25374758 0.13117006 -0.7098688 -0.6620278 -1.1647799 3.2440143 0.823751 1.9374495 -0.09771915 -0.27634388 -2.259045 -0.66697735 -1.9608335 -1.6338469 -2.1134827
8611 -0.0656513 0.33940318 -0.2499317 -0.34233603 -0.34905478 -1.2979412 2.7825136 0.54719037 1.8933679 -1.0029981 -0.9748832 0.0059102583 -0.96313125 -2.6311626 -0.9124206 -3.4891593
6150 -0.4057933 0.38755095 0.08507336 -0.5581194 -1.2385324 -0.78161985 3.1947014 0.4344684 1.2719584 0.36295623 -0.6009034 -0.92196697 -0.6879905 -2.2051468 -0.18586148 -3.0101013
6648 0.8942768 0.47970808 0.10286098 -0.7645815 -0.2522676 -0.8697307 3.886617 0.24154279 -0.44111028 -0.886777 -0.48582628 -1.8564514 -1.1297326 -1.3040179 0.014725986 -2.3318949
8802 0.0592705 0.93703365 -0.14724708 -0.03736048 -1.4790297 -0.10534331 3.4534957 0.34612483 -0.10801846 -1.0955127 0.6547119 0.1869587 -1.6496507 -2.4723294 -0.10258157 -2.1715395
8436 0.4762919 0.6288841 0.8844882 -0.16561069 -0.9119649 -0.8022713 3.8349159 0.40535474 0.8590575 -0.22924042 1.9142125 -0.14976698 -2.4434955 -2.1313992 -0.086619 -0.6240198
7237 -0.53876007 0.63845253 0.9903657 -0.33581126 0.00742917 -1.3655269 2.7569823 -0.11556121 1.8099684 -0.80645937 0.56397885 -1.3113424 -1.9100221 -1.6204113 -1.6311127 -1.6981535
7305 -0.23692508 -0.08010697 1.5798377 -0.25955036 -0.08358711 -1.003874 3.4617302 -0.8182933 1.0325489 -0.2990721 1.2811505 -1.2659985 -2.7204719 -0.5586789 -0.72958994 -1.8498125
9037 0.8186897 1.423419 -0.20732446 0.1691929 -0.6693731 -1.0057513 3.799664 -0.18882343 -0.15586725 -1.641522 1.5921744 0.066843905 -1.6570363 -2.4463634 0.40485662 -1.288619
6567 1.1165323 0.20570782 0.1975098 -0.35464692 -0.91854435 -0.38446075 3.9230795 1.0234418 0.8850734 -0.31838 -0.10167396 -1.154034 -1.128631 -1.6042335 0.12955485 -1.5803457
8668 -0.46485963 0.26014966 -0.1008554 -0.06979337 -0.12939814 -0.5053952 2.2540972 0.38893223 2.2248821 -0.9870737 -0.42480534 0.5241995 -1.2297709 -2.3850813 -1.1255645 -3.0085523
7137 -0.5331706 0.40838054 0.4138673 -0.54565275 0.36283863 -0.7335963 2.6074333 0.8387742 2.2638407 -0.7590027 0.29389384 -0.9379412 -1.5640484 -1.9761428 -1.7735652 -1.3151413
6898 0.76514184 0.9669776 -1.1544863 -0.5702689 -0.38397703 -1.1482395 3.4954236 0.8636562 0.6481443 -0.17296238 -1.06528 -2.0555134 -0.40284833 -1.7995892 -1.0658603 -1.5128282
6358 0.8046172 0.35199636 0.5280494 -0.78256065 -0.7841572 -0.7535083 3.875102 0.210271 -0.009456035 -0.6646735 -0.037652194 -1.6869364 -1.1928779 -1.5660464 0.17421912 -2.0920215
7657 1.4786938 0.5466754 -0.75163203 -0.763148 -0.22292395 -0.67174625 3.669915 0.45699102 -0.20497972 -0.3897526 -0.55959886 -1.3998749 -0.9119062 -1.7769006 0.11375514 -2.2323842
6396 -0.45874372 0.11460317 1.5323454 -0.24933076 -0.81696856 -0.8070417 3.2080011 -0.15839799 1.1135763 0.16913477 0.64939153 -0.45068738 -1.9886199 -1.1391877 -0.5859688 -1.7563174
8756 -1.3696226 1.5879399 1.0404289 -0.3499746 -0.2933143 -1.0615681 2.7451537 0.11447175 0.8362592 -1.6581199 0.710512 -0.024612674 -1.9153231 -1.9810551 -1.3346765 -0.6019713
6336 0.79390955 0.31191537 0.26307005 -0.92264915 -0.23727907 -0.8794915 3.5743473 -0.31977367 -0.5827844 -1.1418345 -0.5957434 -1.6992055 -1.2067974 -1.1496626 0.121684335 -2.5930157
6041 -0.2865944 0.022130216 2.380347 -0.26265523 -0.20393749 -0.64167666 2.9018788 0.10667175 1.724541 -0.9590163 0.88141423 -0.64715785 -2.5864017 -1.4082495 -0.8426216 -1.9794928
7280 -0.68797547 0.67405367 -0.57190794 -0.6904565 0.5596303 -1.4800591 2.6126301 0.8929654 1.6130906 -0.8285918 -1.2092547 -0.8573036 -0.11754084 -2.1225364 -1.8362688 -2.518529
8956 -0.4260588 0.06773355 -0.4979157 -0.5454969 0.033171162 -0.92459786 2.212918 0.08568201 1.7655989 -0.4917029 -1.8226062 -0.25528163 -0.30485973 -1.9865353 -1.5931016 -4.027262
7254 -0.25436506 1.4438391 -0.93828595 -0.8073148 1.1457751 -1.5618906 2.2199109 1.0415155 1.6084183 -1.074887 -1.2303779 -0.6405609 -0.0553634 -2.7160347 -2.1885073 -1.6092602
6497 -0.2044525 -0.26658577 0.064774476 -0.77506906 -0.8150812 -1.062373 3.262272 0.11472306 1.161021 0.09840426 -1.0079098 -1.0455927 -0.29367182 -1.5433347 -0.5705829 -3.3276274
9618 0.015814805 1.6031986 -0.92868465 0.028793346 -1.9197935 -0.8616214 3.2574708 -0.3581393 1.0030361 -0.39082888 0.09465815 0.8571207 -0.28983137 -3.040898 0.17466226 -2.0221698
1680 -0.73109984 -1.6559216 0.30229124 1.4061651 1.8318628 1.7890816 -2.8593786 -0.5890543 -2.266899 0.61677754 -0.8931813 1.465379 2.1203635 1.0819933 0.46561125 2.88647
7233 0.7748354 1.5560274 -0.45289776 -0.28285426 0.14544335 -1.4571855 3.1205497 0.03215672 0.60815054 -0.86098045 -0.28640074 -1.434636 -1.1227443 -1.3662828 -0.6464078 -0.22451288
6074 0.7993516 0.33227822 2.194067 -0.5086694 -0.2830206 -0.4114973 3.2436676 -0.41033462 1.2265817 -0.5672744 1.0243421 -0.769114 -2.117432 -0.9169173 -0.22211045 -0.53391933
6090 0.9846127 0.5385933 -0.7512351 -0.74897164 -0.44779792 -0.7359017 3.7503364 -0.23514166 -0.33390504 -0.91772467 -0.7684547 -1.6168083 -0.9718313 -1.6443944 0.62204444 -2.8999264
6820 -0.9392013 -0.25670847 0.017453263 -0.45381993 -0.19146703 -0.68817544 2.275045 0.15937512 1.8946248 -0.22533391 -1.5464772 0.63048726 -0.68664205 -1.6816392 -1.0916121 -3.3781645
7299 0.24118021 0.9213433 0.4601309 -0.7435524 0.23777701 -0.88886297 2.6384687 -0.543628 0.77930963 -0.8329775 0.25737774 -1.5614277 -1.1757969 -1.3513575 -1.4423572 -1.3002163
8831 -1.0034579 1.0976828 0.78200614 -0.5781518 -0.05523452 -1.5026426 2.7560923 -0.6125806 1.0791026 -0.5436125 0.6392966 -1.2383194 -1.5495951 -1.3000222 -1.6572844 -0.60644877
9027 -0.6952258 1.5228268 0.61150604 -0.32857883 -0.06253928 -0.42132655 2.4712296 0.46406028 1.3762153 -1.3879145 0.22020365 0.16169672 -1.6561846 -2.2493901 -0.99525374 -0.9214571
4277 0.8487135 -1.401859 -1.1845253 1.2457126 1.5145061 1.5911252 -2.1789985 -0.18037175 -1.2728374 0.7293278 -1.2865779 0.651935 2.7835875 0.26525077 1.6615896 2.7368994
6581 0.8723272 1.2934155 -1.0344738 -0.71823174 1.378687 -1.3713944 2.4380453 0.9934948 1.8061609 -1.3048458 -1.089742 -0.5422705 -0.19006014 -2.654956 -1.8174099 -1.652977
8395 -0.6164556 1.1743842 1.6816735 -0.3551877 -1.5469517 -0.073700316 2.5611155 -0.117016636 1.2153059 -0.8189122 1.1951115 1.2771555 -2.1360557 -2.8164306 -0.5380779 -0.71573323
7240 -0.5850169 0.9814071 -0.9091877 -0.4955205 0.6849052 -1.4324841 2.352276 0.57913506 1.8683875 -1.1412165 -1.6099695 -0.5982904 -0.16098423 -2.0902288 -1.8245124 -2.2698104
6952 1.6910794 1.1111556 -0.14838003 -0.38959667 0.13649824 -0.48738527 3.2871726 0.8328416 1.4947727 0.100397825 0.18993086 -1.1496857 -0.98535997 -1.5733684 -1.4293637 0.40710437
6964 0.8763493 1.1199805 -0.82604694 -0.43698874 1.2217727 -1.0029153 2.3515277 0.8810932 2.1053085 -0.6990597 -1.1427804 -0.66248333 -0.56629306 -1.9512519 -1.6559136 -1.0109471
9215 -0.13430345 1.0535527 0.5229065 0.18907689 -0.38762897 -0.72024226 2.4131188 0.35533047 1.8297157 -1.0365885 0.26077992 1.4257357 -1.2805306 -2.6052735 -0.625716 -2.0853255
7167 -1.1274607 1.6594207 -0.85245246 0.16653189 -0.08849815 -0.7466211 2.3677793 0.6269157 1.6273363 -0.9314038 -0.69394594 0.4712941 -0.22876039 -2.5586648 -0.99721944 -2.282044
7261 0.54780716 0.96583444 -1.001735 -0.6184693 0.029665606 -0.95448995 3.05716 0.17989604 0.86647004 -0.08742199 -0.94372755 -2.1942782 -0.16883852 -1.4699284 -1.0020999 -1.541035
6959 0.5125581 1.0262108 0.9802392 -0.75353634 0.16483799 -0.10902355 2.682267 0.4738918 1.8362519 -0.27996433 0.12071002 -1.2619121 -1.4288638 -1.5715185 -1.8164121 0.101564616
9154 -0.0011453904 1.0558723 1.576203 -0.42155775 -0.96275204 -0.5617282 2.7317102 0.2065545 1.6979672 -0.9656767 1.0894233 0.30991736 -2.3461733 -2.798448 -0.67003226 -0.942428
7076 -1.2501514 0.19682163 -0.46326604 -0.75057966 -0.08682635 -1.1711211 2.8740082 0.119293004 1.6333951 0.07550661 -1.1233459 -2.003078 -0.68918467 -1.3233315 -1.6852162 -2.8367026
7176 0.035185523 1.1660097 0.7708365 -0.64510566 0.74570626 -1.3064954 2.6428363 -0.2981806 1.299919 -1.0215447 0.29958874 -1.6400355 -1.7433057 -1.3457037 -1.691314 -0.5948964
7253 1.3492125 0.3548654 -0.53908086 -0.76329905 -0.17799658 -0.740245 3.771944 -0.31829613 -0.45006958 -0.7529447 -0.73453367 -1.7785926 -0.7298959 -0.95596695 0.45551118 -1.9566027
7427 -0.7140987 1.0746752 -0.63770634 -0.7627581 0.4324961 -1.765782 2.7070603 0.53071505 1.1005064 -0.24519776 -1.3425268 -1.2271838 -0.051178087 -1.5419657 -1.7382337 -1.2627592
7650 -0.690597 -0.34561992 -0.121938065 -0.42791694 -0.12292368 -0.6186285 2.8784978 0.17456627 1.5532609 0.15020846 -1.2459872 -1.242136 -0.53804827 -1.140605 -0.9219837 -3.8020668
6417 -0.8480481 -0.56644106 0.2523903 -0.5543003 -0.5686749 -0.43423897 2.993951 -0.46900842 1.0058167 0.39803421 -0.91361654 -0.5105065 -0.7822085 -0.7348416 -0.0944451 -3.2677262
8040 -1.5225304 0.44017455 0.28234896 -0.46260825 0.29596177 -1.5211321 2.5077777 -0.5219566 1.4375879 0.065162435 -0.9380137 -2.0033872 -0.7755366 -0.6892251 -1.7756395 -2.4545953
7761 0.1851598 -0.42021614 1.1943308 -0.21993375 -1.4485945 -0.1695588 3.348666 -0.11948263 0.7907471 0.07232283 0.6011443 -0.057786074 -1.349742 -1.008934 -0.08546425 -1.3656472
889 1.0927674 -0.97581637 -0.31120065 1.5316042 1.2336546 1.8393819 -2.0999873 -0.33215895 -1.161783 1.105802 -0.5322517 0.9683108 1.9734406 0.39156523 1.0197726 3.1633453
7331 -1.5239292 0.10872275 0.4322701 -0.7387935 0.24113975 -1.4286698 2.6381261 0.45075998 2.1768854 -0.21731466 -0.96766865 -1.664775 -0.76213545 -1.4945192 -1.9065816 -2.5020554
1941 -1.7662996 -1.1209499 0.70311254 1.7478292 1.2778417 1.533863 -3.2867498 -0.080559336 -0.91108537 1.2012588 -0.79646194 1.378616 1.8577114 0.32050923 -0.409128 2.7558093
8999 0.40737298 1.2505525 -0.82153004 -0.2025354 -1.3869487 -0.9114422 3.46388 -0.9670527 -0.79569066 -1.3502867 -0.027297031 0.645898 -1.2661773 -2.0822308 0.8763159 -1.9727485
7744 0.8865329 0.06963007 0.7888795 -0.5481684 -1.1469343 -0.22700821 3.8501453 -0.86615276 -0.063751675 -0.20998327 0.48955977 -1.0072516 -1.5929716 -0.9564829 0.74164104 -1.7828634
7347 -0.45347092 0.42567334 1.225402 -0.3565157 0.5829415 -0.886044 3.280279 -0.5158782 1.1681972 0.21778314 0.93027693 -2.2075183 -2.2172368 -0.1316496 -1.5649568 -0.78675777
1181 -0.047047272 -1.5331286 -0.2403867 1.9187157 1.1534809 1.7767665 -2.432772 -0.2976154 -1.1721549 1.2039717 -1.007483 -0.1133928 2.016324 1.112283 0.83366454 2.2649813
8639 0.8213524 1.2749583 0.1342592 0.049621213 -0.8260097 -0.5439249 3.5471587 -1.1677732 -0.57500213 -1.2665347 1.6147316 0.34852034 -1.6496234 -1.7090605 0.6452895 -1.0719352
8837 -1.275952 0.4061201 1.2918476 -0.9632742 0.51304865 -0.953704 2.6380613 -0.6417859 1.207646 -0.46147668 0.22522642 -1.6978532 -1.7845334 -0.5984793 -1.9117682 -0.9964138
8214 -1.1874954 0.66852 0.94561285 -0.5753283 0.86736196 -0.92446655 2.3905408 -0.50035876 1.3942229 -0.82444096 0.458757 -1.1347189 -1.618172 -0.7276422 -2.177769 -0.6949075
9833 -0.090302 1.3573235 -0.36428678 -0.104612745 -1.1298304 -1.1732495 2.5525482 -0.15836596 1.2064339 -1.398579 -0.22635536 1.9129754 -0.85409 -3.4257812 -0.041279666 -2.2429569
8008 -1.2383475 0.65730494 0.9503975 -0.20275238 0.28026828 -0.90221643 2.661521 -0.8436805 0.6058075 -0.6688662 0.50880545 -1.3526855 -1.7449348 -0.3605318 -1.4219006 -1.312857
8958 -1.146468 0.4797379 1.2170069 -0.70017475 0.6179479 -0.96990246 2.7000427 -1.2286065 0.98162895 -0.54546845 0.8609416 -1.9764721 -2.2450974 -0.39367855 -2.05309 -1.06284
6688 -1.0180398 -0.5232314 0.50242466 -0.5885796 -0.4936244 -0.55556935 2.3503149 -0.121838674 1.609468 -0.11261612 -1.0203526 -0.03661082 -0.6117396 -1.4644501 -0.77797645 -3.1896288
6072 0.6441848 0.7808126 -0.70400476 -0.5673513 0.3213691 -1.0746301 2.6371257 -0.106603116 0.75778157 -1.2594106 -1.4941969 0.3994202 -0.7155055 -2.0437768 -0.30383825 -3.0763712
8723 -1.3123336 1.4884847 0.4610427 0.18674031 -2.0778937 -0.35977656 2.5715752 -1.2282032 0.06103088 -0.93234015 1.2046894 1.6516154 -1.9814165 -2.626332 0.07856387 -0.98891246
9521 0.901477 1.4861501 -0.2165121 -0.341448 -0.72145736 -1.1835717 3.1978405 -1.172186 -0.012739201 -0.94474375 0.89984924 0.43989846 -1.063961 -2.3633523 0.74083513 -1.3010324
8739 -1.3315101 1.1807538 0.17792077 -0.054026704 -1.0481908 -0.28684297 2.1316144 -0.6500413 0.905827 -1.0507436 -0.5557056 1.7526159 -0.38448203 -2.1790783 -0.54482675 -2.0640192
8331 0.37732172 0.33683467 0.596345 -0.4111743 -0.48706675 -0.089091316 3.124799 -0.73877615 0.36413553 -0.09553933 0.28629896 -0.3886712 -0.8938562 -0.7695003 0.23518364 -1.4106784
8746 -0.8705448 1.3151706 0.62754405 0.1707107 -2.0641193 -0.291443 2.8274171 -1.557803 -0.29396853 -1.423864 0.7894372 1.79585 -1.8602766 -2.3300717 0.3260149 -1.6410128
6263 -0.15709165 1.1840429 0.43174905 -0.0049061496 -0.84921336 -0.85971737 3.1226594 -1.5058745 -0.4372331 -1.7497623 1.1457987 0.7035533 -2.0978677 -1.6774522 0.27365965 -1.6441962
7344 0.043415446 1.4336715 -0.2714884 -0.4844875 0.9153422 -1.3647743 2.7174098 0.5976125 1.6883743 0.4599119 -0.52066267 -2.406764 -0.2976837 -1.4219983 -2.0633206 -0.43971437
7265 0.90778214 0.47878736 0.15507188 -0.8582501 0.6375711 -0.7278578 3.3888478 0.3153135 0.82107687 -0.028902322 -0.06329125 -2.2388809 -1.0163239 -0.80627507 -1.1232911 -0.15910481
9511 0.23620564 1.0342456 -0.3657294 -0.5325846 1.6425269 -0.96939224 2.1666796 0.7731821 2.0629287 -0.82818377 -1.2937984 -0.6520827 -0.5749425 -1.4372536 -1.9519297 -1.1448616
7414 -1.136516 0.87025285 -0.27132246 -0.32308868 0.9365644 -1.2868568 1.8960587 0.800847 2.6842127 -0.48178068 -1.2880319 -0.05221669 -0.3934375 -2.1688097 -2.3135657 -2.1247523
7824 -0.5679755 -0.44351956 1.3875923 -0.4232065 -0.8574914 -0.18436342 3.2473576 -1.5909562 0.11953046 0.17119783 0.5954046 -0.41777322 -1.7524624 -0.13877739 0.5101863 -1.7958221
6630 0.040616453 -0.40471604 0.73901886 -0.8105953 -0.04659463 -0.19810157 2.9829462 0.010675075 1.5200634 0.36145884 -0.6720538 -1.3308524 -0.31586224 -0.48700684 -0.5696861 -1.8252532
7434 -0.32061014 1.0341102 0.6090263 -0.708978 0.94806045 -1.3183426 2.7907398 -0.85152876 0.66359067 -0.9368249 0.31911632 -2.1765716 -1.4568503 -0.635193 -1.5412254 -0.6129496
9791 0.9628249 1.1679003 0.9044295 -0.3178298 -0.70415676 -0.3100175 2.8139164 -0.31073645 1.2096407 -0.6735503 1.2174706 0.6956499 -1.4309727 -2.4695354 -0.12072129 -1.0291308
6632 -1.4479864 -0.02741734 0.4183301 -0.61582017 0.3412081 -1.0785015 2.3105655 -0.38892588 1.6858486 -0.010517868 -1.2342037 -1.3086766 -0.63637894 -0.66141504 -1.8967667 -2.461838
1150 0.87146276 -1.438857 -0.09600155 1.3672216 1.4129837 1.638225 -1.775783 -0.8517297 -1.9647799 1.3295457 -0.2862186 -0.103984 1.6386263 1.0874697 1.3496424 2.8922336
6079 -0.21633314 -0.06550722 1.64191 -0.4584242 -0.29605535 -0.28419554 3.0147622 -1.5976622 0.29766208 -0.11631306 0.86398345 -0.10589389 -2.1193998 -0.044061765 -0.100262955 -1.0161302
6790 1.4877421 1.5580072 -1.260202 -0.63947177 1.5263695 -1.1437956 2.6171486 0.92201316 1.7525433 -0.6697342 -1.2012206 -1.3652858 -0.5426616 -2.1242342 -1.5622909 -0.64785665
8001 -0.11105799 0.35479286 0.51848733 -0.5737809 -0.13584808 -0.37974998 3.0152764 -0.41940296 0.7262656 -0.31888857 0.14965731 -1.5801105 -1.3306388 -0.4496127 -0.8229907 -0.48873442
9448 1.0038977 1.0360267 -0.048807792 -0.030443588 -2.0331464 -0.20992921 3.4593937 -0.7809098 0.18515147 -0.34237292 1.2340978 1.0978235 -1.1036811 -2.5897946 1.0409752 -0.9814863
3618 0.19277206 -1.6782526 -0.88641274 1.8589019 0.984254 1.5733443 -1.8822974 -0.28675333 -1.6871375 1.2841964 -1.2021345 0.2810117 2.3098638 1.0129906 1.4216717 1.775444
7270 1.7720536 1.5242414 -0.3328985 -0.37513518 0.8727893 -0.9271198 3.158298 0.10110667 0.79265004 -0.2032376 0.6115468 -1.6098243 -1.1579709 -1.4438554 -0.9304923 0.941079
9216 0.52234614 1.1246804 -0.50941867 -0.05369609 -1.2635024 0.20274286 3.5701365 -0.38027063 -0.16354989 -0.7454003 0.5577645 0.8700378 -1.0092804 -1.9604918 1.553689 -1.0398743
6773 -1.3524861 -0.90423477 0.111659974 -0.5188254 -0.60154915 -0.9938309 2.6218808 -0.32539475 1.2526371 -0.1231767 -1.6121969 -0.48302627 -0.42784628 -1.2175741 -0.55609757 -4.057288
9458 0.28223726 -0.35677454 -0.27445343 -0.7800238 -0.25710362 -0.13912822 3.2836716 -0.03068242 0.733928 0.5630281 -0.55844426 -1.2044356 -0.5453887 -0.70682037 0.30082446 -2.2881596
6420 -1.4494925 -0.84822035 0.747938 -0.48571566 -0.62617683 -0.9069656 2.3533115 -1.1361616 1.1344277 -0.17981203 -1.0652503 0.07783582 -0.6315469 -0.76792085 -0.70905167 -3.3982003
7624 0.09970602 0.20370178 0.061170623 -0.64668065 0.16113366 -0.41514057 2.3150802 -0.1832113 1.5670127 -0.89342296 -1.0272428 0.8898406 -0.6170338 -1.6816347 -0.5396655 -2.5042877
6948 1.4749136 1.5964131 -0.54492694 -0.54745746 0.84117335 -0.43957344 2.972733 0.78399646 0.7986455 -0.29675788 -0.30329654 -1.712261 -0.18500751 -1.7347184 -1.0552541 0.3506646
7433 0.097325414 -0.5421971 1.1080025 -0.53259104 -0.8585379 0.13221933 3.3370786 -0.9693808 0.30372673 0.15517206 0.70367813 -0.53311306 -1.4960867 -0.3675024 0.22602385 -1.2464813
7613 -0.7517035 -0.23431715 -0.64635223 -0.3660549 0.111021385 -0.6603435 2.2247548 -0.31789514 1.2850517 -0.80919623 -1.5451695 0.6046623 -0.10660643 -1.6979043 -0.3667944 -3.7944932
7396 -0.6712184 0.0017141561 0.12518753 -0.3434698 0.43798682 -0.9275067 1.8185941 0.38695085 2.772394 -0.82140195 -1.8508501 0.7053894 -0.4365114 -2.1020768 -1.7010579 -3.3945832
7262 -0.8583948 0.63509315 -0.80547076 -0.78331035 0.54980695 -1.4362082 2.7325432 0.11738683 0.92227364 -0.34418732 -1.3393775 -1.7062421 0.043914203 -1.1819352 -1.2445415 -2.2542994
7119 -0.27530482 0.52142256 0.765165 -0.6090432 1.2956653 -0.99346083 2.713081 -0.7948731 1.3007833 -0.41424757 0.5231739 -2.2262151 -1.6710007 -0.27105886 -1.7365652 -0.4464243
6061 -0.36883977 -0.41545424 0.28375113 -0.53353906 0.005171135 -0.6161134 2.82529 -1.1950797 0.70497084 -0.07925743 -0.32691124 -0.85165036 -0.8975272 -0.20915097 -0.05731187 -2.5786898
7260 -1.2194315 0.7374622 0.49567404 -0.30352393 0.7629019 -1.1540626 2.3984957 -0.18755026 2.0740874 -0.06989497 -0.28847098 -1.7920809 -0.8710726 -0.8141849 -2.263596 -1.6738592
9793 -0.058230568 0.9953115 -0.10285741 0.13461947 -2.235445 -0.68640006 2.999817 -0.43699014 0.95851016 -0.37375987 0.35155568 1.1286206 -0.29416722 -2.8044512 0.52556527 -1.8014629
8844 -0.31881908 0.8959643 0.59229517 -0.73614997 0.4454855 -1.0716966 2.8090394 -0.25117788 0.8414989 -0.68578005 0.49345323 -1.423503 -1.1831272 -1.0977725 -1.5099163 -0.5350379
7567 -0.89462507 -0.021640679 -0.51404554 -0.35854706 0.39302734 -0.99035275 1.9297587 -0.20292921 1.7795972 -0.9549434 -2.028424 1.2939578 0.051134106 -1.9103585 -0.6723679 -3.5578246
6628 -0.9647466 0.051569134 2.492562 -0.5655799 -0.236067 -0.13418911 2.31278 -0.582668 1.8425556 -0.516822 0.5676631 -0.022476517 -2.1450162 -0.95384234 -0.92117834 -0.86659974
4344 -0.9175032 -1.4316657 -0.37862885 1.4890784 2.4662688 1.1818504 -2.8908994 0.03936706 -1.7693735 0.90084654 -1.4557729 -0.3554602 1.9062784 1.1259173 -0.17634062 2.4373078
9663 -0.3522544 1.0404539 -0.1828454 -0.025033271 -2.1186872 -0.4994555 2.7104151 -0.8499408 0.5350256 -0.7801384 -0.04698986 1.5447198 -0.5015419 -2.914947 0.70311135 -2.3448138
2063 -2.054683 -2.0013223 0.82024956 2.0181887 0.563382 1.0721023 -2.9455998 -1.3236814 -1.6485004 0.22501639 -0.5771425 1.7325052 1.1036812 0.48753762 0.6795424 1.2362684
7113 -1.1762546 0.70175284 1.3466555 -0.712751 0.73465914 -0.94869 2.068405 -0.16272645 2.0575056 -0.79868764 0.09250769 -0.8532129 -1.5566857 -1.3380009 -2.1816049 -0.8761483
1015 0.8763975 -1.1634861 -0.53917575 1.570935 1.0457002 1.4649032 -1.9943943 -0.46062952 -1.7436793 1.2401944 -0.7477582 0.07762758 1.3402724 0.7064769 0.7725752 2.963469
8750 -1.0181041 1.3448061 -0.18664296 -0.29523548 -1.4757789 -0.10370376 2.668827 -0.69688016 -0.68316495 -1.6087134 0.096400745 2.2718973 -0.73482347 -2.5571797 0.46786022 -1.2281804
9461 -0.765258 1.049792 0.9008331 -0.35930797 0.98157084 -0.95577306 2.4849489 -0.63689464 1.1557393 -0.5702629 0.205038 -1.7290932 -1.3905879 -0.3526216 -2.03576 -0.37921828
7129 0.5158301 0.61082375 -0.8406289 -0.97045076 0.25745928 -1.1676806 3.238863 -0.8059052 -0.51348156 -1.1446474 -1.0264043 -1.1517975 -0.6551606 -1.0784982 0.48590133 -2.3697543
7259 0.56717676 1.4616611 -0.51877457 -1.111107 1.100108 -0.9902102 2.537599 0.6291378 0.45733932 -0.5270675 -1.1205344 -1.0463444 -0.13676944 -1.564928 -1.5994757 -0.06657413
9567 -1.0287691 0.75734985 -1.0815749 -0.2972093 1.0244985 -1.3747236 1.9870584 0.2636071 2.1836157 -0.95514446 -1.9405237 -0.47650763 0.1413603 -1.9572273 -1.9770558 -3.091565
2909 -1.1369748 -1.8063906 -0.3437032 1.6351168 1.2338406 1.4438148 -2.6482 0.124101244 -1.3007631 0.91146797 -1.5610547 0.19684923 1.9875119 0.55748516 0.35931352 1.2832739
7963 -0.4688072 0.04566156 1.1062487 -0.34028476 -0.7104755 -0.44870403 2.8817983 -1.9299195 0.0408019 -0.6050423 0.60164654 -0.1936857 -1.8964036 -0.38598824 -0.065222524 -1.739665
6151 1.5062437 1.3975794 -0.90918136 -0.8224076 0.82227015 -0.5840758 3.2148724 0.13380155 0.10628803 -0.6080862 -0.96660817 -1.7945672 -0.25269058 -1.1412576 -0.28562507 -0.5915372
4227 -1.7580447 -1.4898797 -0.050753806 1.7595428 2.1216078 1.2691084 -3.0961373 -0.09499499 -1.2917094 1.1139228 -1.3136832 0.9850806 2.2659178 0.94197935 -0.6995641 2.0506516
1980 -0.18111031 -1.7921242 0.5177688 1.7765938 0.6412344 1.7257391 -2.097795 -0.8562419 -1.5275625 1.5247936 -0.17581469 0.20576623 0.82579726 1.0625322 1.1783526 2.3403592
3841 -0.59530956 -1.3842484 -0.78258854 1.3751924 2.075269 1.6604806 -2.622192 0.7349562 -1.3307612 1.3446945 -2.073529 0.49301785 2.910729 0.7595565 -0.08487532 2.6034105
6190 0.278269 -0.46326584 0.99172646 -0.77472824 -0.663287 -0.18354727 3.4504871 -0.69636846 0.48509476 -0.028220972 0.12704916 -0.7972613 -1.3901007 -0.4714293 0.22656445 -1.546986
3391 -0.89833415 -2.0456605 0.46415076 1.6460952 1.4070054 1.178204 -2.745969 -1.6877277 -2.092178 0.41458568 -0.60138655 0.62794054 0.84097034 1.2988734 1.0391759 1.4474045
5795 -1.5981125 -2.1158378 0.6774053 1.7291427 0.913324 1.6470501 -2.5548356 -0.492734 -1.7296728 1.210442 -0.8084828 0.0019981766 1.3479316 1.3707641 0.24077919 2.0496376
8446 -1.1798917 0.29975635 0.45621058 -0.51003873 0.8954348 -0.67510813 2.2378852 -0.1554792 1.9984163 0.4185815 -0.67625487 -1.3435931 -0.6285633 -0.44208178 -1.9211328 -1.7236377
7246 0.751851 1.6355468 -0.9724864 -0.5133223 1.3005543 -1.1567916 2.3760223 0.60804296 1.5391976 -1.1106957 -1.1069891 -0.6675014 -0.5904339 -2.1713805 -1.5206141 -1.3590527
8740 -0.34739682 1.0283161 0.40747207 -0.2942421 -0.8069244 -0.91117287 2.658372 -1.0234673 0.21269925 -1.6039308 0.616623 1.1824725 -1.870671 -2.1224349 -0.28740075 -1.4380141
7292 1.7570755 1.5155815 -1.2895945 -0.95860004 1.2306448 -0.71489567 3.1294456 0.6505358 0.51890105 -0.34933835 -0.6495796 -1.6650146 -0.059176832 -1.794228 -1.0760833 0.2765919
7287 1.3771551 0.9788736 0.040158655 -0.7071541 0.7758216 -0.41702032 3.3064446 0.28957936 0.8875658 -0.05240587 0.016039211 -1.7482526 -1.06293 -0.8568321 -1.1900287 0.34902367
6407 -1.119182 -0.061651006 1.1684994 -0.6515166 0.028920798 -0.57880104 2.0363116 -1.0864363 1.4984345 -0.57693785 -0.24294916 0.48852232 -1.3444895 -0.8940557 -0.96942335 -1.7264131
7584 -1.2229875 0.08856859 -0.088852905 -0.24381906 -0.2762027 -0.49412236 1.7381915 0.08741136 1.780161 -0.597087 -1.4476892 1.3482089 0.11435637 -1.9022851 -1.1947318 -2.4862792
7318 -0.38668078 1.2928932 0.5823371 -0.8106964 1.3487481 -1.2155888 2.3216522 -0.026551178 1.1595534 -0.94953686 -0.31365454 -1.2344552 -0.94816595 -0.84838045 -2.196139 0.20872103
7134 1.9437081 0.34500152 0.0088287275 -0.8167278 0.21720049 -0.076456316 3.620636 -0.6022938 -0.06872539 -0.1807468 0.23938692 -0.96029437 -1.0156394 -0.694897 0.7079454 -0.6024672
9187 -0.09366157 0.11546431 0.10576976 -0.27507436 -1.3707061 -0.27418754 3.0535269 -0.69514173 0.0011429464 -0.2955165 -0.037977487 0.29271522 -0.73964995 -1.526331 0.82544565 -2.0877647
6397 0.38816085 -0.09614207 1.586767 -0.4525441 -0.097255036 0.3272803 3.136464 -1.4165884 0.42635527 0.09565345 1.3516053 -0.58462095 -2.2141342 -0.10770808 0.008440326 -0.5111913
4510 -1.0351971 -1.3475937 -0.37278754 1.7720364 1.8689903 1.4416362 -2.8325489 0.47619033 -0.657245 0.8300846 -1.6572491 0.10835801 2.1010668 0.62065154 -0.36649123 1.9056282
1449 -0.733463 -1.4810146 0.025784316 1.9587101 1.2492319 1.4109176 -2.592499 -0.70273787 -1.5842211 0.86895436 -0.8203045 0.021913497 1.3244716 1.106557 0.38396823 1.7921284
9025 -0.88348645 0.5755244 -0.71607584 -0.62112755 1.1275362 -1.2755622 1.7656235 0.15215468 2.406615 -0.7497948 -1.9562106 -0.27815136 -0.062433127 -1.8213509 -2.004009 -2.4293613
4508 -1.269139 -1.5549957 -0.20522633 1.7615272 1.881855 0.75977415 -2.9733748 -0.655982 -1.6714528 0.22282222 -1.306756 0.2817065 1.4018478 0.9953821 -0.0053186878 1.6672617
8140 -1.2908028 0.07996105 1.2891325 -0.7040015 0.9414019 -0.5447629 2.1951132 -0.7022671 1.2715527 -0.12448512 0.19845437 -1.4090056 -1.3104736 -0.0153326215 -2.0938475 -0.47598663
8680 -0.9827031 0.72597885 -0.6188978 -0.52612484 1.0554844 -0.8632288 1.7538058 0.2538012 2.3769672 -0.44505167 -1.3888085 -0.16026202 -0.1821741 -1.7542679 -2.1706133 -1.5978879
8435 0.38894182 1.1562812 0.2806548 -0.028883938 -0.6774261 -0.8632113 3.357871 -1.4569349 -0.5673954 -1.276919 1.1747143 0.33700567 -1.8475852 -1.4872937 0.63521034 -1.2034917
6960 1.0172231 0.5517668 0.55288243 -0.5126288 0.48316085 -0.11980026 2.997465 0.61993754 1.5524877 0.40102908 0.37383816 -1.1354665 -0.7288531 -0.94055146 -1.0700761 0.4339676
424 -0.6370619 -1.4006578 -0.1313821 1.4482932 1.5079542 1.2441375 -2.92781 -0.08056764 -1.2914026 1.0019919 -0.9625632 0.069113664 1.5871254 0.36938494 -0.15116097 2.3769367
5831 -0.5343227 -1.7152574 0.32521334 1.8589715 1.6733987 1.4345431 -2.774582 -0.44980267 -0.7334308 1.3862898 -0.65020704 -0.36619052 1.2204586 1.0235494 -0.06282439 1.8453451
7716 -1.2336698 0.15305021 -0.38766757 -0.5644126 0.54463726 -0.9588101 1.5557418 -0.14364016 1.8423507 -1.0432765 -1.9744564 1.2779354 0.10882922 -2.1477406 -1.5458114 -3.1808834
8569 -0.703537 0.860633 -0.3714367 -0.6188275 1.4607533 -0.9992641 1.6382779 0.84184283 2.7040668 -0.47388196 -1.84537 -0.5006937 -0.22134212 -1.962773 -2.7473543 -1.8202915
1088 -0.09622605 -1.4395512 0.4929789 1.7648562 0.17073491 1.3602731 -2.1222835 -0.42270496 -1.2023156 1.151584 -0.3437556 0.4677796 1.0191679 0.42684862 1.2589173 2.5527437
8155 -1.8989317 -0.00798725 0.32026592 -0.7303521 0.5712268 -0.8095255 1.9517415 -0.35600764 1.9694896 0.009720962 -1.2805818 -0.97619027 -0.37125084 -0.7715755 -2.081334 -2.1274323
6963 1.803623 1.3082851 -0.30358496 -0.8975534 1.1658227 -0.45026097 3.0232038 0.40305164 1.0431405 -0.294746 -0.33347625 -1.9097961 -0.78073776 -1.4016225 -1.1522549 0.23103206
8697 -0.35684007 1.2121564 0.029097496 -0.5432877 1.228595 -0.6732519 1.7413625 0.0718825 1.2034717 -0.9316225 -0.43958932 0.40738508 -0.54268 -1.3308531 -1.8929923 -0.34041795
8364 1.5825883 0.39546296 0.8899486 -0.56497693 -0.5362148 -0.23617849 3.6883044 -0.58136773 -0.014519691 -0.36843318 0.9469202 -0.98741555 -1.9809878 -1.1724133 0.44297048 -0.6287791
7540 -0.4834153 0.35380232 1.0976863 -0.31356078 -0.27897 -0.70422494 3.0858257 -2.0102904 0.07583523 -1.060684 0.63668257 -0.51875013 -1.9348956 -0.35357904 0.14585884 -1.8256254
3808 -1.7026728 -1.9519305 0.15176533 1.7535486 1.6695274 1.3022974 -2.8308187 -0.75951886 -1.7153255 1.0110952 -1.0337344 0.50214946 1.242493 1.4062462 -0.020959016 1.546835
1470 1.3126286 -0.67940855 -0.33594233 0.8450059 -0.04627345 0.63122785 -1.2437582 -1.7880378 -0.26951084 0.14972986 0.15467626 2.5950081 2.9601564 -0.5415397 0.31197432 3.7278252
7248 0.86815137 1.1058239 -0.87180513 -1.0158617 1.1567285 -1.1238837 3.082132 0.1373254 0.47972 -0.16467306 -1.0430889 -2.3422043 -0.33811125 -0.9703423 -1.328579 -0.7870294
7282 -0.3085149 0.5791651 -0.30118346 -0.8696379 0.2974246 -0.9127487 2.8728878 0.30610868 1.2325791 0.14040312 -0.8574483 -1.409146 -0.50833416 -1.2005275 -1.3633996 -1.4924651
7416 -1.0522116 0.24331716 -0.01673576 -0.48130637 1.4315113 -1.2534502 1.391669 0.43165696 2.7914069 -0.75354934 -1.5905465 -0.11708172 -0.1080533 -1.7891283 -2.6812468 -2.0626934
6944 1.7608458 1.2575661 -0.618956 -0.9878712 0.98002476 -0.40701172 3.1738636 0.6116299 0.59949404 -0.08398376 -0.6592257 -2.0846026 -0.26716235 -1.4893548 -1.139204 0.24978791
8361 -0.43209806 0.32620257 1.2807845 -0.4188427 -0.22816145 -0.33397725 2.7455204 -1.6631337 0.4034317 -0.59980226 0.8319117 -0.041403912 -1.7977699 -0.5338824 -0.28279462 -1.3421817
7994 -0.73227227 0.41682982 -0.14892118 -0.7331109 0.4953096 -0.99521464 2.401659 -0.29218453 1.5744518 0.1596567 -1.3155508 -1.8861116 -0.3336474 -0.56468946 -1.8732104 -1.7880969
8052 -1.2598766 -0.0717741 0.76553476 -0.6211169 0.44270426 -0.4694481 1.6002057 -0.76530707 1.5162718 -0.66779435 -1.0394223 1.164325 -0.6713293 -1.0266076 -1.4178659 -2.1372485
7681 0.2047832 0.41156763 1.2364488 -0.49018523 -0.012324729 -0.46306154 3.0934706 -1.6445456 -0.04476548 -0.4671357 0.9752454 -0.51270753 -1.919199 -0.34861937 0.16835858 -0.8743178
5367 -1.1125078 -2.2105904 0.4202184 1.8910741 0.8224384 1.1150653 -2.814356 -0.6761551 -1.2796575 0.60173064 -0.58934003 0.56689996 1.0122461 0.60761 0.21911053 1.3090236
7410 -1.5727357 -0.8374656 -0.19440547 -0.4585814 -0.7099429 -0.66483825 2.4414341 -0.5715742 1.3048706 0.104452394 -1.8483973 -0.024768464 0.17759155 -1.0122719 -0.9502483 -3.6735458
3539 -0.3949548 -2.2052794 0.42684695 1.6626033 1.159472 1.1470952 -2.3433976 -1.1220646 -1.7601795 0.7455724 -0.35092518 0.1476165 0.8589001 1.2829245 1.1141983 1.9706799
7398 1.4626939 0.16171704 -0.44577417 -0.75149524 -0.18686987 -0.36822 3.5318224 -0.7859152 -0.40550014 -0.39369676 -0.3148833 -1.094041 -0.7228016 -0.7824843 0.5293642 -1.8469596
8234 -0.9275567 0.5379529 -0.7311511 -0.6891744 0.4673834 -0.9716653 2.6412656 -0.18590759 1.1534199 0.10614104 -1.3654714 -1.5522578 -0.045549214 -0.81444645 -1.4655356 -2.0407748
6404 -1.068332 -0.015091637 1.5909601 -0.72973925 -0.25181535 0.23468396 2.458186 -0.35628024 1.70719 -0.3464876 0.21395372 0.106143534 -1.627681 -0.92791194 -0.8991872 -0.76097065
9200 1.3659157 1.1283033 -0.7375594 -0.04038128 -1.4586973 -0.56002635 3.4858859 -1.1867448 -0.5215782 -1.0792876 0.571779 1.0958492 -0.9663371 -2.2010171 1.3413584 -1.065682
3224 0.100400984 -1.7470323 0.22811976 1.5992811 0.8670688 1.4686823 -1.7640041 -1.0806375 -1.7037512 1.3665205 -0.5079996 -0.6427581 0.9124712 1.5410191 1.1971568 2.3236053
8051 -1.5702893 0.67372864 0.72907406 -0.6008331 1.1532451 -0.8125155 1.4723551 -0.7661243 1.9776644 -0.66087526 -0.820391 0.14926846 -0.785 -0.9387982 -2.1579738 -1.3370675
9711 -0.37668687 1.1286374 0.45041987 -0.6309593 1.4695724 -0.7762008 2.2546463 -0.14577408 1.5037608 -0.32361072 -0.1683395 -1.797636 -1.0631258 -0.61949754 -2.1169996 0.13275765
7009 0.6803415 1.2020608 -0.35615903 -0.42129406 0.92770183 -0.47496834 2.7237647 1.4220424 2.2592905 0.7951882 -0.7023356 -1.782508 0.06292278 -1.5918822 -1.8812927 0.1410293
9121 -0.46074313 1.4963156 -0.101020955 -0.2840065 -0.7951032 -0.29475635 2.440644 -0.66503257 -0.2705543 -1.2498231 -4.7410187e-05 2.4176407 -0.6901383 -2.3348591 0.23787443 -0.9562366
6627 -1.3127086 -0.27438852 1.4973598 -0.48656097 -0.3202533 0.16253096 2.542978 -1.6537875 0.57941556 0.22160137 0.24424993 0.19553228 -1.2028542 0.24964553 -0.43838048 -1.064228
1285 0.30416346 -1.0895137 -0.33935794 1.6889962 1.4831055 0.99516445 -2.1462429 -0.45252776 -1.900969 0.9837891 -0.6188811 -0.4959876 1.1148562 0.84721404 0.69848 2.439125
7557 -1.0695515 -0.13066086 1.5098857 -0.5294825 -0.21623558 -0.6972404 2.307543 -1.8072889 0.46814182 -0.7723341 0.50215065 0.070306994 -1.7557633 -0.51870567 -0.6730425 -1.7109263
7334 -0.11090841 1.08568 0.29388672 -0.5815876 1.3344865 -1.0804728 2.589186 -0.0032673597 1.817937 -0.13166013 -0.25538665 -2.3159988 -0.6549431 -0.5524379 -2.312161 0.2539382
7328 0.300543 0.9684635 0.2838666 -0.7710811 1.2461798 -1.1730924 2.8622026 -0.64860034 0.5352597 -0.8577129 0.14540893 -1.8509274 -1.3490685 -0.39098877 -1.6292688 -0.08547733
9795 0.018571315 0.68782735 -0.62684304 -0.12501374 -1.428485 -0.5705397 2.820303 -0.38353196 0.6456252 -0.36659342 -0.11815177 1.140758 -0.20288116 -2.324695 0.24787967 -1.9394015
8732 1.0988724 1.0549743 -0.37176138 -0.41825578 -0.6900068 -0.69817793 3.4297562 -0.39759216 -0.15896441 -1.052453 0.011276735 0.012949108 -1.3058777 -1.9274999 0.78294855 -1.6582121
6087 -0.009330832 0.1471688 -0.4368545 -0.82810134 -0.58267206 -0.68073714 3.1442823 -0.76478046 -0.40291306 -0.77256733 -1.0425076 -0.1823634 -0.7497243 -1.2779106 0.5739614 -2.8186784
7713 0.75459623 0.50758344 -0.21813144 -0.7121011 -0.5118756 -0.4285332 3.2216387 -1.20096 -0.36131442 -0.5779597 0.22020923 -0.2716815 -0.67184037 -1.1442037 0.9124826 -1.1863124
9293 -0.9797035 -0.07841469 1.6692584 -0.39442736 -0.26105332 -0.7170669 2.5177746 -1.7350173 0.37763134 -0.470131 0.5475199 -0.028647402 -2.0037441 -0.31848904 -0.55752164 -1.4734561
6356 -1.4823653 -0.10986038 -0.20628233 -0.3288413 0.50980246 -0.7849633 1.520951 0.01646665 2.2406988 -0.84222835 -2.1378534 1.2753588 0.05765483 -1.9597296 -1.3621029 -3.2334263
7714 0.50665027 0.34923238 -0.3271214 -0.77635884 1.027872 0.08090051 2.8507175 -0.15574345 1.1216645 0.43046924 -0.61533177 -1.8670746 -0.19695167 -0.08506806 -0.9346901 -0.46110603
6953 1.6434103 1.9010063 -0.89682955 -0.4601786 0.7454334 -0.28726014 2.7787497 1.0612761 0.9870802 -0.3555315 -0.08713063 -0.7517132 -0.2041229 -2.2777002 -1.2081691 0.7689793
7693 0.26713836 0.32740286 -0.74431366 -0.5171295 0.42544654 -0.4350491 2.354324 -0.12853363 1.0707034 -0.98835653 -1.413675 0.9968412 -0.3743957 -1.795853 -0.08223051 -3.0003226
8803 -0.762459 0.23656438 -0.45907107 0.03586215 -1.464502 -0.5241408 2.9016128 -0.5382817 0.8077391 -0.6148879 -0.22945307 1.2853833 -0.59954035 -1.9562073 0.37183312 -2.479906
6776 -1.5280331 -0.7013317 0.76833504 -0.48723355 -0.42560777 -0.3131065 2.1361399 -0.919912 1.31135 0.0876067 -1.0302137 0.7431746 -0.20305318 -0.7457277 -0.5782281 -2.6197608
7957 -1.7937083 -0.2647377 0.43622485 -0.44078794 -0.3646604 -0.5174433 1.8165263 -0.3342721 1.7134011 -0.7015661 -1.8635663 1.4436585 0.2194432 -1.6506289 -1.126484 -2.9663055
9296 -1.2672958 -0.4705448 -0.22169235 -0.5466715 -0.3506841 -0.45910308 2.4767666 -0.6524704 1.2131035 0.20304814 -1.578732 -0.2843138 -0.20222053 -0.80824304 -0.337993 -3.1894732
9295 -0.5712646 -0.33648446 1.449661 -0.38636613 -0.5100143 0.36662713 2.7194269 -1.9320164 0.42506748 0.073673256 0.28220326 -0.31605056 -1.4734638 0.36184877 0.1069482 -1.1568782
9112 0.048526227 0.43517593 0.6437122 -0.45620424 0.87527865 -0.2477034 2.6607363 -0.66323084 1.0690576 0.30024597 0.4042632 -1.7714449 -1.1148028 0.12487379 -1.3055956 0.033978704
9401 -0.30012962 0.66270036 0.84496325 -0.6639326 0.9844191 -0.9311603 2.8011324 -0.92090803 0.73999923 -0.1923586 0.37156463 -2.1274953 -1.5681312 -0.13563652 -1.6483228 -0.38697967
8495 -0.6544527 1.3596405 -0.8036266 -0.62260723 1.2098395 -0.8911695 1.8137333 0.4531724 1.117788 -1.2366865 -1.522832 0.41256478 0.2671126 -1.9544241 -1.573212 -1.4774185
9488 -1.3621712 0.36525953 0.9500229 -0.6723393 0.86423254 -0.6728957 2.2538936 -1.324694 1.0152587 0.115606554 -0.21341915 -1.5330011 -1.1255677 0.21922067 -1.7240021 -0.98259866
7436 -0.26490888 0.2523182 -0.16701122 -0.7132245 0.5144799 -0.5045584 2.231122 -0.35975438 1.3141478 -0.71788913 -1.2287825 0.27064556 -0.60317725 -1.2036136 -0.8521242 -2.3408089
7130 -0.119093806 0.77127284 -0.50635916 -0.6880935 0.47886038 -0.6668942 2.7416983 -0.3492995 0.9715095 -0.056502376 -0.74870163 -1.6516429 -0.44013867 -0.6240541 -0.967531 -1.0668719
7298 -0.7766493 1.0064082 -0.05907916 -0.9683979 0.89755 -1.2629783 2.5121846 -0.30848864 0.22638719 -0.9824159 -0.90638906 -0.91774136 -0.24692242 -0.801556 -1.3113806 -0.9370771
8342 -0.9051471 -0.05997193 1.2488549 -0.35410264 -0.21439028 -0.662111 2.5431216 -1.8069601 0.2740148 -0.40467086 0.38608742 -0.558679 -1.8460144 0.087435186 -0.82519567 -1.2070466
6635 -0.8231376 0.15241398 2.0546646 -0.8305022 0.06378683 0.08055275 2.153957 -0.077054724 1.9929521 -0.22294419 0.4175081 0.17350341 -1.4013301 -1.1362896 -1.4481272 -0.22204101
549 -0.61588025 -1.9616139 0.19151725 1.5991707 1.09935 1.1797919 -2.5932133 -0.55903405 -1.3317385 1.0423065 -0.9354537 0.18321267 1.2490059 0.8034656 0.6082525 1.6198727
6637 -0.7301123 -0.5094488 2.0571659 -0.46513265 -0.39388582 0.40997115 2.7034693 -1.9287047 0.38643342 0.3083973 0.6563713 0.022169622 -1.7738518 0.42236432 0.057843667 -0.7583073
9742 -0.5114887 0.82784224 -0.86992925 -0.5126762 1.6790112 -1.4761057 1.5400052 0.7154315 2.2904925 -0.57348937 -2.2051265 -0.8283645 0.32109562 -2.0635886 -2.3701725 -2.1377842
5643 0.28071058 -1.5198046 0.47552225 2.0261633 0.71986115 1.3412142 -2.027991 -0.19494456 -1.1156143 1.427373 -0.12227564 -0.5092944 0.7665049 0.84602475 0.579075 2.6767974
7431 -1.369848 -0.047078278 0.14947858 -0.47402507 0.46010494 -0.40909573 1.6653485 -0.7055569 1.1530255 -0.55143756 -1.5210603 1.3650669 -0.06580128 -1.0121409 -0.8605511 -2.4669785
8308 -0.21945724 -0.32612932 0.32134008 -0.8314186 -0.5271922 -0.16528237 3.4399347 -1.2088301 -0.05527556 0.10711057 -0.5725537 -0.81111234 -0.86748 -0.013955421 0.46341586 -1.9748874
7772 0.19744883 0.22419472 -0.11769121 -0.7035779 0.11790541 -0.4961166 2.8186655 -1.3230032 -0.252698 -0.51152605 -0.4857273 0.11092132 -0.7816995 -0.54647017 0.43862572 -1.9472092
752 0.036955096 -1.9860909 -0.123827346 1.7269764 0.04478277 1.2584177 -1.7056817 -1.5576123 -2.2083497 0.9343302 -0.11848619 0.047968697 0.7941805 0.8141662 2.1118405 1.6264302
1448 -0.98008907 -1.9886454 0.24229619 1.7803761 0.62907296 1.4570259 -2.2952034 -1.3263704 -2.3699918 1.0186318 -0.6629818 0.4702857 1.074372 1.2859308 1.199266 1.5203038
678 -1.3309255 -1.6397274 0.75883883 1.682694 0.9343659 1.2168422 -2.8655791 -0.93082774 -1.164578 0.61136204 -0.5606357 0.7252787 0.57170284 0.67318994 0.08863547 2.0450766
1010 -1.3231996 -2.0928433 -0.0097559085 1.9669408 0.906174 0.8867147 -2.6511855 -0.97810847 -2.0689964 0.4159738 -0.98024255 0.3210992 1.0238988 0.7156119 1.0383663 0.5989787
7648 -1.812159 -0.5279762 0.2220306 -0.41164374 -0.7715413 -0.4402939 2.3923066 -0.6841669 1.2066174 0.25297555 -1.3318677 0.015340384 0.057629723 -0.82851005 -0.54197854 -3.1405964
9937 1.4875734 1.2029927 -0.27654865 -0.23243399 -1.0411247 -0.5510693 3.3120072 -1.005232 -0.43132493 -0.431265 0.90682447 0.29736698 -1.0203645 -2.132935 1.1192673 -0.99665445
7273 1.5650752 0.9713614 -1.3526684 -0.64953506 0.6446722 -0.5717441 2.9031374 0.80119926 0.9890264 0.031755406 -1.0045437 -1.4137679 0.29472655 -1.9179145 -0.44334206 -1.4093105
7448 -0.5740799 -0.10443854 -0.25123617 -0.587446 -0.407816 -0.41109356 2.5223305 -0.40701368 1.2074118 0.50075 -0.94916046 -0.19134018 0.19258468 -0.99204165 -0.64864904 -2.4738483
7274 0.5998061 0.95940083 0.30566126 -0.71724564 1.2820873 -0.8658777 2.9540308 0.045116063 1.4288632 -0.038731117 -0.2688227 -2.2398462 -0.75228244 -0.5176846 -1.6507225 0.05790112
8657 -2.1249123 -0.1582685 0.33845565 -0.47542167 -0.27217308 -0.80227536 1.7045596 -0.36751792 1.0191488 -0.76020616 -1.7431679 1.4832786 0.19849543 -1.6687454 -0.8429318 -2.6928995
8752 0.5850274 1.0140523 -0.4179232 0.14286727 -1.5954057 -0.025421236 3.4289942 -1.0114644 -0.6693493 -0.9533161 0.7011491 1.3994758 -1.154132 -1.9678378 1.3067228 -1.2752684
6591 -0.4317035 0.43211943 1.177326 -0.42495328 -0.08806292 -0.3613164 2.3070092 -0.9432147 0.91278386 -0.90783346 0.5991138 0.6459184 -1.4904299 -1.1088169 -0.8109668 -0.8205909
524 -0.21252339 -1.9239752 -0.48040372 1.5508069 0.8955422 0.7887603 -2.076047 -1.0964754 -2.5242286 0.44286138 -1.0056392 0.4927381 1.3146007 0.839622 1.6047728 1.2766447
9743 -0.25911018 0.8837339 -1.0411702 -0.44913334 1.412465 -1.4027401 1.8574336 0.7812799 2.3616161 -0.6497435 -2.0546455 -0.9432576 0.2275116 -2.1520205 -2.4131687 -2.3383133
7722 0.18132256 -0.2070056 0.9611148 -0.7628669 -0.61986923 0.13387069 3.3084164 -1.6087749 -0.0515214 -0.27889234 -0.023364034 -0.01906226 -1.3383588 -0.16382779 0.72024125 -1.5534126
8094 -1.9311056 0.44895306 1.1394856 -0.51252097 0.9571663 -0.27928174 1.5507797 -0.5280034 2.0275414 -0.558724 -0.37223732 0.29480654 -1.0465127 -0.8274124 -2.1183152 -0.8608228
6579 -0.7982544 -0.635401 2.4119728 -0.2814812 -0.5448845 0.539374 2.8389986 -1.6303653 0.586476 0.5280208 1.1481496 -0.03539568 -1.9722642 0.4873857 -0.36525282 -0.37429354
6051 -0.55733454 -0.38116056 1.67412 -0.3136886 -0.6492058 0.29516178 2.8186336 -1.9445349 0.37497202 0.4915162 0.9794559 0.018958403 -1.5496325 0.11665275 0.17253678 -0.95720387
9008 -0.4164673 0.89456964 -0.3216789 -0.6077483 2.066934 -0.89297277 1.5712457 0.50076085 2.3805082 -1.0095559 -1.3653865 -0.20895551 -0.060003072 -1.6649938 -2.2379212 -1.5045643
8121 -1.519221 0.04081767 2.1749163 -0.7808779 0.17816849 -0.0059808507 2.0928783 -0.6998189 1.786662 -0.2925015 0.67682505 -0.23338965 -1.6267909 -0.57882917 -1.6992185 -0.045588594
8930 0.58972245 0.3660084 -0.35707363 -0.4549581 -0.5078967 -0.4761563 3.2789478 -0.9682768 0.010772511 -0.4220246 -0.5108339 -0.5276484 -0.76591223 -0.77552956 0.5421833 -2.0614974
8145 -1.6057053 0.5451705 -0.07072156 -0.4490825 1.5720241 -0.9668889 1.5375777 0.32435882 2.7810698 -0.9641258 -1.6534852 -0.19737975 -0.24969798 -1.6281921 -2.5034533 -2.039286
6333 0.5916848 0.36364925 -0.63097984 -0.6995753 -0.21997981 -0.3419356 3.0293186 -0.7910794 -0.33130115 -0.6812823 -0.9785514 -0.025749432 -0.20912275 -0.92918026 0.50115037 -2.1572664
8041 -2.2350283 0.16902971 -0.029703924 -0.4986944 0.54452235 -0.8431887 1.8800592 -1.0917113 1.2731954 -0.04828531 -1.1878773 -0.9346954 -0.075157955 -0.29672387 -1.7588718 -1.9713886
1605 -0.4147121 -1.8008133 1.5867517 1.7316436 0.115315735 1.8084196 -2.1092498 -1.508571 -1.2071698 0.97913074 0.25754696 0.67176145 0.112928145 0.89602774 1.3444532 2.4753885
4543 -0.6407832 -1.5666529 0.0034160386 1.6796635 1.1597903 1.1430545 -2.6079311 -1.0849011 -2.269805 0.6071141 -0.6734841 0.1826085 0.9194596 1.0277636 0.5155554 2.0197997
9403 0.7250985 1.2184384 0.39382932 -0.701505 1.0519867 -0.50000477 2.5932078 -0.44181806 1.1300954 0.16672678 -0.060764994 -1.700176 -0.79479504 -0.48386812 -1.5695277 0.6651545
6076 1.3356831 0.51627475 0.26232004 -0.70289105 -0.53879505 -0.08590669 3.4226623 -0.665924 -0.31036493 -0.096992165 0.044159554 -0.9498915 -1.1228741 -0.9495741 0.9332152 -0.9196706
9092 -0.17858624 0.45290357 0.78416216 -0.24455677 -0.6846568 -0.50742435 2.8285053 -1.8517516 -0.18229498 -1.0356853 0.46672216 0.65398145 -1.6608512 -0.87715566 0.410678 -1.6131634
6828 -1.4479676 -0.16529004 0.98875284 -0.5145142 -0.112830535 -0.4615903 1.697704 -1.0454866 1.4180611 -0.79874146 -0.5704289 1.3926966 -1.1029935 -1.2396222 -0.9537438 -2.0968978
7223 1.1142428 -0.094969004 0.61611044 -0.4712677 -0.28787228 0.4263377 3.578587 -0.5881671 0.53440744 0.690667 0.5012357 -0.61050814 -1.1502186 -0.1211133 0.705295 -0.42132974
4447 -0.7496888 -1.2502813 -0.90118617 1.3296951 2.3762786 1.1427065 -2.8144078 0.6666127 -0.9625641 1.0432577 -2.2062905 -0.44479257 2.3932734 0.33845255 -0.9611207 1.8596736
3824 -1.1177739 -1.3825278 0.05603246 1.6769414 2.0292408 1.1928928 -2.9971392 0.12917691 -0.8447295 1.1525687 -1.3204217 -0.25992867 1.4317527 0.7594669 -0.5996139 1.8833047
6514 -0.61357325 -0.1270322 -0.8608595 -0.6997026 -0.2677207 -0.50147134 2.78738 -0.3897796 0.8277499 0.061491746 -1.669152 -0.4362336 0.12747885 -1.0822613 -0.06161863 -3.194748
4064 -0.017069269 -1.3028395 0.25199348 1.6649225 1.6175445 1.1095665 -2.4542315 -0.14434238 -0.99725175 0.93151456 -0.14624643 -0.08502881 1.0217423 0.57632774 -0.19753987 2.7222276
6065 1.0530221 0.024507642 0.024699287 -0.48593998 -0.38135687 0.046979785 3.3862097 -1.3448658 -0.30777815 -0.1744495 0.33360127 -0.86786574 -1.0682275 -0.31935316 0.8318723 -1.0834855
7417 -1.9879616 -0.41507006 0.7733442 -0.42223772 0.112098455 -0.24494433 1.5246016 -1.3402476 1.207937 -0.2278566 -1.4152673 0.6933918 -0.25545412 -0.4800352 -0.97372174 -2.3729565
7306 0.41216382 0.44580793 -0.1729866 -0.963157 0.40863803 -0.812855 2.8859947 -0.22466895 0.51550454 -0.3747389 -1.0312675 -1.4710768 -0.41491175 -0.93695885 -0.38126245 -1.5715988
4448 -0.6983392 -1.504187 -0.36894742 1.8344904 1.1507066 0.75629485 -2.7395198 0.09578109 -0.90545917 0.94062185 -1.2000878 -0.107521765 1.6008921 0.11325856 -0.17265968 1.400363
3526 -1.5120817 -2.1610081 0.6834676 1.9256634 0.5322371 0.86550814 -2.6386352 -1.1460085 -1.352394 1.0371169 -0.5592191 0.63381386 1.0119121 0.83157134 0.41097927 0.96367
7290 1.3205591 1.1641576 -0.742611 -0.85461515 0.9891756 -0.4365794 2.9148862 0.8964749 1.4050021 0.29748702 -1.1447508 -1.7597966 0.017324818 -1.4196688 -1.2339988 -0.12285148
7141 -1.3642424 -0.093977444 0.2665289 -0.60636175 0.48851022 -0.49851853 2.2482288 -0.65390974 1.6328908 0.19971077 -1.0627527 -0.96967924 -0.366172 -0.25451162 -1.4167202 -1.8364758
7247 1.717968 1.1928856 0.05460977 -0.68055654 0.8247604 -0.3135315 3.0235407 0.0060510873 0.87857825 0.2621305 -0.06527872 -1.6861736 -0.71672666 -0.8311593 -0.9516146 0.7879113
6480 -0.4628717 -0.22849056 1.5441138 -0.41383654 0.06421358 0.21875215 2.7480109 -1.8630317 0.5605788 0.36219308 0.8817647 -0.0459394 -1.5208533 0.31037098 0.08002492 -0.7142914
3032 -2.548064 -2.2769227 1.2071831 1.669257 1.3428447 1.3257864 -3.167468 -0.6467467 -0.8237739 1.0129658 -1.1757684 0.99889 1.3202285 0.91284066 -0.6485904 1.4910971
7949 -0.33191985 0.41984522 -0.20963894 -0.5335953 0.32509375 -0.79029405 2.003914 -0.07859628 1.7194021 -0.84114206 -1.4785765 0.9311366 -0.5214416 -1.9322574 -0.8695761 -2.5966501
1912 1.0046085 -1.0825437 -0.6570846 1.3785869 1.1918432 0.96204025 -1.6841956 0.21047357 -1.5538354 1.2441689 -0.92608404 -0.8723044 1.3322808 0.22435845 0.6974992 2.3606033
8046 -1.048306 -0.5912251 0.3910403 -0.53368 -0.47051713 -0.27367312 2.1523502 -0.5514329 1.5943855 0.16058974 -0.9198322 0.4172972 -0.25136507 -1.1184089 -0.49821377 -2.6763544
6046 -0.08571145 -0.14286838 -1.2028582 -0.6269303 -0.2228462 -0.89992434 2.8813853 -0.81176955 0.070323005 -0.30208772 -1.8714033 0.04731216 0.33687723 -0.99635875 0.56054366 -3.5734932
8393 -1.2502948 -0.69845146 -0.29521883 -0.33649823 -0.94411135 -0.7976457 2.6456056 -0.6816087 0.8774637 -0.26043302 -1.6368393 0.60666066 0.29247445 -1.2754201 0.03676684 -3.6786833
7412 -1.3926537 0.024605248 -0.14996913 -0.26547736 0.66329885 -0.7247318 1.5538448 0.41483775 2.5175352 -0.7976285 -1.8534207 0.59153837 -0.24033174 -1.9221084 -1.9082179 -2.9954276
8376 0.9148529 1.0003172 0.28547505 -0.04722348 -1.0897747 0.25410265 3.5003843 -0.77820176 -0.33443296 -0.44757918 1.1477396 0.74720454 -1.5350083 -1.4442223 1.1254866 -0.32973084
8810 -0.41186184 1.0757297 0.42176747 0.08962654 -1.5294087 -0.17657222 2.69757 -1.6152585 -0.19076893 -1.0685515 0.7847426 1.5384154 -1.7476813 -1.7336869 0.7515354 -1.0223652
8447 -1.215167 0.67282045 0.4841725 -0.43511322 1.8055087 -0.21914987 1.528607 -0.3556661 2.073348 -0.07480376 -0.7594568 -0.19390962 -0.55201375 -0.3289097 -2.4169455 -0.6947819
6389 -1.2599353 -0.52959424 -0.2657912 -0.51500493 -0.49440852 -0.43333822 2.5257306 -0.24052137 1.242076 0.086586036 -1.7548171 0.00052374974 0.39178923 -0.95451266 -0.57774585 -3.1893542
2116 -1.4756681 -2.3988478 1.0656452 2.1094577 -0.52719194 1.4352474 -2.5498257 -1.5019772 -1.2067347 0.91959745 -0.36813125 1.8382642 0.42898524 0.24780883 1.3665714 0.6602522
1447 -1.3894254 -1.7308033 0.26655787 1.723328 0.85768044 0.55208 -2.8633535 -0.5940759 -1.3353823 0.34011066 -1.0316138 0.47326455 1.1959842 0.21299526 0.22897266 1.086165
7952 0.6851082 0.36506122 -0.7691764 -0.5866028 -0.580121 -0.7931009 3.2207074 -0.8026384 -0.15962636 -0.58324474 -0.47979164 -0.16943268 -0.20717412 -1.3649664 0.6279623 -2.151854
7068 -0.7184389 0.7206985 1.5429313 -0.59967613 1.2246525 0.0510284 1.9737864 -0.049422015 2.197611 -0.030257033 0.5945283 -0.5866748 -1.5563383 -0.7336836 -1.9930378 0.78940654
6369 -1.5343533 0.093126185 -0.07937715 -0.15989313 0.5686188 -1.1061574 1.5654501 0.16562693 2.442529 -0.98338735 -1.9389327 1.2163355 -0.15860371 -1.9867679 -1.9525687 -3.0811784
3292 0.36686167 -1.1258297 0.07674666 1.5886018 1.5733402 1.8227932 -2.086635 0.11507496 -0.37111813 1.6327577 -0.45365596 -0.87228954 1.3420357 0.86576265 -0.532537 3.4309876
3778 -2.2572322 -2.3488955 0.88742954 1.7698896 0.7692023 1.1090744 -2.6416495 -1.0450764 -1.4216703 1.0985713 -0.9156096 0.60061896 1.1887139 1.0475868 0.30569366 0.8985739
8786 -1.8303909 0.60710996 1.1760224 -0.6879328 1.3729457 -0.41254684 1.587968 -0.7836393 1.1172768 -0.4782805 -0.29080942 -0.108097315 -1.0349548 -0.14371815 -1.930637 0.09197736
881 -1.5235146 -1.8108836 0.29865116 2.0697675 0.36389592 0.8862706 -2.6086612 -1.3368471 -1.700213 0.062875606 -0.67625386 1.5842241 0.9110922 0.38048652 0.9851447 0.6211559
7817 -1.3932705 -0.64117146 2.0422359 -0.22894715 -0.42424768 0.046095707 2.4621255 -2.1909885 0.45597026 0.06377607 0.80327666 0.453179 -1.8723698 0.16657002 -0.18783568 -1.3879162
5954 -0.945354 -1.6941812 0.3225914 1.5582013 1.9648721 1.21802 -3.0225413 0.26100814 -0.516986 1.1663041 -1.362376 -0.25280643 1.6687671 0.7257659 -0.88768595 2.121976
550 -0.47256055 -1.7651716 0.43475813 1.8432326 1.1607606 0.92272913 -2.7562597 -0.2444927 -0.5204611 0.7744776 -0.6378525 -0.040400982 0.64546627 0.35184532 0.03489738 1.5454566
9592 -1.1826748 0.6342756 0.80533856 -0.4745536 0.79576606 -0.88105196 2.4073243 -1.0015839 0.9920142 -0.31533578 0.15909852 -1.6413139 -1.2642334 -0.099683225 -1.8375918 -0.64881927
9046 1.6814917 0.34679165 -0.4821563 -0.5776374 -0.5997505 -0.33077168 3.696166 -1.0547202 -0.8436313 -0.6372706 0.35795546 -0.64065284 -0.9850768 -1.0774533 1.2482853 -0.9741801
8329 1.7540027 0.97611916 -0.3815308 -0.49780118 0.6302518 -0.38898575 3.463931 -1.0920658 -0.32195187 -0.55686086 0.43930495 -1.3373588 -1.038051 -0.476817 0.44087985 -0.009417941
2106 -1.3707913 -1.8871096 1.4492623 1.7825963 -0.25343302 1.4879736 -2.2318873 -1.8209431 -1.2886875 0.6355784 -0.09642121 1.5146651 0.040885456 0.61397874 1.5024383 1.5048277
4647 0.8695712 -1.629428 -0.7927004 1.401643 1.0139984 1.0689853 -1.228996 -0.92731243 -2.323055 1.1940588 -0.91862935 -0.91632766 1.370264 1.3633319 1.3854027 2.0306466
1698 0.9340023 -1.1252384 -0.5151174 1.4040418 1.6512433 1.028083 -1.8928846 0.09974678 -1.3727292 0.8751507 -0.81809694 -0.79011613 1.1542854 0.30289832 0.6513447 2.005739
7120 0.1755038 1.1717201 0.29630068 -0.9789731 1.3358209 -0.6800872 2.5695255 -0.53942925 1.2212709 -0.5648505 -0.24468067 -1.5912526 -1.2762009 -0.6893773 -1.7908607 -0.15443628
7993 1.0606551 0.84396213 -1.3559058 -0.9099568 1.4062065 -0.91249514 2.7956872 0.44145283 0.83002937 0.3129519 -1.6411976 -2.1429684 0.6457414 -0.9981603 -1.2609853 -0.5581214
7679 0.40477082 0.1622492 0.18328333 -0.511937 -0.30436873 -0.28056654 3.14599 -1.5921909 -0.5337997 -0.5077487 0.21154132 -0.33205834 -1.3555664 -0.33462182 0.87716657 -1.158093
7255 -1.2589328 0.5885693 -0.32033646 -0.45876485 0.49292728 -1.2819532 1.4782884 -0.14136656 1.0972397 -1.2786117 -1.8398883 1.2029175 0.14460695 -2.2554088 -1.1076586 -2.7700117
7592 -1.7908797 -0.7149748 -0.011520946 -0.44473684 -0.29973865 -0.34557134 2.0580206 -0.9952708 0.9972285 -0.13445334 -1.5802982 0.5069282 0.105774626 -0.64887714 -0.59159225 -3.0052779
4425 -0.8309036 -1.8792124 0.90747505 1.9314637 1.1216507 1.4237036 -2.5012279 -0.63148165 -1.4841329 1.3347943 -0.27277452 -0.32363394 0.6098572 1.2490973 0.22729965 2.190534
7075 0.26038608 1.0649607 0.87379223 -0.5916578 0.54735625 -0.07458648 2.3290975 0.2744923 1.745188 0.116812795 0.4223728 -0.7451244 -0.86479175 -1.2389468 -1.6457762 0.7029094
6036 0.9177858 -1.0531138 -0.57607055 1.464586 1.294666 0.90719014 -2.1322682 -0.005482861 -1.2931224 0.6410742 -0.5976616 -0.0292153 0.9695909 -0.053899914 0.7677351 2.2529829
7415 -1.5391449 0.3905913 -0.21869038 -0.40978596 1.2911172 -0.796379 1.4140528 0.21614847 2.4980965 -0.48200238 -1.8567646 0.29615352 -0.1199064 -1.4798793 -2.3435905 -2.0740807
9539 -0.44113752 0.6894278 -0.12415043 -1.127841 0.20220144 -0.5911308 2.5723927 -0.616051 -0.4615715 -0.8656338 -1.1368368 0.30446875 0.074332036 -0.7983107 -0.17937073 -1.0053385
6275 0.84540075 0.62619394 0.28006583 -0.6892272 0.7359958 -0.25641114 2.6895485 -1.1765889 0.16660462 -0.53911173 0.15810262 -0.41377205 -1.1033684 -0.34050605 -0.18881536 -0.44007477
5636 0.40635863 -1.4670067 -0.8539602 1.7771306 1.3480276 0.6741203 -2.1741006 -0.4319818 -1.4694455 0.74638826 -0.900588 -0.79634714 1.260826 0.5720218 0.42780733 1.5415986
6110 -1.3706727 0.38966972 -0.54199165 -0.53670377 -0.2836451 -0.9256167 1.9105498 -1.1944317 -0.19009793 -1.0590795 -1.5743978 1.4382979 0.53295815 -1.2966728 -0.39597037 -2.3592863
1880 -1.0018699 -1.5922581 0.31507942 2.0347443 1.2076492 0.7084481 -2.7810109 -0.15550779 -0.819356 0.907403 -0.755705 -0.36722338 1.0705181 0.45538515 -0.16695559 1.4669992
9148 0.47092095 0.2526295 0.7289545 -0.4750481 0.24068102 -0.03102515 2.980031 -1.5131474 0.31938916 -0.1446541 0.26504964 -0.4539108 -1.4996103 0.15546542 0.1251142 -0.78123814
7322 -0.17267792 0.91697013 1.0071636 -0.7997988 0.8908746 -0.038479134 1.9060806 0.4495496 2.1800437 -0.37153035 -0.025680672 -0.5716058 -0.85124844 -1.3919696 -1.8757838 0.45520416
7219 2.005269 0.72217286 -0.65490294 -1.01001 0.7910838 0.05015289 3.320595 -0.8161951 -0.33589378 -0.100360304 -0.36931682 -1.1705208 -0.31953087 -0.5563842 0.44465664 -0.3230483
4725 -2.0733712 -1.9270402 1.0048357 1.9766507 0.9643236 1.1745063 -3.2157187 -0.841055 -0.39485255 0.7578821 -0.96966165 1.1188757 1.0161753 0.43240747 -0.1818743 1.1270914
7360 -1.5387186 0.40901536 -0.42979705 -0.6124171 1.0048119 -0.7685255 1.269165 -0.14035545 1.6291903 -1.0252316 -2.4307501 1.4437928 0.5757099 -1.6790853 -1.493203 -2.32502
8510 -1.9491434 0.19041108 1.3418044 -0.58164954 1.0012256 -0.15958832 1.8114457 -1.0389094 1.7948074 -0.00460167 -0.43048742 -0.96077335 -0.90561795 0.19184695 -2.249792 -0.6634977
3311 -2.6995006 -2.373083 0.95853424 2.038197 0.8340742 0.6848929 -3.1474478 -1.7239865 -1.3285309 0.17924602 -1.204646 1.5012782 0.972748 0.55469185 0.4251939 0.07213081
4808 -2.1956744 -1.9810287 1.1048871 1.8643779 0.6806956 0.98150146 -2.9860883 -0.8000112 -0.7377693 0.6720209 -0.9465649 1.1717058 1.1288612 0.46349713 0.10151347 1.0741309
7169 -1.3218111 0.86614704 -0.66399026 -0.35761136 1.7418463 -1.305467 1.4246728 0.4203394 1.9029555 -0.82457215 -2.1350968 -0.16282983 0.6298634 -1.7475442 -2.4693468 -2.2199502
9214 -0.26968864 0.8852996 0.25578362 -0.090924524 -1.2778188 -0.2136519 2.6454034 -1.465679 -0.42916858 -0.8880546 0.58893764 1.531243 -1.2522174 -1.6539054 1.1748906 -0.9515943
2015 -2.248113 -1.8859183 1.3453982 2.009294 0.8372617 0.53437454 -3.0379205 -1.210203 -0.6901091 0.40655681 -0.5457341 0.65951324 0.4253254 0.30419484 -0.30374774 0.48402926
1019 0.46366432 -1.3253875 -0.32333446 1.4672865 1.7107456 1.0270525 -1.8692739 -0.3735481 -1.5399284 1.161461 -0.7089024 -1.3644923 0.8244416 1.064165 -0.12122781 2.5043833
7665 -0.14417633 0.08407982 -0.3531221 -0.7473618 -0.32513776 -0.45460045 2.7732925 -0.98876077 -0.0004455434 -0.52159655 -1.0363134 0.21793444 -0.26831102 -0.9863132 0.6270528 -2.442884
8741 -1.6304576 0.648645 0.21633284 0.14773299 -0.96358484 -0.57086325 1.8520639 -0.3288515 0.9620063 -1.05626 -0.6903966 2.070792 -0.49358994 -2.2944932 -0.104343764 -2.045977
8542 -0.9926162 0.65711105 0.6818103 -0.00085722376 -1.3214742 -0.42555416 2.6576557 -1.8298088 -0.25480115 -1.151506 0.63921463 1.5632879 -1.9093629 -1.482394 0.5217343 -1.4611533
531 -1.3368832 -2.187811 1.7247514 2.06553 -0.40457946 1.4204792 -2.3314586 -1.8827162 -1.5728978 1.0816883 0.6245685 0.9295793 -0.17455482 0.5522629 1.1329224 1.6577297
3507 -0.6648628 -1.9802814 0.09880529 1.7502915 0.8110235 0.83651745 -2.5465598 -1.0375947 -1.990535 0.4588332 -0.6592856 0.20813976 0.8016406 0.6340968 0.8805428 0.9192674
9648 -1.1413729 0.59374225 1.0005844 -0.6191238 0.8852797 -0.3771776 2.1752896 -1.4472247 0.745454 -0.41201812 0.14504628 -0.8573185 -1.0268887 0.08241768 -1.582363 -0.28458592
7916 -1.8354044 -0.5475114 -0.09315429 -0.38781554 -0.16901755 -0.34654394 1.7730675 -0.60448223 1.5193955 -0.4608932 -1.8337437 1.5315439 0.19049114 -1.5940193 -0.8454126 -3.6640687
8948 2.0459585 1.149333 -0.44952974 -0.017877657 -1.1603547 0.023355823 3.6970565 -1.1637225 -0.9433808 -0.7711563 1.0070677 0.7360198 -1.0643207 -1.9354662 1.6799091 -0.34162217
8464 -1.0987942 -0.5526542 2.1237767 -0.35229257 -0.74757254 0.39194053 2.5131912 -1.9120317 0.52470666 0.30691418 0.90790606 0.79561794 -1.4369531 0.12848645 -0.12573874 -0.45063603
7239 0.81580615 1.3940347 -1.2086872 -0.70463425 1.7792263 -0.74218637 2.0833921 0.35741198 1.530656 -1.102865 -1.0859154 -0.58827895 -0.07240646 -1.8861123 -1.5173755 -1.0009148
6016 0.31667525 -1.5392106 0.43085834 1.6645248 1.2277421 1.2223798 -1.9273325 -0.42803174 -1.1594309 1.5250366 -0.27450895 -1.042144 0.72610307 1.1294544 0.4134311 2.4086466
6540 -1.6445116 -0.41123125 2.1711686 -0.2943915 -0.18442948 0.30230373 2.2276785 -2.325328 0.6686266 -0.060216088 0.6269944 0.5675889 -1.6132855 0.39989734 -0.4393065 -0.7206222
9595 -0.2925003 0.7019765 -0.23744187 -0.0004937461 -1.728372 -0.8502199 2.6998103 -0.3550546 0.80202156 -0.26414716 -0.3841925 0.9594273 -0.1436324 -2.501286 0.28121626 -2.3739905
5026 -1.4278731 -1.7480233 0.6080083 2.0736282 0.9064365 1.0117226 -3.0186832 -0.09217458 -0.58411855 1.0274392 -0.69866824 0.040387295 0.93084157 0.24507391 -0.20014231 1.1278073
8037 -0.1403392 1.2244759 -0.46224964 -0.87970173 0.88479245 -0.75086135 2.1836672 0.2543947 0.83970207 -0.49339932 -1.2494895 -0.27925718 0.06215321 -1.2472452 -1.2072275 -0.3263069
6943 1.410373 1.4247664 -0.65227383 -0.98362345 1.2939333 -0.36641416 2.7029552 0.44473886 0.6475929 -0.07226227 -0.7336675 -1.4199724 -0.14238265 -1.3637209 -1.09464 0.43077216
7787 -0.0038073845 -0.3233086 1.1290694 -0.56452954 -0.024177754 0.31798717 2.7476873 -1.7680054 0.16152923 0.008515981 0.417585 -0.09076844 -1.3396535 0.21769693 0.25664008 -1.0275621
9550 0.21737817 1.0364546 -0.058429666 0.08687874 -2.0107064 -0.28174278 2.8968475 -0.932234 0.12335922 -0.6750306 0.24397655 1.7599313 -0.69537306 -2.4835222 1.1420234 -1.4435724
710 -0.9457735 -1.6906639 -0.10272669 1.8537822 0.69152784 0.5889811 -2.705614 -0.86288065 -1.6580639 0.4344884 -0.9614138 0.5143359 1.0331291 0.32493183 0.70151263 0.89891917
1647 -2.4821937 -2.1732492 1.0357058 1.8233649 0.95431244 0.94854194 -3.4336917 -1.0170152 -0.6362121 0.61166066 -0.9997088 1.1144539 1.0006589 0.2383269 -0.23547329 0.89112633
3163 -0.764061 -1.8488238 0.5683918 1.8362226 1.2084361 0.8281105 -2.710971 -0.6093334 -1.0138432 0.5615879 -0.47068173 -0.2100485 0.31096125 0.55724496 0.18853258 1.346295
4312 -1.6410998 -1.9252554 -0.122460045 1.7960273 0.4852428 0.7747945 -2.4348834 -1.0926365 -1.7652159 0.40180925 -1.2402918 0.98241436 1.138009 0.44777274 1.0017965 0.4648083
5046 0.03415598 -1.7797338 -0.33596987 1.4513396 1.2388163 0.3977312 -2.270496 -0.3658077 -1.7276477 0.7154753 -0.9440427 -1.074435 0.9319751 0.43809903 0.3197955 1.2207233
8987 -0.46328193 0.6846927 -0.61377513 -0.6472474 0.93935424 -1.0717695 2.1739483 0.5891136 2.0608814 0.11921341 -1.7638966 -1.1994126 0.17698003 -1.4144509 -2.0120819 -1.7278011
5812 -0.027641186 -1.5928553 0.6345603 1.7710093 0.5370554 1.4378098 -1.7585293 -1.0341905 -1.3326966 1.1835996 0.17883922 -0.18347578 0.29240674 1.152038 0.90582424 2.4770756
7762 -1.2805688 -0.62019044 0.4149095 -0.53923786 -0.5666782 -0.20468082 2.2331605 -0.9183909 1.0387199 -0.019655166 -1.1278397 0.37257358 -0.26912254 -0.83921516 -0.4121041 -2.7835116
7447 -0.93627053 0.4137031 -0.3566173 -0.8791074 0.30874017 -0.44375214 2.0773692 -0.96400154 -0.795545 -1.1854366 -1.3144383 0.95267177 0.29991585 -1.0227284 -0.031211205 -1.7835193
352 -0.7611459 -1.951285 0.21564402 1.6820552 0.72750443 1.0446013 -2.2323904 -0.80559665 -1.4148389 0.6695134 -0.78242254 0.5248488 1.0622352 0.6142439 0.9654267 0.808906
8409 -0.31161085 1.0452574 0.10977466 -0.05544324 -0.26256445 0.074170195 2.6580322 -1.2649989 -0.21042971 -0.27335766 0.9188311 0.54498464 -0.78022355 -0.51010835 0.05732286 0.055910524
4979 -1.4692547 -1.3472999 0.34526974 1.7399466 1.8044702 0.5689998 -2.9588401 -0.060285054 -0.7778654 0.40515658 -0.7866121 -0.10209123 1.0459464 0.2911482 -0.77276194 1.6568117
7286 -0.21808985 0.26810306 0.59344405 -0.8589463 0.5835978 0.0010247638 2.8017342 -0.90373355 0.91211385 -0.23824602 -0.060003333 -0.93032086 -1.0518063 -0.009884833 -0.56750286 -0.23986956
8288 0.13706622 0.5199854 0.6164514 -0.60539097 0.8719592 -0.6141888 2.899172 -1.0610217 0.40449774 -0.22028893 0.43091395 -1.628414 -1.4207516 0.043692764 -0.9179732 -0.53499526
2820 0.50313234 -0.8535309 -0.91367745 1.423516 1.570084 0.9479549 -1.9634928 -0.38088465 -1.9797928 0.65133536 -0.94310254 -0.2698536 1.618288 0.65281415 0.37211776 2.1346054
8098 -1.1834906 -0.5965558 -0.5409524 -0.32194507 -0.5541023 -0.8357079 2.4044738 -0.81646055 0.60804546 -0.22038595 -1.830417 0.6874102 0.33874816 -1.2072262 0.21278827 -3.8609042
9849 -1.1630973 -0.059742194 1.3429548 -0.34718922 -0.404859 -0.52655876 2.3279102 -1.9026144 0.36829072 -0.48604426 0.2705737 -0.036145862 -1.2650862 -0.049111634 -0.54405475 -1.1363404
6050 -2.0078995 -0.24375449 0.26737878 -0.3259805 -0.31518796 -0.45568302 1.8616241 -0.64089936 1.340906 -0.35685313 -1.5226928 0.7168081 -0.13799977 -1.2033321 -0.72033095 -3.0680315
7316 0.85600114 1.1083091 -0.3736592 -0.69551456 1.209719 -0.6596969 2.7390919 0.24185356 1.0918883 0.024573691 -0.51401657 -2.2321472 -0.2992866 -0.9215858 -1.5562449 0.0148732895
9250 -1.0016774 0.6619078 0.71660703 -0.69092494 1.0079024 -0.66946065 2.3823173 -1.1272911 0.61128 -0.46493393 -0.017606623 -1.6801987 -1.0903049 0.06841108 -1.6117429 -0.34423998
1733 0.31960106 -1.0168275 -0.88147295 1.249855 0.8789095 0.64182997 -2.0768945 -0.7860397 -2.1211128 -0.2579726 -1.0959337 1.1976935 1.6166286 -0.26804274 1.3097479 1.6550606
2181 -0.0004733383 -0.6069845 -0.15263572 1.6862626 0.84678626 1.0449783 -2.5556343 -0.06021517 -0.7323127 0.31652322 -0.36193272 0.9161425 1.0499492 -0.55043465 -0.016929358 2.2614033
8734 -1.469713 0.8237768 0.6100612 0.118188694 -2.0773149 -0.03729833 2.4976385 -1.760515 -0.3605619 -1.1721542 0.54737824 2.5568297 -1.2247564 -2.2082653 0.8050845 -1.2407585
5100 0.6329316 -1.2873552 0.32709762 1.6194147 1.3145165 1.3711075 -1.8775204 -0.016601274 -0.62615705 1.4245903 -0.3025538 -0.8766129 0.82584655 0.6948647 0.14722471 2.8141696
1051 -1.4043095 -1.7244207 1.0801734 1.9510523 0.33160824 0.9800541 -2.6124787 -1.3918581 -1.8749613 0.59692436 -0.03461014 1.069437 0.3257466 0.565599 0.82210624 1.6184844
2777 -2.0332346 -2.6688216 1.4250426 2.1400578 -0.30117452 1.3504028 -2.3495955 -2.2289672 -1.6590995 0.9050612 -0.22662766 1.1903232 0.09620467 0.99452347 1.4738681 0.49750048
7241 -0.31789318 0.84248453 -1.0656489 -0.93419456 1.1480651 -0.95965344 2.2217894 0.7531328 1.9197655 0.03337104 -1.9996376 -1.3515058 0.496742 -1.6180103 -1.7711071 -1.5064383
3792 -1.1799451 -1.811682 1.0472511 1.6852603 0.29544276 0.8188439 -2.2774227 -0.596481 -0.6248407 0.7813204 -0.1903967 0.26556748 0.45140198 0.053798433 0.33645195 0.87396365
9739 -0.36376455 0.84199846 -0.4339566 -0.52789575 1.3904408 -0.092969365 1.807856 0.36295822 2.1146863 -0.4223443 -1.1072087 -0.027783914 -0.060198452 -1.1329342 -1.931848 -0.9162105
6305 1.8835783 0.28311893 0.4983846 -0.5563268 -0.057418842 0.29999226 3.4422085 -0.73512846 0.071884975 -0.08716591 0.708352 -0.9936272 -1.1711212 -0.5575619 0.6652542 0.17264685
9664 0.121542886 0.9177633 -0.257655 -0.10702318 -1.180183 -0.74352527 2.303377 -0.5457851 0.7087362 -0.62970895 -0.3860735 1.550655 -0.13922341 -2.558582 0.49212274 -2.091059
5111 0.97873497 -1.178001 0.4420407 1.253699 1.3784797 1.7244332 -1.4285653 -1.0104738 -2.2789054 1.11773 0.25782222 -0.82721615 0.517476 1.2480291 0.8342927 3.4039726
9490 -0.9547196 0.13566135 1.3510967 -0.2501656 -0.6978357 -0.07985817 2.3105977 -1.7517568 0.39630997 -0.42294782 0.398339 0.580829 -1.1181705 -0.3762163 -0.374925 -1.0595098
8034 -1.1456188 0.86297214 -0.24368659 -0.8001006 1.1972967 -0.5788172 1.9703778 -0.2342511 0.7663696 -0.44409674 -1.4005722 -0.24156302 0.25510857 -0.56873155 -1.9276077 -0.6955592
6057 1.6961691 0.07700638 0.98672163 -0.539744 -0.2510287 0.6865863 3.3759823 -0.33150065 0.2343762 0.40016508 1.096253 -0.7525208 -1.4706932 -0.6998534 0.5790845 0.5643424
7188 0.7894971 0.8755023 0.6797596 -0.44026896 0.5029148 -0.9737249 2.6050022 -0.120104864 1.0863799 -1.1034158 0.36425203 -0.52309704 -1.6258163 -1.4464278 -0.88912314 -0.60592794
7788 0.15222809 1.0904702 -0.9240299 -0.58221275 0.7086219 -1.0169129 2.0286222 -0.03142498 1.2593312 -1.1094775 -1.410549 0.839222 -0.10270322 -2.1658087 -0.8048046 -2.300802
9073 -1.7294203 0.28482762 0.73268604 -0.52303857 1.017125 -0.4551436 1.5529613 -0.8009018 1.9414046 -0.42727858 -0.80753654 0.39842027 -0.51944697 -0.66188204 -1.8472105 -1.3986813
8763 -1.3063011 0.6417155 0.38362437 -0.12280603 -0.96676224 -0.44179827 2.3033576 -1.1006097 0.52652246 -1.0556047 -0.11528019 2.0900722 -1.0532544 -1.895678 0.1372514 -2.0191703
9394 -0.23288506 1.0867196 -0.5262882 0.2580973 -1.3809313 -0.8072224 2.1677854 -0.364601 0.8946581 -1.1111292 -0.3527549 2.1965394 -0.26146364 -3.0289223 -0.117910355 -1.9735489
2304 -0.99602324 -1.8132241 -0.07825277 1.9580334 1.0783279 0.7726542 -2.7151358 -0.015570983 -0.739091 0.84831864 -1.2716682 0.29827616 1.6171019 0.4976709 -0.040301017 1.1556909
4386 -1.0146366 -1.6231343 -0.109719306 1.9597778 1.4607466 0.6976371 -3.0543091 -0.26362062 -1.1277668 0.82722527 -1.1263833 -0.35637683 1.1266892 0.25309408 -0.19696921 0.85850686
8233 -1.7029904 0.1274581 0.18919654 -0.52094585 1.2184148 -0.79522014 1.4919767 -0.025133245 2.37032 -0.8332747 -1.5654173 0.3119803 -0.25192392 -1.1184224 -2.1663759 -1.8500706
5256 -1.2737131 -2.162782 0.7352827 2.0330703 0.72051305 1.4389559 -2.6171887 -0.7086839 -1.2450523 1.5608993 -0.35549936 -0.37282386 0.7095603 1.1403623 0.070971325 1.4469757
6950 1.5074182 1.0920925 -0.0072307126 -0.8212608 1.4501816 -0.22686462 2.665932 -0.041061703 1.254347 0.32618517 0.110829465 -1.984534 -0.50975686 -0.8221144 -1.598334 1.4698702
9147 -1.4904282 -0.41259518 0.2572085 -0.47165275 -0.44692776 -0.31009156 2.3234751 -0.703732 0.9428375 0.038656794 -1.414523 0.5086373 0.042772472 -0.62534654 -0.48289958 -2.8031383
2507 1.2127433 -1.2113038 -0.08978628 1.5898881 0.92366356 1.1687253 -1.582746 -0.47972226 -1.4591783 0.80698764 -0.08019969 -0.8202963 0.3272038 0.41801283 1.0478724 2.587437
5394 -0.316899 -1.5851531 0.84345216 1.5233452 0.9690086 0.9460092 -2.3192396 -1.1283524 -1.7689424 0.69149435 -0.15149 0.053716023 0.27712935 0.7831379 0.80796015 1.6881639
9583 1.3104724 1.4958066 -0.55883384 -0.2032962 0.57852924 -0.40498713 2.9825554 -0.5340087 0.17016993 -0.56148845 0.51381046 -1.1583396 -0.8255598 -0.9342515 -0.20570259 0.68500197
195 0.025910145 -1.3807087 -0.20604792 1.322363 0.970228 0.9844452 -2.3248525 -0.42507228 -1.0457752 0.26182848 -0.64582604 0.90034246 1.0993669 -0.27170426 0.9095763 1.5425619
7685 -1.0027918 0.052069526 -0.35672644 -0.8163969 -0.14323676 -0.30003166 2.3887336 -1.1347882 -0.35847795 -0.63796055 -1.5037456 0.7725195 0.22311954 -0.65367275 0.37715372 -2.0522373
6494 -0.6356903 -0.40795535 0.41127744 -0.5654435 0.04035256 0.2524276 2.688218 -1.3473139 -0.04267412 0.089714415 -0.761941 -0.21046151 -0.28509504 0.25571734 0.4574495 -1.8230318
8681 -1.3275691 0.38462567 0.055672668 -0.60721236 1.110041 -0.5280128 1.6714121 -0.13419314 2.2908306 -0.43987206 -1.5645082 0.48141846 0.08172608 -1.3328828 -2.1539745 -1.9720535
9122 -1.5066227 -0.24836928 0.10990805 -0.1936875 -0.6296205 -0.30095765 2.0523818 -0.8063001 1.0845348 -0.37318814 -0.88926446 0.6468379 -0.42580533 -1.2706375 -0.39243945 -2.9294758
2907 -1.6132394 -1.7691517 0.73691124 1.6431779 0.66697997 1.0576437 -2.8861747 -0.7088336 -1.1645421 0.7698425 -0.8641558 0.8411689 1.3171068 0.31200644 0.3825103 1.3902436
1635 -1.3903408 -1.7596091 0.26134193 1.6921711 1.2045711 0.43776736 -2.7195027 0.02464189 -0.66265833 0.4933852 -0.9572205 0.113073386 0.8107701 -0.04291048 -0.5807168 0.89320326
7244 1.578519 1.2327733 -0.8761192 -0.71145934 1.1969147 -0.82589495 2.7840245 1.0619115 1.4876556 0.04844238 -0.9596974 -2.0016167 0.095509775 -1.7942075 -1.3442626 -0.1610941
4238 -1.8820245 -1.7449495 -0.11839224 1.774994 1.9297438 0.59110343 -3.1327238 -0.25850847 -0.9265441 0.83108455 -1.7728866 -0.62366474 1.697232 0.7717305 -0.88994294 0.88163877
7609 -0.9598887 -0.32970557 2.0485976 -0.11305978 -0.39022365 0.54745597 2.5732877 -2.038571 0.375912 0.45653018 1.1842088 0.3929841 -1.6271402 0.44856957 -0.018270101 -0.34089845
8104 1.1438844 1.1059836 0.0036578104 -0.5635062 1.2496753 -0.68875974 2.7387178 -0.73435485 0.35556972 -0.50886214 0.10575887 -1.9340891 -0.99804616 -0.57848203 -0.68385 0.02920407
7637 -1.543692 -0.5272844 0.0751726 -0.4874582 -0.36159623 -0.095177405 2.1836665 -1.0830262 0.74467427 0.107416354 -1.4595801 0.9587232 0.21375605 -0.62827843 -0.13414422 -2.6676903
9079 -1.1370108 0.30048 0.8431875 -0.74877876 0.94936556 -0.5850994 2.3349552 -1.3407106 0.8152756 -0.13275133 -0.016192524 -1.3487431 -1.0989572 0.26193017 -1.6461117 -0.603562
3626 -2.8335905 -1.9578717 0.56140417 1.9945097 0.79305685 0.5901288 -3.032419 -0.7134718 -1.0735303 0.32395983 -1.3230792 1.1534778 1.2549175 0.22175501 -0.17688674 0.55778563
8120 -1.0277292 0.57205194 1.8483523 -0.47173357 1.0047021 -0.0019481332 1.7172647 -0.24924393 2.2327452 0.003437626 0.32807463 -0.5450009 -1.5128565 -0.5080704 -2.3213294 0.6520257
2665 -1.4503607 -1.342738 0.19832982 1.6706524 1.7099439 0.9556269 -3.0041757 -0.19432944 -0.5532082 0.9648965 -0.8166405 -0.30453226 1.2017798 0.47171244 -0.90410405 1.8214238
8955 -0.794535 0.47201264 0.8589073 -0.7914337 1.3064939 -0.5106159 2.38511 -1.2664185 0.81834763 -0.13477 -0.009446062 -1.5875008 -0.89524066 0.35324106 -1.6571798 -0.37139285
869 -2.0553095 -1.4285885 1.3802184 1.9917732 0.16159037 0.72809976 -2.870105 -1.2910129 -1.1138325 0.27749282 -0.05123809 1.3350601 0.16854253 -0.23564728 0.22026679 0.89272505
4085 -1.4263337 -2.1748116 0.8921175 2.1155393 -0.16029003 0.96519715 -2.2439127 -1.7369851 -1.4630777 0.841549 -0.1576497 0.5622081 0.4108193 0.7375047 1.2458333 0.80890155
6205 -2.0489674 -0.69566816 -0.104542166 -0.38845465 -0.5042863 -0.6050803 2.0487359 -0.73376715 0.9846108 -0.16576876 -2.041741 0.5925658 0.17751335 -1.0787581 -0.66542995 -3.6186576
7411 -1.4142607 0.58904904 -0.1384856 -0.33303076 1.5459039 -0.8932534 1.1314859 0.2011306 2.4511454 -0.6841832 -1.7879266 0.4136228 0.14304763 -1.3720893 -2.7165666 -1.3846104
1958 -2.1342473 -2.1893208 1.1045454 2.1183617 -0.080420755 1.1003516 -2.4665275 -1.646043 -1.288396 0.57896066 -0.09921175 0.9542944 0.16111486 0.5680779 0.9752487 0.6920328
8283 0.81600064 0.6532292 0.4156687 -0.6936289 1.4245495 0.062007654 2.92611 -0.95372874 0.5801801 0.28926763 0.44114432 -2.0948775 -1.0129834 0.2338143 -0.9049659 0.7019384
3401 -1.997539 -1.6747767 0.82810843 1.9756019 1.5129339 1.0040448 -2.9925 0.045941204 -0.09121924 1.3106585 -0.86088336 -0.05197229 1.2194923 0.64444524 -1.0518461 1.7820618
3705 0.5982067 -1.3700196 -0.038145375 1.6784726 1.1973054 1.3934816 -1.5670962 -0.6105197 -1.7009257 1.2283322 -0.10140761 -1.4367397 0.54875565 1.083242 0.7437199 2.673988
8207 -2.0219493 -0.059303515 -0.04752757 -0.23160522 -0.1489048 -0.79993004 1.4873194 -0.695095 0.9272916 -0.8725344 -2.1522691 1.6214129 0.4112156 -1.6483247 -0.90489364 -3.1448848
1676 -2.503274 -2.1199188 1.3484436 1.8305515 0.24563594 0.74608576 -2.7993054 -1.3176105 -0.9970602 -0.026943583 -0.45415825 1.9470816 0.46060145 -0.18633464 0.4526459 0.5855181
7132 -0.5415606 0.120562695 -0.38871416 -0.77208906 0.35725045 0.1432874 2.637691 -0.6909548 0.08714235 0.05088879 -1.1957262 -0.26936027 -0.0805756 -0.21494308 -0.12110245 -1.837321
3675 -0.77213746 -1.3083495 0.730247 1.7764676 1.498143 0.8254211 -2.7917988 -0.55749667 -1.0547839 0.67850536 -0.11916908 -0.45131662 0.31193078 0.56233877 -0.21960573 2.1326594
5788 -3.1222956 -2.018177 0.6938053 2.1231494 1.1355163 0.8826904 -3.291352 -1.3670505 -1.3758683 0.44018826 -1.1877518 1.6718754 1.2500318 0.7488957 -0.55318487 0.6073627
3829 0.43592003 -1.5252901 -0.09632527 1.541142 0.2398018 1.2998786 -1.1885144 -1.6848227 -2.7535536 0.9023367 -0.12286439 0.3766604 0.73187983 1.0054864 2.1981962 2.1113307
1632 1.040394 -0.9044656 -0.39446077 1.7068025 1.9845126 0.7646429 -2.1124399 0.26936167 -0.83131254 0.8220994 -0.42454505 -1.519048 0.96781415 0.05856701 -0.3084589 2.508964
7420 -0.8923758 0.26020548 1.3404871 -0.7038314 0.8747724 0.20776851 2.0189114 -0.9622242 1.168045 0.19328551 0.07418606 -0.6472811 -1.1656748 0.16519246 -1.6631702 0.30324095
4041 -2.8226469 -1.824668 0.5179111 2.0967991 0.6326043 0.67943454 -3.207617 -1.1095134 -1.0744512 0.09544476 -0.95140624 1.8504359 1.0403756 -0.22547238 0.17089614 0.2786514
8063 -0.029489055 0.24490274 -0.98091197 -0.6591268 0.28408515 -0.50122774 2.4597867 -0.34440595 0.32535058 0.024190778 -1.457673 -0.1957425 0.25066048 -0.86991334 0.13243711 -2.086699
3272 -1.4368107 -1.6494141 0.55116785 1.9631974 1.0722038 0.9654293 -2.8102717 -0.10350928 -0.47297803 1.37036 -0.9877408 -0.46546543 1.0757841 0.6836302 -0.5448815 1.2770739
8392 0.26748386 0.84297585 0.46036175 -0.6353164 1.1630853 -0.15496375 2.7256424 -1.1381258 0.69947183 0.13848151 0.29494062 -1.9109573 -1.1357898 0.19494344 -1.2375456 0.28299025
9988 0.45153597 0.9701586 0.09330937 -0.12937747 -1.2026427 -0.27687657 2.7039113 -1.038783 -0.17489381 -0.5371002 0.5091535 0.76319885 -0.9432842 -1.8305027 0.88961375 -1.1162486
8467 0.22065678 0.31005362 -0.87796557 -0.82512176 -0.06292056 -0.4062333 2.7603424 -0.66652155 0.083022684 0.060505178 -1.267227 -0.17467748 0.40971354 -1.0444332 0.56123173 -2.3203244
4682 0.4753438 -1.3520947 -0.2916679 1.6736752 1.1166214 0.9135911 -2.0158074 -0.5531906 -1.226243 0.79826206 -0.41178304 -0.27787265 0.7391859 0.25518304 0.8695367 1.4143062
482 -1.0601419 -1.9423589 -0.032584667 1.961678 0.8093711 0.9058462 -2.397319 -0.8859568 -1.7613069 0.87535536 -0.7296312 -0.14721577 0.97181433 0.9271365 0.7801936 1.1984723
9141 -0.03818094 0.5418797 -0.0989833 -0.6679013 0.45866737 -0.2619479 2.5074892 -0.31065115 0.2646247 -0.06551474 -0.7595193 -1.4679633 -0.35650015 -0.43264693 -0.5396879 -0.91090477
5627 -0.22709605 -1.3411856 -0.0072394316 1.6045887 1.7398542 0.7900809 -2.6068954 0.04828806 -1.0008787 0.76340145 -1.1355183 -0.45670748 1.1483756 0.5039341 -0.274246 1.7932873
319 0.6607659 -1.7205434 0.13174212 1.8866818 0.15688072 1.3223978 -1.3633474 -1.2902346 -2.036072 1.3003023 0.076399945 -0.57051045 0.61574835 0.9794558 1.6113592 1.8352237
3650 -1.2439178 -2.0991173 0.47104117 1.9618782 0.5207127 0.6220712 -2.5500417 -0.7512388 -1.0286835 0.7203529 -0.69802547 0.08223254 0.6013316 0.36530277 0.3461671 0.5896984
1425 -0.9869943 -1.6233894 1.0822961 1.6814203 0.39172578 1.1708328 -2.335534 -1.1443154 -1.3026632 0.72006655 0.16251636 1.1002107 0.19036846 0.5512039 0.5567616 2.1936667
8866 -1.3131311 0.8089252 -0.61197203 0.16003439 -1.3492827 -0.38213322 1.9421581 -0.7019457 0.42047462 -1.008067 -0.90028256 2.319038 0.06313407 -2.5899558 0.34051797 -2.4007323
9464 0.9793505 0.9434986 -0.12611824 -0.72017896 1.3232635 -0.3414933 2.9363577 -1.0969285 0.26512995 -0.26203278 0.054753464 -1.7027196 -0.7807653 0.12757583 -0.97532266 0.54439825
5333 -0.075564854 -2.148941 0.8970436 1.9117126 -0.10634595 1.6426361 -1.3865731 -1.2737638 -1.8985533 1.2835131 0.59061426 0.16681631 0.20634829 1.1139491 1.6168458 2.0389297
2857 -1.8047763 -1.6666518 -0.66647315 1.6303403 1.6024477 0.8278097 -2.7679803 -0.094776 -1.2538978 0.6339075 -2.2545655 1.0273238 2.5225453 0.13287935 0.14771134 0.46215647
3067 -0.030681089 -1.8360277 0.25530484 1.8335209 0.08300226 1.0248104 -1.6932477 -1.0554073 -1.9361928 0.85629416 -0.14722171 0.67047167 0.7590607 0.62280774 1.7396082 1.6646125
302 -1.8049463 -2.019066 0.84088373 2.0940776 0.19040404 0.5941393 -2.62936 -1.3133961 -1.2871467 0.42399526 -0.44970435 0.9552193 0.41656607 0.3726026 0.5281558 0.5058127
4482 0.15267812 -1.8632053 0.33614278 1.6970593 1.0444461 1.3829081 -1.9387225 -0.80647826 -1.6017379 1.304679 -0.13819687 -0.9412007 0.5051659 1.2429608 0.8465934 2.2657406
4021 -1.3872497 -1.5302551 0.42885005 1.7513578 2.156879 1.108824 -3.0336797 0.46891147 0.26028115 0.97445875 -1.1314714 -0.32278258 1.3987249 0.3890815 -1.6070051 1.7549388
6634 -0.59577745 0.8767877 1.4243275 -0.91237766 1.0276792 0.38728556 1.7549984 0.17402233 2.0013046 -0.3253792 -0.13289379 -0.26212177 -1.062042 -1.0065386 -1.8281846 0.7465956
1383 0.44335186 -1.1558388 0.7762122 1.8558966 0.83825517 1.1641043 -1.8642832 -0.88492507 -1.6384451 1.3408687 0.24653427 -1.1446282 0.36517686 0.9603204 0.43290618 3.0513246
3610 -0.74496484 -1.0998576 0.61949015 1.5818056 0.67845565 1.1068516 -2.16158 -0.06188998 -0.079234846 0.9542837 -0.18361804 0.36052758 1.0988541 -0.046409503 -0.4351219 2.2997072
6993 0.45837602 0.74835193 0.58697593 -0.89453673 0.78268486 -0.11478147 2.6863148 -0.28946137 1.0170121 0.027534295 -0.14811058 -1.1410968 -0.74525774 -0.45070744 -1.3685157 0.54421526
9426 0.34141818 0.14300825 -0.012613333 -0.6407119 0.06216708 0.042788185 3.1268492 -0.9492438 -0.22094034 -0.043981656 -0.5702969 -0.65503335 -0.3489133 -0.05732782 0.42910177 -1.3782367
7342 -0.48084593 0.08815494 1.0013831 -0.79590833 0.47549444 0.11399667 2.5543666 -0.96998924 1.0497329 0.25504348 0.056016937 -1.2292887 -1.076868 0.14409563 -1.1489649 -0.30218616
8148 -0.07194761 0.28047916 0.71808815 -0.48189354 0.35069662 0.0095639685 2.8437498 -1.731969 0.09462304 -0.1406091 0.3229229 -0.4979916 -1.4974889 0.350387 -0.060262926 -0.45614314
5614 0.029495183 -1.3229334 -0.3422921 1.5737948 1.3560022 0.93365115 -2.5399745 -0.13749667 -1.3525903 0.57832843 -1.0292845 -0.3555027 1.1161417 0.29726827 0.17402309 1.8426552
8433 -1.5563809 0.09699184 0.049770202 -0.35697156 0.5335793 -0.7936198 1.4359559 -0.11746852 2.177313 -0.8160166 -1.8416499 1.3755611 0.28342146 -1.9443296 -1.7275335 -2.8890893
8406 -0.1277003 1.0813173 -0.69976246 -0.8011982 1.6471093 -0.76315427 1.8278803 1.1552957 1.8348583 -0.2905473 -1.6377751 -0.68988013 0.49455222 -1.7832998 -2.2827678 -0.41257808
9144 -0.28397596 0.54233724 -0.44882903 -0.7494624 1.032161 -0.93870604 2.3109589 -0.26399747 1.2056813 -0.008061527 -1.023654 -1.6745374 -0.0958968 -0.6847975 -1.4423599 -1.2430712
7730 -1.540683 0.3221679 -0.66471666 -0.38741374 0.64232105 -0.994739 1.4547539 -0.37033084 0.9652899 -1.0433308 -2.309606 1.9143682 0.96051985 -1.7577121 -1.0415494 -2.5596933
1340 -0.75484395 -1.9669372 -0.052224007 1.7722775 0.8153241 0.7457618 -2.5996566 -0.19172455 -1.0579253 0.6549468 -1.3012816 0.15525769 1.2654847 0.20426704 0.38836434 0.52314293
1737 -2.6707091 -2.1876652 0.5715822 2.1667218 0.4806703 0.98114574 -3.0212622 -1.2171017 -1.190655 0.52961034 -1.237228 1.6760424 0.8377563 0.33646625 0.34667766 0.09392509
7987 0.36500525 0.79917055 0.77359825 -0.6193738 1.1786853 0.34911767 2.4763513 0.19914876 1.7311708 0.3942601 0.27571532 -1.1369437 -1.0892316 -0.5308902 -1.5524626 1.0220412
7703 -1.174135 0.34094393 0.83871394 -0.6995151 0.9868522 -0.5544935 2.3218763 -1.2903812 0.81323665 -0.24552591 -0.18441457 -1.532577 -0.91624105 0.24987756 -1.6489248 -0.6427866
1837 -0.040333997 -1.7428087 -0.22939707 1.6058589 0.95318055 0.7444032 -2.1880505 -0.6205004 -1.5469794 0.65720844 -0.76871663 -0.14771488 1.0382836 0.3866351 0.8391699 1.0357748
7008 -0.25138745 1.7098671 -0.8681612 -0.37987524 0.78195614 -0.6047777 1.5480052 0.7090317 0.99815416 -1.1491919 -1.3511794 1.0655121 0.6188344 -2.2372246 -1.4323341 -0.41781774
5074 1.0112265 -1.1388711 -0.7311013 1.5398799 0.896949 0.6096223 -1.5861552 -0.5541194 -1.8803916 0.8214229 -0.45454365 -1.0562738 0.72056663 0.31874594 1.2841628 2.0410888
6825 -1.1149938 0.7670831 0.3582453 -0.032719433 -1.2051369 -0.22092544 2.4898183 -1.792155 -0.40303668 -0.9603418 0.3157197 1.6480005 -1.3742371 -1.2796577 0.37038702 -1.3250551
1835 -0.71774524 -1.6786865 -0.13766924 1.4383342 1.2975165 0.70678234 -2.1355312 -0.83826774 -2.057661 0.8723505 -0.84404224 -0.32116863 1.1590855 0.8935553 0.7284763 1.3513843
8043 -2.3110528 0.32727772 1.0794324 -0.8574717 1.15784 -0.3864191 1.4065576 -1.2777488 0.9381764 -0.6344337 -0.8602697 0.10418379 -0.12081069 -0.16237451 -1.8753483 -0.55795425
770 -2.0024557 -2.1359193 1.1718593 2.1326187 0.33031574 0.43350345 -2.816357 -1.1336721 -0.8286696 0.3048562 -0.41248235 0.51496637 0.17016788 0.2199491 0.11233292 0.47216138
1317 -0.3328441 -1.3078555 0.31144696 1.913636 0.65396494 0.8113199 -2.3797247 -0.31365994 -0.9185632 0.6476299 -0.4086654 -0.27643615 0.5073876 0.14801043 0.32736182 1.741084
6408 -1.835632 -0.42970544 0.8908778 -0.5115748 0.08825634 -0.46858418 1.9029486 -1.0868267 1.6574638 0.21913326 -0.9915342 0.30821556 -0.43107742 -0.3541227 -0.93153393 -2.0663607
7307 2.1623878 1.3738779 -0.9480276 -0.79089427 1.3937165 -0.52625644 2.7563787 0.61372745 0.58182913 -0.020338528 -0.79906243 -2.0966995 0.0589934 -1.406084 -1.3261025 0.8107939
2529 -1.4902431 -1.551841 0.94859284 2.0217967 1.1882229 1.0773933 -2.9421043 -0.19561343 -0.15246898 1.0072051 -0.56116354 0.019337205 0.54715735 0.4766215 -0.7472232 1.7865174
9402 1.1911385 1.3901078 -0.7411373 -0.67308533 1.4918052 -0.51701367 2.6544354 -0.026783206 0.6174173 0.086872585 -0.8661281 -2.1434848 -0.20565003 -0.6256963 -1.3239859 0.27509806
8200 0.7689378 1.3841181 -0.7616177 -0.65784764 1.1442072 -0.47953042 2.238489 0.5685215 0.8965003 -0.34091672 -0.85982853 -0.26086295 0.540378 -1.3392327 -1.289161 0.4467733
8061 -1.0795952 0.62133783 -0.41324493 -0.53999835 1.6756042 -0.8473411 1.4061178 0.6655097 2.5914462 -0.9866193 -1.7689521 0.40060222 -0.024505874 -1.9825013 -2.3023453 -1.7363883
3471 -0.8761148 -2.11013 0.25825354 1.9932545 -0.019146267 0.44868857 -2.2616398 -1.3228198 -1.7306453 0.51856995 -0.3639772 0.23479933 0.34882364 0.20668653 1.3408101 0.45748237
7553 -0.6680017 0.7994049 0.9743435 -0.06872203 -0.9715698 0.2869977 2.5827143 -1.5244925 0.005582659 -0.85874027 0.9239263 1.5255648 -1.5220017 -1.0877106 0.43016198 -0.48053727
7284 2.5308762 1.5341052 -0.477699 -0.5203233 1.5716156 -0.36818898 3.0427043 -0.20902036 0.480967 -0.01975634 0.34225282 -2.2554555 -0.7321813 -1.1825927 -0.85857385 1.2866156
8318 -0.8913395 -0.06770725 -0.8430378 -0.5593199 0.101270206 -0.7308459 2.2760339 -0.7019623 0.70115906 -0.23080516 -1.8682925 -0.009352165 0.39200032 -0.97798085 -0.26745737 -3.159867
8530 -1.7315301 0.37866446 -0.18819027 0.10270344 -1.5300943 -0.5811319 2.2578473 -1.0473183 0.50774556 -0.8112752 -1.0914451 1.7273073 -0.4067952 -2.1634703 0.31081057 -3.088964
7325 -0.087497644 0.78954905 0.5505872 -0.5748782 0.9075752 -0.6075099 2.6652427 -1.0502369 0.36159134 -0.44274193 0.19551755 -1.4412483 -1.0390279 0.036310703 -1.1683495 -0.18997563
329 -0.78234345 -1.6331062 0.56462497 2.0078826 0.6127407 0.8957567 -2.740703 -1.0235547 -1.0218041 0.653609 -0.08732111 0.24012935 0.08391678 0.31277117 0.37415615 1.4721979
216 -0.3170423 -1.5073997 0.77586824 1.9169548 1.401634 1.0949713 -2.228399 -0.7882961 -0.8346721 1.2357947 0.12190927 -0.9797297 0.34194973 1.2163892 -0.31431916 2.550051
2793 -0.32539698 -1.8335534 -0.40990555 1.8757638 0.7447302 0.90378517 -2.206923 -0.28981447 -1.4631497 0.99728894 -0.9438357 -0.6503363 1.3094563 0.6089476 0.39210373 1.1321137
1899 1.1539599 -1.2989296 -0.24810438 1.6759937 1.5698973 0.6834673 -1.8557316 0.15203214 -0.8549742 0.9512304 -0.65242326 -1.9404839 0.6128159 0.26791558 0.011559946 2.529812
6286 1.8853747 0.85143036 -0.2688173 -0.6131554 0.013779985 -0.47895187 3.5052588 -0.3429714 0.16656409 -0.434768 0.19509195 -1.4350744 -0.9151779 -1.2479417 0.2789839 -0.38421696
4957 -1.6787604 -1.9074383 1.0526723 1.7367389 1.0884395 0.9450312 -2.8677497 -0.9566763 -1.0768269 0.6792456 -0.61066884 -0.010549193 0.38292658 0.7875755 -0.11457953 1.1627405
8645 -0.84614503 0.8045417 -0.057275176 0.07588747 -1.6134789 -0.24975508 2.51232 -0.9823367 0.25527984 -0.76502144 0.016668808 1.8999856 -0.5440977 -2.3131993 0.7117211 -1.9562942
8431 0.49386087 0.3061929 -0.87204677 -0.76970816 -0.21667743 -0.1299434 3.0513697 -0.9356206 -0.5012883 -0.12213397 -0.8445729 -0.25642124 -0.07426445 -0.7848508 0.800563 -1.9045978
8612 -0.93124855 0.46674845 0.873368 0.16957118 -1.7391384 -0.08327503 2.6476998 -2.108341 -0.16372655 -0.7885832 1.0287727 2.2695992 -1.6175354 -1.609275 0.94964004 -1.191105
3476 -0.87734777 -0.59795326 0.08203586 1.0057493 1.8596053 1.0832797 -2.3734038 0.6227195 -0.5949457 1.0064651 -1.4214197 0.42116356 2.1151195 -0.055554774 -1.0119368 2.5697224
8912 -0.7235359 0.88149977 -0.1442657 -0.7003654 1.4852316 -0.676081 1.8539711 0.4206172 2.143133 -0.19921939 -1.2568736 -0.59877896 0.2871135 -1.3192254 -2.17748 -0.9455713
6193 -2.3710997 -0.5580483 1.032315 -0.46249968 0.1016034 -0.010399047 1.6772618 -1.3713988 1.1110685 -0.3025517 -1.1429458 1.2724769 -0.36003402 -0.34715712 -1.1336185 -2.081018
6939 1.1262548 1.0631168 0.71863526 -0.69607055 1.135466 0.5463851 2.5220163 0.20282982 1.4276631 0.37774035 0.507633 -1.5124358 -0.939345 -0.8860345 -1.2722979 1.8265549
7271 0.8989615 0.7415354 -0.2627554 -0.82657385 1.2306184 -0.22263029 3.002932 -0.17183186 1.0749071 0.0052581746 -0.42489806 -2.2503667 -0.39256346 -0.35240942 -1.1853926 0.008415355
8042 -2.133367 -0.3964976 0.37966734 -0.45719576 -0.17339827 -0.19578412 1.9626428 -1.2755777 0.8193127 0.06674206 -1.4081941 0.8216527 0.1022653 -0.41024366 -0.60150033 -2.3738835
2986 0.35906437 -1.910404 0.009209383 1.8008405 0.29950348 0.93601686 -1.5904175 -1.6135112 -2.1245 1.0532528 -0.48382142 0.01872752 0.6077464 1.1217452 1.8092577 1.3379935
4083 -0.8722327 -1.4255295 -0.23255207 1.799398 1.6615708 1.0171552 -2.5488217 0.07811448 -0.6435857 1.0858465 -1.0034518 -0.56920344 1.4817662 0.72727764 -0.52673614 1.4318296
6384 -1.6357781 -0.10715942 1.5722362 -0.42992866 -0.26046008 0.29130414 1.9115591 -2.1217513 0.31117085 -0.2951864 0.0138752125 0.99733794 -1.1617291 0.045796677 -0.2680216 -0.86400515
7100 -0.008840896 0.25698015 0.45142993 -0.48883414 -0.35587108 -0.5133138 3.1786501 -1.7884983 -0.3842151 -0.7497292 0.3452564 -0.28290352 -1.3582253 -0.38637397 0.4451488 -1.3801833
8060 1.3217815 0.7464961 -0.13600779 -0.6664892 1.2595829 -0.11155945 3.2752662 -0.54643995 0.51798594 0.23521963 0.16245104 -1.7737205 -0.71666485 -0.20758002 -0.49320263 0.59732735
8711 -0.489446 -0.26645005 1.8334106 -0.21943453 -0.62376815 0.5044476 2.8310223 -2.0457146 0.42129144 0.36546978 1.1719425 0.5396408 -1.6590592 0.08500377 0.2917431 -0.36796525
8921 -1.2991229 0.31283718 -0.054261554 0.096553996 -1.7802329 0.09266334 2.424709 -1.1070263 -0.11026811 -0.6520106 0.027911337 2.0506759 -0.47402218 -1.8711073 0.7404066 -1.8370435
9566 -0.84465677 0.19082205 1.3117568 -0.7332395 1.0102596 -0.2473258 2.534241 -1.2955095 0.90986913 -0.1804827 0.2563757 -1.1943996 -1.4148939 0.44963402 -1.2894197 -0.07616262
4048 -1.6741673 -2.0548882 1.9333447 1.887487 0.90300626 1.643372 -2.7418435 -0.17927212 0.15285444 1.2730771 -0.29346472 0.2969541 0.29884282 0.70848614 -0.5720623 1.8666351
8988 -0.34718403 1.0095441 -0.66640425 -0.4277415 0.7926369 -1.1480148 1.9371632 0.7537537 2.0767221 0.022226132 -1.3203351 -0.96261114 0.35054606 -1.8609205 -1.915522 -1.2340443
3821 1.4066077 -0.7343504 -0.569138 1.2193104 0.6264131 0.74004775 -0.88899523 -0.8034545 -2.3514957 0.67793655 -0.423551 -0.204837 0.6161621 0.17890802 1.7158915 2.40258
9744 -1.1692336 0.61116946 -0.74741983 -0.46461582 1.7252682 -0.96870095 1.4462693 0.0047588605 1.826362 -0.80787694 -1.9490503 0.09688523 0.513728 -1.3793685 -1.9442419 -1.9911727
3029 -0.7205336 -1.9940674 0.6837633 1.9066347 0.28998044 1.1336756 -2.3702645 -0.66468626 -0.9601137 0.9192827 -0.32774234 -0.19576618 0.20744704 0.5345255 0.43166518 1.4231138
2077 -1.3894509 -2.4025621 0.7558933 1.774267 0.09929897 0.8234098 -2.4485047 -1.6689987 -1.7181119 0.45460358 -0.5164946 0.9221834 0.50693905 0.49856773 1.2175913 0.5038558
4579 0.65156686 -1.0692235 0.7034483 1.5085342 0.32160136 1.1631994 -1.5955985 0.12259249 -0.3188266 1.1478279 0.25826693 -0.39187837 0.41477486 -0.24371278 0.054133084 3.0083258
4387 -0.67926234 -1.8578632 1.3118601 1.5444188 1.0512041 1.2170763 -2.4938455 -0.6231435 -0.5672904 1.1090974 -0.08890337 0.06645044 0.3026177 0.75209165 -0.2229389 2.2077293
8620 0.059955742 0.98233664 -0.5464957 -0.30845562 -1.2742426 -0.62379354 3.018981 -1.326928 -0.6855753 -1.2541829 0.007783201 1.3986994 -0.92492336 -2.0552855 0.9662145 -1.6160138
6201 -0.48971787 -0.0010810232 0.02180469 -0.6395551 -0.14115722 -0.11637755 2.7475147 -0.7645628 0.54355925 -0.12422579 -1.0511043 -0.16074498 -0.25382587 -0.5401068 0.041625857 -2.224168
5433 -0.7867948 -1.7369139 -0.43553603 1.6840342 0.965465 0.5659189 -2.5442832 -0.29595187 -1.2307916 0.4733666 -1.3692181 0.29101634 1.2509451 0.03471248 0.16053417 0.54815394
6293 -1.3809448 0.4960547 -0.02138726 -0.5139456 0.36369538 -0.12014114 1.7261354 -0.91059625 0.14637007 -0.69544816 -1.4262708 1.3516476 0.16271423 -0.7155337 -0.37722033 -1.3965104
9045 -0.7815091 0.9359714 -0.34470782 0.44009933 -1.8919287 -0.045695774 2.5844843 -1.0347391 -0.36875942 -0.9617644 0.11787571 2.125874 -0.42442375 -2.2753057 1.3584228 -1.6434066
8911 0.16235524 0.9334803 -0.74833286 -1.0153184 1.3125724 -0.20561548 2.3064601 0.023998378 0.8862889 0.03850275 -1.1047642 -1.3829756 0.17222954 -0.75370437 -1.4927267 -0.5238503
7339 1.5305178 0.8476485 -0.5716512 -0.7858048 1.2353443 -0.2615223 2.856903 0.46421543 1.0915434 0.11731695 -0.7335364 -2.0277023 -0.08183053 -0.89415574 -1.0100174 0.00090536335
8180 -1.1776552 0.54441285 0.25143284 -0.5112287 1.3230745 -0.6128078 1.3449488 0.10957838 2.1266274 -1.0019144 -1.0304339 0.59691226 -0.43132332 -1.6274021 -2.060812 -1.5089452
6785 1.047335 0.82321566 0.3677367 -0.35267353 0.22971383 -0.58873594 2.6352453 0.1005997 0.8570667 -0.9407199 0.5231719 -0.5451719 -1.5296353 -1.5242656 -0.73622334 -0.2298124
1884 1.2804308 -0.7957588 -0.8046673 1.5372188 1.7886808 0.6238702 -1.9176494 0.88023823 -0.37150267 0.9815813 -0.9861505 -1.0520908 1.381808 -0.54668903 -0.40295818 2.4828784
2544 1.6872634 -0.6377329 -0.7248103 1.5057448 1.3160232 0.6865655 -1.3489261 0.5566856 -0.88519996 0.78018326 -0.63032603 -1.6176519 0.8707468 -0.2668538 -0.05396225 2.4550123
9188 1.3154776 0.46372682 0.3001184 -0.54790556 -0.95941967 0.080200724 3.2819226 -1.1342007 -0.2311365 0.027277814 0.58917123 -0.14511387 -0.83819 -1.0716023 0.9719976 -0.55311126
1812 -1.0213938 -1.6907928 0.5715837 1.8444524 0.74890697 0.9051854 -2.6684432 -1.0784216 -1.2931174 0.7714467 -0.30868572 -0.01679387 0.26178068 0.5430189 0.14275666 1.2411865
8328 -0.8880735 1.2301159 -0.99122596 -0.4988536 1.6309781 -1.2408708 1.3135539 1.1275485 1.70584 -0.9867555 -2.36715 -0.032551534 1.1352439 -2.443762 -2.371095 -1.547902
2878 -0.25467774 -1.2197042 0.5939701 1.7413573 1.0372669 1.4011749 -2.5167346 -0.059845753 -0.3213548 1.2315603 -0.086609736 -0.5110696 0.4791734 0.21501938 -0.5780058 2.3442788
5054 1.1629236 -1.1198118 0.17741732 1.6105933 1.2092437 1.0410126 -1.5042876 -0.046915703 -1.3815082 1.1320461 -0.23552953 -1.212274 0.5364085 0.58513945 0.12758735 2.8501186
1120 -1.4297681 -1.8296194 1.5901357 1.9097745 0.6330102 0.7425304 -2.8459706 -0.44826794 -0.5398516 0.5201246 -0.09914484 0.09083376 -0.04543718 0.16915567 -0.38555646 1.5071207
6393 -1.5656478 -0.41477644 0.015554614 -0.4320516 -0.13288729 -0.32323906 2.0713701 -1.1985294 0.4795574 -0.263425 -1.5553693 0.8804937 0.2913731 -0.58864605 -0.20365614 -2.7942178
7289 1.2840788 0.8262644 -1.018964 -0.6921353 0.16220893 -0.58230287 2.848422 -0.06569538 0.10005618 -0.5074872 -0.7486645 -0.2983768 0.03528527 -1.5785418 0.09238529 -1.2429458
1613 -1.4966809 -2.1897573 0.8400418 1.7419497 0.6062377 0.5576881 -2.5275192 -0.7860815 -1.3248543 0.63799 -0.58092314 -0.1830889 0.4403949 0.4118822 0.34584117 0.6732572
7373 0.08790311 1.1229914 -0.25510105 -0.9321028 1.5722141 -0.30894294 1.8618056 0.23601203 1.0467918 -0.36493534 -1.1335429 -0.45675835 0.36507013 -0.88901895 -1.823078 0.49741298
1203 0.5494973 -1.7199035 -0.027944123 1.8878145 -0.37978315 1.1008457 -1.4797415 -1.225909 -2.1237693 0.7073854 -0.31875852 0.7788587 0.5998505 0.17904092 2.4695299 1.202524
1117 -0.3800133 -1.9342442 0.36572775 1.6767085 0.36749983 0.6788233 -2.3178816 -0.6937791 -1.5624667 0.37467608 -0.35004 -0.18540472 0.44576922 -0.08525656 0.989894 0.7412786
6042 -1.9314038 -0.19576113 1.1744426 -0.55704474 0.2774612 0.116103314 1.4987 -0.5316157 1.7096441 -0.48136616 -0.9125826 1.3313079 -0.5122438 -0.84557265 -1.2229272 -1.3301309
6818 1.1892354 0.27296337 -0.07331044 -0.77545744 -0.14685361 -0.2047892 3.3505795 -1.4648207 -0.68985796 -0.7095214 -0.08982217 -0.4420297 -0.9476393 -0.3764135 0.96291834 -0.8064445
8005 0.49604756 1.414464 -0.6544501 -0.4275043 1.6959225 -0.6923018 1.8786898 0.1773451 1.2201986 -0.8609627 -0.81708395 -0.51256704 -0.05985304 -1.249852 -1.6310521 -0.4771351
660 -1.0167478 -2.2169592 -0.17702363 1.9208497 0.7062269 1.0130689 -2.1747382 -0.49837545 -1.0863817 1.2631825 -1.1102222 -0.035996504 1.0838884 0.88659763 0.68097 0.58287656
7383 0.024742518 0.2510258 -0.28069407 -0.87123626 0.22003527 0.030913213 2.8479111 -1.0842954 -0.15534662 -0.38029143 -0.9207552 -0.19233331 -0.24234374 -0.31341806 0.4378435 -1.514153
8728 -0.6615179 0.8967906 -0.32946995 0.25020003 -1.8668952 0.089183636 2.743209 -0.95396143 -0.31895596 -0.68517125 0.2612821 1.987981 -0.4694701 -2.2412305 1.3052986 -1.5233407
6332 -2.157076 -0.7843471 0.29961222 -0.44966984 -0.4561303 -0.17442456 2.1973553 -0.9813484 1.129515 -0.02402522 -1.6046135 0.79886144 0.17817497 -0.64466834 -0.34842715 -3.0196345
8184 -1.2099924 0.29190415 1.2575439 -0.62202007 0.9239989 -0.17342104 2.2697582 -1.6259758 0.64686334 -0.36166653 0.37689042 -0.71324974 -1.2478883 0.30287528 -1.3669925 -0.53903395
7117 0.875858 1.4290574 -0.7208378 -0.55690575 1.772432 -0.7673457 2.1376112 0.17653973 1.2123525 -0.5340591 -0.54537845 -0.8615196 -0.18427946 -1.2570363 -1.4517751 -0.01658886
5312 -0.93094534 -1.6262665 0.46800628 1.8728089 0.71616155 0.6575425 -2.6049693 -0.27850935 -1.0770692 0.63865465 -0.57710934 0.03449851 0.54103476 0.1614713 -0.030439578 1.2348402
5511 -0.22636902 -1.8541186 -0.16624478 1.7285877 1.1008562 0.9645391 -2.169982 0.029673671 -0.7668721 1.2898967 -0.9302133 -0.76274925 1.1939412 0.7819838 -0.23180757 1.3303605
509 -0.66856426 -1.7192341 0.31987798 1.8156245 0.42404696 0.7082363 -2.507246 -0.7868689 -1.456772 0.5701205 -0.5714976 0.81666946 0.65947 -0.039753996 1.0843558 1.0783353
8185 -0.9180867 0.09221594 1.4062138 -0.58916587 1.0841917 0.34967765 2.1355891 -1.6136543 0.4572108 0.20916346 0.43048254 -0.80685854 -1.2385656 0.72892636 -1.1065736 0.081420064
1579 -0.34706247 -1.7345086 0.08113586 1.8384731 0.20313752 0.67644775 -2.0496347 -0.885185 -1.6848036 0.7699389 -0.30759966 -0.44076052 0.5125029 0.28365195 0.9447945 0.91309637
839 0.9160737 -1.49264 -0.5721325 1.7402742 0.7174759 0.77008957 -1.856239 -0.4922501 -1.8194268 0.7258551 -0.45146447 -0.549099 0.59185433 0.1692652 1.0010501 1.4191681
8190 -0.4910969 0.5590137 1.0868822 -0.7056081 1.3250147 -0.23442107 2.247967 -1.2857813 0.8799292 -0.05531996 0.23121543 -1.1363096 -1.0103136 0.35938045 -1.476919 0.32523963
6569 0.9626025 0.5454612 -0.12471542 -0.6201657 -0.0365732 0.17066093 3.1188 -1.1885622 0.076188765 -0.21212973 -0.1563038 -0.31692562 -0.6534665 -0.2907491 0.4560314 -0.3787024
5763 0.59226084 -1.51918 0.26836145 1.5438544 1.2852882 0.8875399 -1.8255041 -0.3811223 -1.3104466 0.8588275 -0.27174348 -1.0268347 0.77390873 0.6723927 0.44403246 2.3916166
6306 0.07291965 0.14053155 0.47030342 -0.5576715 -0.6055218 0.19143626 2.568505 -0.66318595 0.33047107 0.099038914 -0.14789248 0.19734582 -0.3463654 -0.73891306 0.105506234 -0.91711384
7302 0.56144005 0.9928911 -0.64051557 -0.8317404 1.0899856 -0.8208328 2.3396187 0.82699555 1.5191523 0.066160016 -1.3749532 -1.8771924 0.08388591 -1.5705518 -1.6816337 -0.71358484
3308 -2.5744038 -2.5005865 1.4021909 1.998181 0.787456 0.9022905 -3.0581079 -1.5026107 -1.0180709 0.64683264 -0.6734253 0.94185746 0.37750915 0.59611917 0.35856622 0.33036947
7133 -0.114030786 0.8434413 -0.23888555 -0.16729333 -1.0574428 0.22365342 2.8229628 -1.1808099 -0.46815583 -0.7320071 0.32200274 1.450947 -0.84782946 -1.2703885 0.76746756 -0.81473845
3934 -1.7895236 -1.543893 1.2119743 1.8034475 0.79778534 0.7834347 -2.955454 -1.2683262 -1.0829693 0.28365237 -0.32884905 1.3167177 0.26813284 0.15162474 0.008206456 1.2809505
5880 -0.050318416 -1.7185819 0.099338114 1.7796396 0.89019865 0.78631955 -2.2175608 -0.4894538 -1.2695243 0.60078126 -0.24812458 -0.33492523 0.48405832 0.3305443 0.5845625 1.4390008
2092 0.66433525 -1.0213677 -0.18615918 1.7039117 1.587712 0.7400153 -1.9424332 0.33903897 -0.75911236 1.1693789 -0.4854597 -1.7870978 0.67974955 0.26052102 -0.48246264 2.5178585
5220 -0.26544797 -1.4647608 0.13769473 1.5782104 1.6930711 1.0509434 -2.165107 -0.7104276 -1.6110437 0.9170443 -0.56174713 -1.2614363 0.74526685 1.1929003 0.063804284 1.9218502
1264 -0.16700548 -1.764941 -0.5926244 1.9673358 0.8067776 0.39386162 -2.3683395 -0.0511308 -1.3328122 0.5685837 -1.0648022 -0.34229597 0.9519136 -0.11969596 0.5686765 0.5773001
