3704 16
2858 -3.8015094 2.140651 -0.5433251 -3.46818 0.0023477017 -0.55073744 0.5044332 5.708462 3.1815984 -0.5108839 3.0012207 4.4533253 -1.2891631 2.314366 -0.8346888 0.90514576
1196 -3.6187243 0.33712995 5.05219 -5.799891 -1.4950225 -2.5652614 2.0130765 2.719261 0.2852445 1.406969 1.9347074 1.7159352 -1.641951 -0.067778185 -1.7942083 -3.3145483
260 -2.4376547 -0.090691775 4.1052556 -5.363683 -1.7315315 -3.2624402 1.7017188 4.3375626 1.7533722 1.5137552 0.3622156 1.2403078 -0.9535566 -0.7055918 -0.91561383 -2.6401138
589 -3.5818365 3.6172953 0.040154297 -2.5427747 -4.6924663 -2.5795646 -0.27100122 1.277361 3.610325 0.98911595 1.1932946 3.93506 -0.23764049 1.546579 -3.5604587 -3.6944354
2571 -4.0272646 4.1801143 1.6464359 -1.8974948 -4.8740826 -2.0973122 -1.349017 -0.0027233013 4.623129 1.8835818 0.025168361 2.929499 0.31410572 2.5689962 -2.635397 -5.2711806
1580 2.0768118 5.3128448 -3.5968897 -3.6514149 -3.69218 -0.8842296 -1.7386822 2.4220989 4.4531474 4.051428 -2.9201624 -2.81968 0.32346615 0.85412925 -1.919888 -0.7364662
608 -4.9911003 0.12751567 0.89674217 0.93771064 -2.3488145 -1.26252 0.3324071 4.5785766 3.6116433 -2.0282643 2.4068012 3.3642263 -1.6382761 1.8317221 1.378436 -2.340692
2028 -6.125613 1.932441 2.6205187 -2.2225337 -5.524568 -0.7549632 -0.047174692 0.6754697 2.3537998 -1.6358117 1.5937467 1.2398422 -1.9350849 3.256001 -1.0184624 -1.7531236
480 1.0528839 4.683663 -1.6334555 -3.4555442 -4.990747 -2.1046133 -0.14240529 1.9244787 4.16922 1.8630434 -0.4516732 -1.8124654 -0.5162929 0.2758275 -1.7334548 -1.229517
2762 -3.6164806 1.6807297 0.80355287 -2.3260267 -1.2762227 -0.9826651 1.414912 -0.17243241 4.9380927 -0.42619517 2.4546044 6.950001 3.6159835 5.7018404 0.38953996 -2.8969014
2396 -4.5541344 -4.443076 0.2409753 -2.7977362 -1.1496369 2.4881477 0.96850777 -0.49902818 4.7673554 1.8763595 -0.37698823 4.105024 1.1937727 6.805328 -0.5005164 -1.7789055
593 -4.4237595 0.5147685 2.7796235 -0.3755464 -1.8511455 -0.8248719 1.0730517 3.098178 3.501532 -1.5641634 2.5418646 3.1292293 -0.67289555 0.7892474 2.8173199 -1.3474538
1265 -4.36662 -3.384962 -1.870964 -1.4118892 -1.0678558 1.9757112 -2.2189972 -1.137602 3.1134334 1.8185259 -1.3156224 3.0918703 -2.847584 5.68129 -1.9023421 -2.182739
1270 -1.9203694 0.17746525 2.3859034 -3.9191763 2.7989275 -1.4352628 -0.061277237 -0.009197472 0.082648985 5.0125833 0.27228722 3.5418987 -2.91352 0.8950636 -3.2979426 -1.4850239
110 -3.3776634 3.0743406 -0.74168545 -2.830676 -6.029747 -0.7366736 -0.37234274 1.1236085 1.5561208 -1.3439689 1.9794148 1.091303 -2.8024964 2.6411624 -2.7098043 -1.6631423
1210 -0.96373373 1.934618 0.8268116 -4.8907623 -1.7285699 -3.1704018 0.82004017 -0.2931754 -0.5865987 2.3242624 0.92896235 0.06798593 -1.537929 0.30053893 -2.015958 -2.7736216
1198 -4.304841 -1.3619777 4.6272807 -5.7064714 -1.0558403 -4.4418755 1.9105474 2.5516386 0.994187 -0.4150057 0.7297762 0.45757818 -0.77049726 -0.31756735 -1.63487 -2.8067107
2997 -4.6333923 1.4649382 -0.2595276 -2.3019028 2.0454826 1.1716332 -0.37641713 3.5654755 4.0594583 0.83399177 1.6542403 5.358303 -0.09500534 4.6283345 -2.763179 2.0726135
318 -5.56127 -0.15838908 2.7929714 -1.0418105 -0.9877504 0.3988695 1.4837936 4.5658493 4.150984 -1.976687 4.312699 1.2266859 -1.4373045 0.39238542 2.810371 -0.917502
2716 3.242301 -2.8059335 0.7962263 -4.295438 4.6511083 0.3752255 -3.0989792 -1.4545438 1.6680392 -1.7404199 -1.5031248 2.9254146 -2.0073044 2.9675355 -6.0627394 -5.6230364
296 -4.975658 -0.42199025 1.2513627 0.8412591 -0.9988222 -0.95182747 -0.6108516 3.1956449 4.3175864 -2.6796489 2.5796323 2.2285333 -1.9390268 1.735896 2.3128319 -3.1189697
1197 -3.2636433 -2.3335683 0.7947642 -4.9611483 -0.825335 -2.3436806 0.46530494 1.1437081 0.39289305 0.87280506 -0.26147437 0.99485356 -1.4603567 2.348892 -5.0690246 -2.5780728
527 -5.071754 0.26933485 3.0515678 -1.8845844 -2.5351174 0.2201443 2.3322709 3.3309815 2.6102288 -1.2112578 3.9429276 0.9353957 -1.7521673 1.4998126 2.8997703 -0.07376868
1240 -2.8345408 3.7753727 3.4402711 -3.2186782 -1.369946 -6.2228823 0.49565026 -1.732348 -0.6048547 2.0880523 0.6003031 3.706427 -0.26857412 2.0490396 -5.034791 -5.8775034
1617 -4.2410154 -1.0497831 0.2561567 0.88261306 -0.5550123 -2.9079847 1.1879454 3.6182914 4.4094224 -1.0910408 1.2548853 2.5322216 2.1195295 0.0004203141 2.115994 -3.3106096
1 -3.2443426 -2.4646823 0.5249899 -1.9800718 -0.059352927 -0.13428985 -1.208402 -0.8091552 7.617844 1.6520548 -0.4076129 2.9068663 -3.0103128 3.6654735 -1.849634 0.20695567
1097 1.8652982 1.0331109 2.2031136 -3.0012605 0.46350664 -2.8220432 0.61802334 0.68920404 0.72328323 3.451888 2.1592033 1.5733654 -4.1997976 0.4101788 -0.67571616 -4.9396977
858 -4.281875 -0.3388534 3.076973 -2.0896513 -1.5490607 -3.0262833 1.2256651 6.965596 -0.22766253 -1.9987239 0.41466317 -1.5963727 -1.0221797 -1.0186301 -0.3232473 -1.0872912
1214 -3.1052237 2.6413453 5.664956 -2.0330963 -2.3940356 -5.5749116 -0.3647514 3.8593502 0.14508897 0.17720324 -2.294718 5.939613 -1.7169269 0.20743558 -2.877502 -3.1195474
2916 0.8195341 6.4927864 -1.0322423 -2.0177536 -3.5432804 -4.04944 -1.5334272 -2.3181825 3.7124524 3.9710405 -1.9882438 -1.9099797 0.46533015 2.471615 -0.9086718 -3.6490831
2628 -0.41105574 3.4139647 2.1108913 -6.080557 -2.2452004 -0.58009636 0.20870519 4.4033923 3.7557485 1.4931389 0.040658984 -0.12627447 1.2778802 -0.5136446 1.3073556 -2.3714309
457 -4.2174044 2.7879016 -0.46042576 -0.21891522 -5.171246 -4.2547226 -2.322495 -3.5082898 3.004407 -2.105213 -0.9752202 1.9847285 -0.9057005 4.4161844 -2.2304852 -4.461963
356 -2.1325295 0.60324365 -2.7575362 -4.268838 -2.1776588 1.0979819 -1.1340654 -0.5283719 0.34897354 2.5808878 -0.6725447 -0.61991245 -2.0715992 3.0442328 0.28517827 0.02256142
3578 0.65846866 1.6874555 -0.5912223 -4.463744 -0.013939123 -1.7888979 0.19966908 1.4936163 4.3509727 -4.6546907 2.823488 -1.5105909 1.4259001 1.4543742 -4.8993554 -2.759386
1200 -3.0862172 4.710285 3.6647494 -3.456063 -1.7761291 -5.333902 0.40708497 -0.44851342 -1.9745414 2.2540271 0.59919244 4.424679 -1.954808 0.27247554 -3.773526 -3.7393053
541 -2.4402065 -0.24845862 4.846746 -1.5552948 1.684143 -3.67663 2.805041 2.5228736 0.9490445 3.5789557 1.5929542 4.9260435 1.3010373 -1.2707009 -0.8801464 -5.3876367
50 -6.1065483 -0.40155086 0.821633 1.3710042 -1.2394884 -2.6011329 0.08904321 3.6660838 5.525785 -2.4740064 1.3859556 3.3861928 1.2146034 0.93913674 2.111863 -3.0446794
1259 -0.9902779 -1.3957324 -0.37250027 -3.404555 0.9419777 -3.9750464 1.3538096 1.9884447 1.819236 1.5516822 2.9482243 1.8811271 -4.308963 2.6202602 -5.0625844 -2.4859254
34 -2.782661 -1.5822133 0.43250898 0.19563976 0.62061065 1.6331177 -1.6120064 0.03149816 4.5282083 2.3957372 0.78534234 3.6298237 -5.551185 4.3256903 0.18166535 0.012454825
3175 2.250142 4.4611487 -0.9167557 -4.55694 0.22621363 1.4504117 -2.2055433 1.4298742 4.93603 2.9120235 0.092724465 1.1615671 0.009783888 2.765931 -3.338063 -2.670528
919 -0.8200393 -4.3088174 3.5917523 -1.6530763 -1.4996014 -4.203383 3.7911823 0.86985457 2.927768 -0.42468828 1.2246109 1.0949962 -3.0360522 1.0626818 0.11289643 0.09172118
2791 -0.801509 -0.2028775 -3.9279146 -3.5930445 1.6143943 -3.7188418 -0.75515103 3.4698672 -0.19037375 0.6188502 0.83179414 4.213676 -4.7666793 1.8223994 -6.2586546 -0.4784737
780 -0.7925221 6.540726 1.8191035 -3.8654563 -4.274046 2.4866748 -0.12854525 2.4422777 0.41776735 2.1022825 -2.0503387 -2.5230541 1.8517945 -0.7674657 -0.2988927 2.1990066
1127 0.1052637 7.1112304 -1.4303694 -5.739606 0.80774283 -6.4425874 0.6194694 0.24333537 0.328597 2.5944636 0.9927742 2.389342 0.46787605 0.31127182 -1.2171357 -0.52186257
924 -0.727632 1.8718038 2.7890372 -0.8209552 -0.121734366 -4.2403975 3.183139 2.2126594 -0.7834745 2.4699433 1.4450163 5.902798 0.7090537 1.6554662 1.2343075 -2.0124793
1387 -1.8441541 -0.21130945 3.1287296 -1.2266415 -3.5890293 -3.744692 -1.1410321 3.329257 -0.27437407 -3.2219362 -3.4599872 2.4627478 -1.9178236 2.1498663 -6.44921 -2.099648
2987 1.4847574 -1.8630847 0.9192407 -3.968378 2.9722638 -6.9021764 4.451832 -3.9982226 5.38646 3.2553208 2.8050945 0.10331781 2.2768989 1.259009 0.6415468 -3.8869107
2355 1.3440663 1.9248114 -3.0676074 -2.6043034 1.4832284 1.302357 -2.9593415 -2.6262424 4.4227853 -0.016650913 -1.0736097 2.753429 -3.3238099 5.1598997 -2.971962 2.757628
1036 -4.1833715 1.9090805 1.6666416 -3.9875035 -0.7176478 -7.5162005 -0.78532535 -2.7520638 -1.7183238 -3.1477084 -0.40647632 2.5027227 -0.42569974 2.4473002 -3.7617612 -4.9157453
1213 -6.627749 -1.3725283 2.0528579 1.9000736 -0.7842384 -1.1875244 -0.91245526 3.8538847 3.2257316 -3.8468044 2.4541433 1.8834828 -3.2133117 2.8461008 2.5755224 -3.347252
1610 -1.9364401 3.8337176 -1.5482006 -0.61349756 -5.2689066 -3.8774393 -2.2508864 -3.4684575 2.5909534 -1.4805118 -1.5106868 -0.36173874 -0.50110674 3.2744813 -2.218608 -3.486652
377 -0.55976593 3.538161 -4.187103 -3.0633924 -5.2744017 -2.774064 -1.1507843 -2.1685405 0.42674366 0.28280953 -2.8517747 -2.695863 2.2021756 3.403058 0.8273046 -3.250541
2000 -0.48369235 3.1204653 -4.574997 -2.2989287 0.878528 -4.9644294 -2.9103203 -0.0106130615 -1.7497691 -0.79003364 -1.1859709 -3.346727 -2.065598 1.719614 -5.834332 -2.0964646
1291 -1.9230869 0.19169126 2.7152355 -6.3567533 -1.7549847 -7.2327213 0.71453613 -2.5828853 1.1806479 -0.22502436 0.5371584 -1.601793 -2.7598803 1.3565534 -3.7840114 -4.785572
1136 -4.7570424 -2.9389184 4.1408224 -1.7897534 3.4991221 -1.7844007 -0.59525454 3.6803367 2.7110174 0.92123985 -1.8336643 2.555088 -2.1271174 2.500476 -2.4824922 1.1367077
1307 -1.0523738 -4.48316 -2.0547185 -3.7571335 2.6948702 -1.3769637 -0.10820632 -1.6942062 -2.2720385 2.224017 -0.47220615 0.8216315 -2.5863917 4.7648664 -3.4030287 -3.561289
1221 -5.1536913 -0.6467769 3.643105 -1.8349402 -2.0271983 -4.3538656 0.85306484 7.05138 -0.8118673 -2.7677188 -0.5507916 -1.0751579 -1.1377591 -0.383309 -0.44570777 -1.6976109
3114 -3.4727058 -2.9216 0.8810052 -2.9424317 0.6022932 -0.73912585 0.939405 -0.105698794 8.363987 1.3681631 0.628011 2.885784 -0.73506635 4.1173263 -0.5603786 1.009289
1704 -2.6581705 0.45250767 1.4410372 0.7404958 -2.7002554 1.3121161 -1.4077008 -1.4267806 2.5872345 -1.3280922 3.1442132 2.5639424 -5.0952673 4.979263 1.1820179 -4.0635643
2599 -3.5483088 -1.343206 2.4012377 -1.0097933 3.1636932 3.9349873 -2.6237583 0.8753933 5.570116 -1.5575771 0.7147692 3.940157 -1.5065628 6.0204005 -2.3713114 -1.1611876
32 -0.20445423 5.503801 1.6056162 1.6366602 -2.6220076 0.9662342 -1.200059 -0.8925854 2.5881755 5.30823 2.1224883 3.343007 -2.277215 3.5778775 -1.2783561 -5.613721
648 -0.38654435 1.8217692 -0.63869166 -3.1360798 -2.923889 -1.8291179 1.9718097 2.8292437 4.082094 -2.1733596 -2.0475755 -2.6647577 5.4046044 -1.9165009 2.7616827 1.9084852
2797 1.2409767 -2.207955 -2.033603 -3.1116145 4.7831674 -3.9577274 -1.7494621 -0.22590071 0.83687013 2.912266 -0.82319176 -1.1926011 -3.9334002 -0.13623025 -1.1758991 -4.0529313
2174 1.2279874 -2.7561562 -1.1310625 -2.4170694 5.0207896 -3.7804184 -1.5065336 -0.64237756 1.923452 3.3787668 -0.8130773 -0.9203338 -3.576447 -0.5447617 -1.4653077 -4.0562005
2918 -1.3954203 -1.9377009 -1.5462317 -3.3504694 4.8764906 -1.8063337 -2.2192264 -1.7161869 0.222376 1.3899751 0.17179406 1.3986541 -3.9551408 3.081131 -5.1262765 -2.7030365
2291 0.9970041 0.88460666 -4.9118166 -0.4258022 -5.457766 1.4770794 0.010584474 0.9513218 -0.058730006 0.6689253 2.2143788 1.3604057 -3.2907655 3.8664782 -2.0949545 -3.8298366
3471 -0.06396014 2.8979228 5.4315596 0.13511646 -0.07046602 -1.586993 0.13644718 1.7678792 -1.2152038 3.582628 0.52138865 3.4112008 -3.8002505 1.889265 -0.7320173 -2.6022816
912 -2.8587098 -2.9060538 2.444275 -0.61631393 -1.6252847 -1.5346103 4.3957233 3.136802 -0.5661546 0.42991647 1.1813923 0.74642617 0.36010215 0.26077837 1.6734653 0.8777755
1374 2.7315667 5.5193 0.3548758 -3.331812 -1.3457352 -5.3862324 0.7727483 -0.772223 0.24853031 4.217184 -0.3497685 -2.9908032 -0.7745255 0.33850282 -5.93182 -2.6862812
592 1.2697603 3.5707757 -1.3948865 -2.6330986 1.544947 -7.1707544 -0.58198416 -2.0655622 1.4579557 -0.0056916047 0.72652954 -5.6712646 -2.1445873 -0.06479231 -0.72298336 -1.8764962
590 1.1360029 1.1595858 0.88511515 -0.45694098 -2.5821903 -1.5333047 -0.13426566 -4.889161 2.866641 2.4573164 -0.6386714 -3.0638769 -3.018133 3.252655 3.1389122 -0.4018464
1394 -4.1707993 -4.1782284 2.2055228 -2.0169044 5.4603295 -1.3049115 -0.040983 0.80420464 0.4491817 1.4642104 0.41216913 2.9694362 -2.2904816 3.0084085 -4.460335 -1.5725745
1573 1.8612415 8.057033 -0.7089866 -2.0831776 -1.9052205 -0.5591365 -1.6023948 -0.14865787 2.4988916 1.8098129 -2.4040089 -2.1709478 4.0270815 0.5287973 1.951235 -1.7141871
3418 -1.8078676 3.1231635 -0.10401098 0.46328056 -4.387846 -1.3470474 -1.8902336 -2.4918168 1.5631939 -0.8683355 0.44248754 -2.5778985 -2.4797728 4.4147544 -1.4318273 -3.28273
2959 -0.63809115 3.2802963 0.41865194 -0.99994683 -0.56112885 2.7920303 -1.9171314 1.6847403 3.2374864 -2.4588165 3.2630236 2.9290588 -1.1310542 4.311262 -2.8481715 -3.511914
223 -1.3604037 1.7229247 -1.6900113 -0.15465194 3.59572 3.0859082 -3.5110874 -2.6150186 2.9422317 -0.071878426 -0.48759565 3.1329002 -1.2989756 5.725608 -3.5282278 1.3551152
1304 -4.4482946 -2.0218964 2.3067977 -1.5836421 -0.8840744 -2.579798 0.49986872 1.000845 -0.9317257 -1.0158235 -2.8447285 1.8108083 -0.42449 4.8024764 -5.9983387 2.09579
1784 -1.2334976 2.3912163 -4.098075 -0.5889744 1.3867586 1.7855632 -3.4275768 -1.5442356 1.826979 2.877572 0.24047674 0.64604586 -4.2163606 3.2652159 1.4814017 0.24091808
2683 -3.1991966 4.9099655 -1.2296711 -6.6470213 4.928618 1.4522191 -2.3500397 0.70727086 1.5060439 1.002529 -0.12893336 4.6952033 -0.42619705 1.3946638 2.0175016 4.2334
3793 -0.21312349 2.926673 -0.35269332 -3.7594738 0.19637755 -2.7772844 2.0695257 1.0447546 4.2050986 0.38256502 3.1578374 -0.13314226 2.1259599 0.014297306 -3.8345356 -1.0428948
380 -0.6832068 1.6581337 -1.5924915 -5.613264 -2.001103 -0.6254329 -1.8996711 0.4020286 2.1622293 0.98857486 -4.701711 -4.4726305 1.516118 1.1609925 3.0228088 -0.14979033
1584 1.6574397 6.98017 -0.3156443 1.0359391 -2.3486986 1.0454029 -1.3594558 -1.5447975 1.9839776 6.0707965 1.7104949 1.0274945 -2.3201344 1.37939 0.8834354 -3.9871838
1225 -3.5581853 -1.3835787 5.3767843 -1.3578006 2.2717133 -1.9251659 2.7490077 3.7719028 -1.6502256 -1.452424 4.139959 3.766243 -3.5627196 0.16222763 0.9445868 -1.4435964
1527 1.6313573 7.5601635 0.04901244 -1.9828925 -1.9123796 -0.5817857 -1.7524643 0.5147247 2.4344423 3.1111712 -2.1900146 -2.8767202 2.2494879 0.057218455 0.8174013 -2.1296427
2699 -0.9016692 6.5836515 1.9628714 -4.5893106 1.694655 0.2263361 -1.3187 0.94237876 2.0048544 1.4724966 -2.723397 2.4879112 1.9652468 0.15516008 2.804059 4.1278954
1923 -1.1751878 0.27200288 -3.7333589 -0.7025536 1.4622728 1.6149088 -4.099182 -1.608628 3.8241212 2.4998627 -2.1036575 0.24701685 -2.0756774 3.397748 -1.2442299 -1.1401144
39 -0.4798834 -1.4446379 -4.4743066 -0.060750943 0.13302366 2.2048109 -2.4698417 -2.3594146 0.7307442 3.849557 -2.5430026 -0.40969533 -1.5907776 4.536743 -0.49492475 -1.9165015
588 2.0421069 -0.04753649 -5.221721 -1.4987081 -0.19205458 -0.82634383 -1.9454476 -2.1396914 4.7369437 2.4100878 -1.7711357 1.7177299 -4.0824366 2.1765764 0.40218455 1.3769908
750 -2.1780455 -0.5248336 5.2949605 -1.7933359 -1.1833329 -2.026726 3.861921 4.071982 0.18725623 2.5930905 0.015531238 3.0689 1.2658556 0.43533534 0.056507885 -0.54910725
21 -0.29411578 2.9027524 -4.1699157 -0.63535404 -1.5777762 -0.30525 -3.95964 -2.4438248 1.7914377 0.9277242 -2.7122169 -4.1641016 -1.385443 3.8912406 -2.6793518 -1.3589693
2706 -2.5576832 5.170193 -3.7993367 -5.5665207 2.7420495 -0.7573643 -2.439721 2.8520935 1.9668411 0.9497285 0.7544005 4.05246 -1.2353646 1.4887888 2.2621796 1.3376346
2804 -4.1531672 -3.1360505 3.0253468 -2.3747976 4.178501 -0.8888461 0.8245591 2.3226588 1.379948 0.36038843 1.6227434 2.440687 -2.3011103 0.6802771 -2.1948998 0.22098075
1968 0.2956822 0.42955136 -1.7627738 -2.097853 3.1928577 -1.1476129 -1.7604623 -0.95386034 -1.9121863 0.7627335 0.79327464 0.7881546 -3.663162 1.8048171 -2.2644022 -1.8148824
1193 -2.129229 -1.0213917 3.32968 -1.2064073 0.014248817 -1.4223968 1.3770227 5.6369004 -1.0623951 -1.7683954 0.90390253 1.5568311 -2.7880921 0.36194652 1.6082187 0.1853821
2406 2.8503034 0.7874014 -3.2596166 -5.730606 0.17932297 -4.72785 0.031153306 -1.5668926 -2.829752 2.3612528 -3.4385996 -6.0720267 0.42426342 0.5501277 -0.78998154 -2.160044
1220 0.58518344 -0.78803676 -1.8041306 -3.1307023 0.8007235 -4.9658775 -1.0204728 -2.7846978 -1.0188864 -0.30609065 -2.626123 -1.568744 -1.880733 1.3606243 -4.8453918 -0.97243893
1393 -0.018430008 -0.36598974 -3.3452249 0.2383672 -4.485223 1.4459971 -1.2417073 -3.8741565 0.046958134 0.34794936 0.6289711 -0.05397818 -3.6319597 3.9766104 1.0970856 -4.1103344
733 0.16250022 4.9426413 -2.3581805 -3.0172079 -2.8634632 -4.705275 -1.3742957 -2.1315951 3.8535304 -0.81503004 -2.4563262 -4.3933973 1.8635327 0.8383504 2.253098 -1.0589144
1356 2.2480106 6.1759276 0.510847 -2.1244466 -3.4767354 -2.212258 -0.3956144 -0.20220381 3.7927732 4.366583 -2.004265 -3.5065882 0.99424326 -0.17438543 0.51675624 -2.4692383
1079 -1.2197266 -3.4577403 -0.057555422 -1.6946554 5.2257524 -1.7715474 -0.91769636 -1.6213773 -0.8562476 2.5116494 -0.1250372 2.1122417 -3.863207 3.711145 -4.773206 -2.4253047
3481 -0.5710783 0.20805895 -3.3057325 -2.487729 0.8273959 0.3766636 0.9869639 3.7482271 2.894029 -1.2272615 3.4118936 -0.15625194 0.38744843 2.3650348 -5.1587973 -0.37256622
3527 2.4952226 6.6610827 -0.28316453 -2.4447298 0.14441766 -5.4810357 0.05692543 -1.3286322 -1.2418064 2.576657 -0.21936327 -2.1308782 1.0793551 0.52560014 -3.5331812 -3.1357558
1073 2.9247398 -1.8691307 1.1348659 -2.7958932 2.6626246 -4.252052 -1.4443166 1.8836771 4.1912894 3.6361308 -2.6444356 -2.5783887 -5.2222095 1.1831669 -0.6323921 -1.6633372
1721 0.082606584 1.278543 -2.50967 -2.6169193 -2.8794343 1.1350485 -0.0062249335 -0.47807595 -0.15567723 -0.016325954 0.98740077 -0.82791144 -0.6198126 2.3836074 2.987538 -2.0788798
3623 0.674062 0.35832477 0.38740963 -5.280933 0.014601038 -0.78822994 1.8283821 0.62084234 4.909084 -3.5909812 0.8729845 -2.8407722 5.805983 0.04878164 -3.2564845 -1.4788502
3751 0.30411094 -0.75033957 -0.27518973 -3.1855974 2.2469656 -1.2785789 2.0322547 2.219042 4.5301943 -1.1043578 2.5945697 0.39815566 0.43032402 2.386644 -4.1609783 1.5558978
3408 1.1100701 2.0631516 -0.7085668 -3.576807 1.02975 1.7621052 0.6837221 1.5661405 1.589397 -4.08855 4.3623996 -0.71113163 -0.053901657 2.7409265 -3.4780743 -0.31020448
3176 -0.2945171 3.4926543 -4.282624 -1.2501117 -0.4563786 1.0380021 2.7700834 -0.5261716 2.598686 0.37557092 2.7910578 1.925844 6.2093043 4.0112567 2.0666213 -0.0012654631
1247 -2.9512334 -4.491015 3.593819 -0.4301223 -1.7146324 -1.2015045 3.426723 1.2622403 -2.046094 -1.8046986 0.7724813 2.8267882 -1.3758662 5.5010157 1.5651609 -1.1532745
1222 -2.437734 3.2051325 1.729649 -2.463192 -1.1088905 -3.9546351 -0.4040882 -2.925371 -3.291217 -1.0423594 1.8736883 -1.2395029 -3.0357735 3.1668026 -4.569816 -3.298111
1219 -1.0998166 -3.0240386 5.1489353 0.6607978 -0.21490178 -5.073768 2.1824508 3.5017838 1.903353 -2.934702 -3.0897894 6.867571 2.0228522 1.2378775 0.54746896 -1.4134713
2700 -0.09325727 -1.0737207 -2.8734336 -1.7206144 2.2269726 0.5818623 -0.8177127 -3.7224724 6.973496 2.7784677 -0.31363526 2.8462548 0.71250707 5.0670714 -0.29894745 -0.9806867
1089 -5.3940043 0.2909158 -0.07078053 3.1113415 -0.3306809 -3.648412 -2.6344004 1.0043771 4.422337 -2.2791805 -0.16999874 3.8180206 -0.23016693 3.124302 1.8268745 -5.775217
150 -0.56482 2.6206048 -0.6311882 1.8452271 -2.416816 0.69936836 -1.7015606 -2.4157295 1.2289989 -0.11852606 2.0100625 3.3043156 -5.8949785 4.4508767 1.6595701 -0.93624175
1206 -0.60888225 2.8468149 5.5670877 0.07768714 -0.07898895 -1.5730596 0.599381 3.5033321 -0.8895132 4.816582 -0.6089395 4.8371162 -1.4981858 2.2641954 -1.0575334 -3.0453844
357 0.5885928 -2.0811446 -5.5969625 -1.725396 -1.4544897 2.3465192 -2.5791817 -1.1012439 -0.028609794 3.8144267 -4.0483813 -2.2795725 -1.5337571 4.7696705 0.3816745 -2.6069617
2657 5.840007 2.3433058 -0.7832666 -1.1668795 -0.54506445 -0.31668043 -0.47315046 5.0048223 0.89953405 2.1929612 -3.5690856 0.43937165 -0.96507907 -0.030896675 -2.9696796 1.213968
1230 -3.4568684 -2.620972 0.85270816 -0.66244525 0.7976712 -0.042193998 1.3194909 5.2762804 -0.33569852 0.83224726 -0.9671348 1.5985068 -0.8378635 3.044681 -1.4907088 2.11745
1094 -2.2126656 0.2730317 -0.6680189 0.86054754 -3.6726809 1.7536817 0.5657408 -1.9930466 -1.7198851 1.6055063 1.1793976 -0.61190903 -1.7555072 5.1787896 0.7786843 -2.0008116
2710 1.5814673 3.5328295 0.08919534 -2.4334815 2.7969706 0.64967984 -2.0593638 -1.3195522 0.47867057 -3.3585894 -2.6841776 7.320426 1.4598068 2.343632 -0.4064817 2.7077782
2985 2.4845374 6.4906163 -0.09890548 -1.9482166 1.0128778 -4.07401 -0.6773412 0.80187625 -0.9608256 2.6645703 -1.1257832 -3.8723648 1.3810955 -1.6237143 -1.5695415 -2.8586648
1544 -1.590248 2.2835171 4.069266 -2.0793319 -3.5126941 2.298926 1.5872407 1.6876472 3.9675145 -0.72523856 -1.4952207 -0.0014808774 2.9791827 -4.473875 -1.6646324 3.0420651
2640 4.0240297 5.2526555 2.2785914 -1.8429866 -0.44982934 -5.2937174 0.32184005 2.4710066 1.5367631 3.7172642 -3.3603842 -4.49085 -0.075380936 1.1474905 -1.2957174 0.38404936
3421 -3.2172608 -0.79920834 1.0632031 -1.3372877 3.3875353 -2.1091032 -2.3041563 1.9651951 0.5130147 1.1315868 -2.1685593 3.6606145 -5.084008 3.1987216 -1.968568 2.7460961
1517 -0.52374697 2.5068552 -4.9169974 -1.1831815 2.805612 1.4278772 -4.493823 -1.4114034 2.752554 3.3405228 -2.2048435 0.9176803 -2.551768 2.140362 0.58547056 0.5075087
2395 -0.8119388 -1.6526117 -1.7157869 -0.5370259 1.9119005 3.228158 -1.529412 -3.0473182 5.0441947 2.9899578 -1.1026849 2.0773134 2.2370052 6.518694 -2.575812 -3.225936
3147 -2.3963275 4.276918 -2.8074942 -0.12107512 -3.2531934 0.6148926 -0.6620272 0.8679066 1.5402656 -1.7500691 2.7835565 4.0759296 -0.3193762 4.0368457 -1.7323573 -0.8321639
1641 -0.27426675 0.03462882 -4.220534 0.7904318 1.8718057 1.8470515 -4.2594733 -2.1498857 2.681954 2.6702359 -2.7676263 -0.22165604 -2.1589568 4.726319 -2.1448007 -1.2889686
1278 -0.30137435 -3.4875982 2.566674 0.6998365 2.786176 -1.9859709 -1.8877165 1.7549849 1.0909371 1.0006456 -4.8658695 4.2233667 -2.4464011 3.1504877 -4.4468503 -0.7055877
3753 0.3840704 2.1258023 -1.5561581 -5.1013794 -2.7933898 -0.45164052 3.1399374 1.6624732 2.67416 -2.2792084 2.719764 -2.0026355 2.6885219 1.3457091 -4.0187545 1.601892
1252 -1.2533251 -2.055223 2.4055874 1.6783963 0.2429242 -3.3544998 3.524222 6.2645316 0.968148 -0.25265005 -0.746886 1.5154525 2.7486033 -1.2108318 0.7811828 -0.8907275
908 -1.4650111 -0.70007885 0.38133505 0.6591705 -2.2962465 -2.9613466 4.406626 5.964485 0.2842048 -0.15198737 1.9854109 4.3487873 0.021842059 0.46804345 0.23488091 0.39649326
1358 -3.5675683 1.0926005 1.1502815 3.1460874 -2.5154107 -0.60418886 -0.41020897 -0.8954402 2.2356021 -1.2296917 2.3193083 4.8078656 -1.6243738 4.705602 1.7493703 -4.210316
2529 1.9295814 4.3915625 0.33859807 -1.3896337 -3.7658906 -4.341489 1.0327027 1.3222709 0.08291935 3.173408 -1.1564227 -0.37254274 -0.5643466 1.7666259 -5.95947 -1.6594852
367 1.1319362 -0.14625005 -3.5041509 -1.4293354 2.1740334 -0.90040815 -3.7843533 3.5228078 3.6071675 2.2421799 -3.7922688 -1.9207273 -1.0695657 -1.4260712 4.998649 -3.8946939
1208 -3.357439 3.0936048 5.45484 0.081813976 -0.3011906 -2.2087333 0.5118699 1.7736497 -2.3101172 -0.8057648 1.5633818 2.6259406 -5.004726 3.9591522 0.5080478 2.2623885
2100 4.400737 -2.5817852 -3.0443373 -5.2983513 2.1501167 -1.9444158 0.014241425 1.2709632 -2.8061442 3.7915154 -2.3762527 -3.88063 -1.9724078 -0.82065254 1.2205862 -4.7972775
2321 -0.06094954 -0.38470662 -4.4855547 0.83841884 1.5096593 1.9972858 -4.011347 -2.094531 3.2233248 2.9572377 -2.2512608 0.31493184 -3.190703 4.635004 -1.735394 -1.0834165
1676 0.0746857 5.876697 2.9319365 -4.031067 -3.404736 1.2007608 0.20723751 0.46164396 2.3469965 3.440803 -1.6763227 -3.0982742 1.5621338 -1.0094128 1.7941225 0.65773493
2011 3.6188536 4.152841 0.46328905 -3.7871091 5.8049235 0.3020549 0.5934022 1.6812116 -0.67165184 6.942327 -1.0642903 -0.8726143 0.30082747 -2.0847056 0.8082313 2.0051494
2324 -3.4462328 -1.3917766 -0.34892923 0.3967704 -0.04659625 2.440321 -0.85057014 1.2513912 3.298341 1.2297181 1.2681911 1.2553959 -2.6773722 4.6666665 -0.6029562 -0.524491
1370 0.3002463 6.3693223 -1.6850753 -3.6450267 -1.2410376 -4.1054254 -2.6217697 -1.9782861 0.68626225 -1.8450457 -4.1529307 -2.568996 3.1426742 2.2971644 1.8449799 -0.843385
111 -3.047221 0.26192692 3.7518086 1.4439266 0.90232724 -2.4094436 0.9490348 4.1331625 -0.88149625 -1.4638062 0.5377878 3.8504407 -0.48823068 1.1327152 1.4360347 -0.8936923
1500 -2.1641815 0.25342953 -5.435664 1.7839967 2.5123062 -0.5336955 -5.2667155 -0.886675 4.0294952 0.3363902 -1.6302177 -0.7773324 -2.7650385 3.5413005 -1.2979332 -2.4538631
2194 -0.8206181 2.0558825 -1.2055417 -0.478224 0.34303543 -6.8916855 -1.4963946 -2.738143 -1.5160981 -2.7107723 0.7478211 -3.9288638 -2.3878143 1.609148 -2.9967084 -5.1388607
2012 -0.94156826 2.4807777 2.779513 -1.827041 3.0763927 3.0688806 0.34250504 -0.16952331 0.9009514 6.1429358 -2.7535167 0.945957 1.0265539 -1.683121 3.5059068 5.118097
1376 3.5110044 5.366656 1.9053073 -3.2281072 -0.3191513 -6.0274105 0.89720875 -0.7680661 0.38655144 4.960133 -1.4501814 -4.5440936 -0.2496902 -0.8358996 -2.778824 -3.0574558
1090 -1.8769156 1.9587779 1.2962838 -1.5695729 -1.2152871 -1.8338355 2.1393018 0.29244465 -4.05933 -0.53011125 4.693772 1.663012 -4.0602107 3.5300527 -4.485273 -1.0894041
2115 2.6578948 2.1501818 0.37881017 -6.6320715 -0.10561032 -6.071892 1.1762439 -0.77205426 -0.19519229 -0.09935478 -1.9804192 -5.6904306 1.141903 -1.9563191 -0.8284736 -1.4997077
47 -2.4746 2.8075063 -2.9717596 3.0619996 -0.6045328 -3.178545 -2.7023427 -1.2623352 4.02073 -2.4833703 0.6068581 2.2205148 0.13359411 2.4443696 1.2027572 -3.7377436
1673 0.8687301 3.477005 -4.557457 2.3958454 -3.2748454 1.3271223 -0.8827907 1.9357543 0.46443683 -1.1062946 3.0529242 2.2581952 -3.1165574 2.859736 -1.7386651 -1.676535
1288 -1.2028962 -3.677401 1.5815434 -0.7528587 3.9979637 -1.498724 0.78095436 0.10759652 0.02319917 1.0805389 1.1815872 2.4100335 -3.008994 3.0305212 -4.479633 -1.6183693
3253 1.2419707 0.8767424 -5.366691 -0.13623276 2.5263588 1.3172522 -3.9336395 -1.9814206 2.1485667 3.4033012 -3.123914 -1.3576672 -1.77918 2.3006616 -0.29672903 -0.022574749
316 0.120657735 4.2127924 4.701969 -3.0432055 -1.5809098 1.1530632 0.16651525 1.3837957 3.4343374 2.8668017 -3.50964 -2.8158553 3.3831594 -2.211299 2.9664946 0.58454186
1954 1.6018705 3.4298391 2.1828115 0.5245382 -2.5607724 -4.827635 -1.4933656 -0.5745687 -1.7770338 -2.0199628 -1.4882147 -3.743488 -4.20958 2.88843 -3.796914 -1.7035162
923 -1.6678467 -3.1345482 3.4513671 1.3306158 0.31643844 -1.4106375 3.8726504 5.519668 0.14559053 -0.056813613 1.38652 0.23841454 -0.68437666 -0.99733365 2.6772091 0.64853734
3671 -0.98376477 -1.4078621 1.1414386 1.2291791 3.6863813 -2.2868273 -2.3965867 -1.4779043 -0.10332744 2.2519543 -4.529685 0.25063485 -2.909865 3.1731536 -4.3718967 2.8863606
587 1.0398633 1.3458838 -4.0465603 -3.499142 -0.12493746 1.0731634 -1.8211558 -0.99110776 -1.3308159 0.43197882 -4.2792335 -0.050533235 2.4455726 1.6222628 3.138061 -0.23688325
1242 -4.1965127 0.70636195 4.1125154 -2.953048 -1.5523258 -3.5763261 0.6997205 -1.8214774 -3.3522205 -1.8693638 2.1072814 0.37025264 -3.520384 2.5221748 -4.078034 -3.207758
364 4.5684495 0.17202784 -4.242844 -0.27288157 -2.6620266 -0.8919558 -0.8452997 -2.2303538 6.001218 0.24013473 -1.6603736 0.6352877 -2.6286142 2.3226788 1.6953509 0.54888827
3361 -1.8934661 -2.8935058 -0.74692297 -1.0728813 5.137139 -1.2324511 -1.5801845 -2.5934138 -2.43224 1.1771301 -0.32804602 1.7822336 -3.4461458 3.318958 -4.643912 -2.0512927
1294 -4.4154983 -2.063979 3.416607 -0.063405 2.098196 -1.5442343 -0.14668405 1.5828271 -0.94636494 1.7265561 -1.8638271 2.387927 -4.0450177 4.0813837 -3.3863208 2.8609066
1917 -2.6030838 3.7261548 5.121849 -1.5500814 -0.54871863 1.6144164 -0.36642706 -0.8079016 3.0260458 0.7211101 -1.755582 0.30937037 1.160639 -2.4461246 2.2657707 2.8615775
1396 1.9707253 6.461559 -2.1230202 2.5759666 -0.9664057 -0.79711175 -2.367244 0.570661 3.1744008 4.156601 0.205128 -0.82214046 -0.8192834 -0.68689984 2.1803875 -4.2638245
736 -1.9059038 0.86265373 2.0658095 -3.1620593 -3.9204295 1.5996864 0.56190133 1.8856732 0.14670585 -3.035015 -4.090297 -2.4214587 4.1333013 -2.7347164 1.5966172 2.2982085
3255 2.0882304 2.0333197 -6.730315 0.32906815 0.6192893 2.3549118 -3.6068745 -1.4086441 0.5687937 2.7547412 -2.0736487 -3.0161808 -2.4645703 2.2914648 1.8744745 -0.5697275
1732 -1.3244274 2.6876705 -6.8946595 2.3716063 2.6189065 -1.5101328 -2.8665156 2.1839964 1.1152527 0.11239616 -2.6453798 -0.41698715 3.2776332 1.0651265 -0.562414 -0.13273814
1961 0.47045383 1.1811411 0.2834451 -1.7856312 1.6352744 -2.2323895 0.261792 -1.2902596 -2.3532476 -0.4889776 3.4418397 0.71187425 -3.787548 1.0099444 -0.6734569 -2.9870234
1653 2.599159 7.6285667 -1.7075107 1.0186342 -1.7187314 0.7032175 -0.8526254 -1.8370652 1.7909555 5.010624 0.9573325 1.2920766 1.1585877 0.8718941 1.4464239 -3.738022
1258 1.578555 -1.9147952 4.091863 -0.5365369 2.3419893 -3.4733164 -0.08320937 -0.5148562 -0.33146754 -2.341046 -0.53342724 4.311993 -0.78363246 0.6137755 -2.6198773 -5.177427
3160 0.7699137 0.7217747 -2.1523008 -0.18167548 -1.7253604 3.4623272 0.61915827 3.4475436 3.1830962 -2.100002 4.142076 0.7149302 0.39822644 1.4612023 -3.6930962 -3.5657978
1608 -2.2197015 5.6455035 -1.2141601 -4.411361 -3.2843707 -3.5949368 -1.1241707 -0.108234845 -0.49519038 -1.6186321 -3.1103323 -0.1960987 1.3686959 -0.97340256 3.7927406 1.7010623
2302 1.6891953 1.8517077 -7.549908 -1.0043198 0.40475333 1.9436669 -3.3359356 1.4560126 0.73673797 2.0629976 -3.4096897 -2.0088124 -0.6394599 2.201285 -1.9591281 1.2479088
1391 -2.5976624 3.0031526 3.4290473 -2.2639298 -0.7706192 4.080101 -0.3489916 0.6758954 0.8716328 3.183482 -2.2024798 -1.2369 1.2712417 -2.5409462 1.4552269 2.5155106
3448 1.5067017 2.332241 -2.8507335 -5.3226333 1.6827924 0.26121718 -0.22079168 -1.8966861 -5.4237633 2.116064 0.72513 -4.431174 -3.7217433 1.8426179 -1.5181065 1.0682471
2455 7.595074 5.2665815 -2.1553438 -1.6175978 -1.048536 -1.7142903 1.0262059 3.1252131 -0.40848875 3.6723223 -0.39038032 1.5313125 0.4546515 -1.6558893 -4.5817084 -3.4304354
3702 1.0114391 5.7230244 3.8717747 0.32439044 -2.230696 -4.6953187 -0.26962957 1.3874853 -1.2654096 3.1399055 -1.7570456 -1.9246083 -0.7584863 1.8975036 -6.2257447 -2.7553217
349 1.1628593 4.616905 -1.7295927 -3.1232116 -2.6052213 -4.169333 -0.61261386 -1.6166124 2.5944011 -0.5726688 -3.661354 -3.6064796 2.6796873 1.4727151 3.1253324 0.6026711
2692 -4.5151377 -2.0399506 1.294998 -1.2669007 -3.196822 0.27905962 1.3047076 0.45773402 3.1328342 -0.8709624 0.5146058 0.6327964 3.5366616 3.7946982 -2.30764 -4.6227865
595 2.4319527 -1.8281143 -1.6949761 0.79300207 -1.6289557 -1.3335131 0.1291617 -4.114126 6.0520225 0.5384977 -0.25991482 1.5546122 -3.3652039 1.8084584 0.8506269 0.52219796
2268 0.16506979 3.0767705 -3.6951103 2.5752847 -0.6220929 -1.6367865 -3.8038375 -0.9231412 1.3265365 -2.313332 1.0048102 -1.4851267 -4.0786433 0.85438466 3.4978955 -4.0965877
3256 0.23891914 6.492377 -3.0278807 -1.9140418 -3.2947621 -3.7793381 -1.671668 -2.8857398 1.5800484 -1.4305896 -2.7494543 -3.6415913 2.7900884 2.9738898 0.88676745 -0.602431
969 -4.088887 -2.3227398 0.48489404 -2.630956 -5.278091 -5.9698324 4.175118 0.6547609 -2.4819338 2.1374803 -0.74335355 0.41345942 -1.4142245 1.8343143 0.39522174 -0.2672205
3081 2.7787502 1.9637102 -2.9589262 -3.9177113 -3.020498 3.367187 1.0893939 1.9018608 1.5328766 -0.1938584 -2.155808 5.4927297 6.349496 3.09123 -1.3002673 -1.5369818
1234 -4.215166 -2.4414937 1.2870722 2.1234252 3.6329737 -4.0391736 -2.354562 1.8822519 0.9476836 0.7426408 -2.7915738 1.3195881 -3.6618233 3.615886 -2.6272125 -0.5553185
1674 0.008882852 -1.3500654 -1.3040074 -0.41512772 -0.33933958 -4.331418 1.9008465 -4.5566907 -5.1244135 0.09347447 1.7100616 1.8073981 -1.0856599 3.9404294 -0.34798098 -6.2319303
904 -2.0016158 -2.7532918 1.8924671 1.8920486 -0.064526916 -3.864978 4.268426 3.8085651 0.44364396 0.1939939 -0.65920514 4.601488 3.2015414 -0.026530722 2.8873703 -0.4291222
913 0.9788625 -4.657282 2.1513262 1.1830721 0.5439712 -1.4543966 3.4660692 2.7110093 2.2401147 -0.37444288 0.222822 2.0591116 3.769471 -0.73013794 -0.23946695 -4.3893776
2054 3.744408 -1.1602591 4.0067096 -4.186213 2.9547157 -0.10508877 1.8885709 3.001051 1.1866146 3.9756632 -2.4678369 -1.1074071 -0.02313974 -6.909868 2.6608422 -0.47460192
1377 -2.679193 0.9809099 1.5677592 -3.2851794 2.548133 -1.335483 -1.936487 1.9891852 3.264948 -1.3352271 -3.8865998 -3.951739 1.2458746 -3.791674 4.0610895 2.5608828
3703 -1.9691077 3.0810676 4.065667 -1.5883527 -1.3336645 -4.5630445 0.84497786 0.016686209 -2.866245 3.2193673 -0.07061305 0.31807798 0.03468057 0.28516415 -6.7060666 -5.282127
597 0.10931895 -0.81619817 -3.2565174 -4.4562373 -0.7406358 3.0496542 -1.0256997 0.7451775 -1.988474 1.7658756 -3.912067 -0.2912586 1.1524261 1.549033 3.1526568 -0.041948028
11 0.6903003 1.2249428 -5.5545807 -2.6154006 -0.28066912 1.7538896 -2.099001 1.2126334 -1.6054935 1.9401102 -1.6535289 0.28296185 -2.1780317 2.9408371 3.7659297 -0.7953576
2081 5.852662 -3.029256 -4.6638227 -5.0611277 1.4654257 -1.7420831 0.9905121 -1.851773 0.57776886 1.9461573 -1.4737747 -1.507129 -3.182439 1.2548345 -0.48728135 0.02038187
2890 -2.4819841 3.1329715 -0.2184875 0.54015714 -3.2448967 2.0285406 -0.70589346 -3.9971905 0.77601576 0.5069573 3.3246217 -0.38693914 -3.762062 4.542074 -0.9545439 -0.12291898
2968 3.4521174 2.1242115 2.4295614 -2.6248174 1.6149473 -5.5629196 1.447634 -0.6272952 2.4553647 6.533586 1.3648756 -0.93440455 -2.3547766 -0.8473 -1.4405417 -6.1757646
2001 0.2878013 4.1989236 -3.4556022 -4.012857 1.8483963 -2.9496484 -2.1395612 3.049204 -4.0140843 -1.3765312 -2.7431693 -5.7837114 1.3283861 -1.6121619 -1.7898265 -0.19497031
1372 2.0503428 6.1629367 2.0075579 -2.8016346 -1.9734342 -0.8931135 -0.27344757 0.79113877 3.532001 3.8904858 -3.104153 -4.3127337 2.0483687 -1.1543628 1.3023193 0.09345691
2407 4.9720063 4.4053826 -0.7705725 -2.699175 4.662403 -0.12693664 0.2321037 1.387748 -2.8383794 7.539021 -2.34757 -1.7537053 1.0362467 -1.917068 -0.06598018 -0.21138528
2763 -1.5243182 2.9969923 -0.7864638 -4.4271884 -0.6419687 -2.9566915 1.4397581 -3.196092 3.8060782 -0.40381038 -0.38064364 -2.1264825 5.7323976 3.2869744 2.5735805 -0.22968104
1233 -7.0032725 0.9186113 3.746711 0.35132357 -5.0864034 -1.9835852 1.8074578 1.5168698 0.9231343 -2.3957126 1.8900785 0.6316558 -1.0499456 2.7863533 -1.0893483 -0.35658595
1028 4.212819 -2.8561876 -3.9553971 -1.7174644 -0.22487102 -1.6388996 0.42976615 1.9119037 0.7852155 1.3001506 -2.928339 -0.113108076 -3.5311651 3.5956569 -3.9540918 2.5965958
1101 0.9095748 1.2599803 0.56788754 -7.077834 -0.9531165 -3.2313638 1.1596512 0.3871993 -3.9010298 -1.044186 -2.566905 -4.688861 2.1495335 -0.11438348 1.1028235 -1.3543854
329 -0.06508961 4.441675 4.894578 -3.1788533 -1.7961553 0.9288819 0.5243856 2.0906866 3.755411 3.2522998 -3.1362941 -2.8598847 3.4100413 -2.503811 2.2206106 0.41709062
2617 2.119546 3.1681132 1.6231234 -2.9245229 -1.9818625 -1.1646081 -1.0556654 0.35137156 2.005354 -3.0816562 -4.894913 -0.29690963 4.1238937 -1.7329086 2.1582215 -0.16224985
1909 2.260462 5.8412304 -1.8428922 1.5872108 -1.0791754 -0.3297104 1.1626995 0.5135099 2.2994163 5.389839 -1.9650275 0.07357097 5.469468 -0.53844863 3.6434028 -0.5511621
1682 1.6687088 3.088458 -2.2166786 1.9457017 -1.7654451 1.69858 -2.587572 -3.542231 2.0088956 0.7458141 1.6905028 -0.8063302 -3.5419824 2.814977 1.3550596 -3.694425
2353 1.0280803 5.799007 -2.7584107 -1.8850043 -2.8186004 -3.3146317 -2.1409838 -3.500467 3.2478838 -1.7150314 -2.886156 -3.2946966 2.9883838 3.4130905 0.90614986 -1.3522617
2289 -4.026332 -2.3216546 0.808824 3.5695739 1.2249548 2.8202295 -1.0942242 -0.12519358 2.2521157 1.389108 1.2787807 3.2525365 -3.2860804 5.0791283 -1.859146 -1.164296
3363 -1.2354362 -0.54002833 0.5087087 1.32066 3.7374213 -1.8089814 -2.1329658 3.4332385 -1.89075 1.6587218 -1.4990096 3.3535838 -6.4285507 4.5451775 -0.9724572 1.0363021
551 3.4371545 -0.35738808 -5.982129 -0.7028691 -1.5987693 1.0330478 -1.2614615 2.5141788 4.793331 1.3005236 -1.4041193 1.0590942 -2.5703263 1.5045218 -2.3748236 0.81834084
3052 -1.2727592 3.4055722 -5.2717113 -1.6607916 1.1411175 2.574468 -2.6143372 1.8660516 2.2877169 1.3605484 -0.05491345 1.7381064 0.98904496 3.3096044 -2.3897529 0.21492644
2006 0.6802379 0.6345707 -1.4157324 -4.41924 -4.6457424 -1.7951219 -0.38327503 -0.35562244 2.3857884 0.8298116 -3.8991928 -5.2408676 1.1106066 1.9023725 3.1196542 -1.7641997
25 -2.5380526 -0.87783855 -0.65627867 1.3030369 -3.8059893 2.3829954 -0.74344933 -2.4474578 0.02797208 0.39944893 1.7067491 0.6829335 -2.6475937 5.320924 0.7245909 -5.035826
474 -0.5543246 5.2233624 -3.5451727 0.9923572 -4.3480525 -4.134047 -2.1417885 -4.2433147 1.7455268 -1.5144613 -1.9826026 -2.230489 1.1306974 3.8710537 -1.5000556 -2.4654856
1266 -2.7869003 -0.49043623 3.2519262 2.8377876 -1.8837396 0.036045086 -0.4033398 -5.089273 2.7942 0.13704586 -0.8047659 0.9255221 -1.3953062 3.7484624 -0.87134653 0.36664397
539 -0.39855456 -1.3071414 -3.676477 -4.835502 -1.102766 2.4450123 -1.148043 1.6664133 -1.0261756 1.6293836 -4.2948174 -0.4333876 1.2669911 2.296544 4.431297 -0.6420848
1183 -0.536074 1.5182568 -1.6719856 -1.3145591 -5.282693 3.672632 0.9177929 -1.5810628 -3.1300676 0.811047 1.2974105 -2.1683376 -1.5630277 4.587293 1.4052925 -1.2811806
920 -2.7189996 -2.8459153 1.3864437 -1.0473589 -2.7305083 -0.42565027 2.6410248 -0.37810913 -3.4447057 -0.149156 0.901242 0.8925147 -2.4200284 2.1872385 0.11498137 0.19947371
1408 -2.2612436 2.4864078 -2.5230088 -3.274106 -6.818004 -1.1705562 -0.21763448 -2.8102732 -0.46972975 0.7458166 -1.1519519 -3.449977 -1.224331 3.445463 -0.94283026 -0.91602904
2105 3.6494033 2.5231006 4.730894 -3.946339 1.5771537 -2.4230669 1.4733665 2.3147566 0.5508102 3.2565773 -2.827602 -4.2981725 1.971888 -4.8273764 2.0161977 -1.832899
1639 -0.12547652 1.5970552 -4.472654 1.2061747 -3.356054 2.417329 -0.7094104 0.43360883 -0.62278354 0.18667446 1.2421287 1.2128814 -0.9026465 3.9694886 -1.9048461 -2.2356908
3552 2.5342414 0.2576253 -4.109106 -2.5954685 5.052232 -2.0426366 -1.636388 -0.9828875 -3.3430133 0.9306642 -1.34788 0.046208445 -1.266292 1.5753802 -4.510931 -0.3155173
1215 1.30076 4.268737 -0.7876542 -1.136969 -1.3125097 -2.1952984 -2.8402436 0.95585686 3.303155 2.7121928 -3.4685545 1.447439 -0.13343228 1.1808535 -3.435934 -2.22995
3755 0.4028643 1.1907413 -0.4844457 -3.8779945 -0.41809726 -2.0638273 2.8078017 2.6737802 3.8230493 -4.112279 1.5333697 -2.803238 4.0127525 -0.091532506 -2.719995 1.6616969
3108 -0.29906642 -0.58946884 -4.2231956 0.6924818 -0.075295776 2.6589947 -2.3800223 -1.7039934 0.09741592 2.6625443 -1.0143996 -1.3420863 -2.1051276 4.0895824 0.113105156 -2.1604218
440 1.6326907 0.17658107 -7.2360716 -1.4111015 -0.903616 1.8299502 -2.7418635 -1.5781041 -0.4788983 3.6159685 -3.8262107 -2.5329096 -1.0366843 3.5142317 1.8039218 -1.4886334
788 -0.27913398 0.10769821 3.107457 -3.0914493 -0.60280716 3.8674572 -0.3589079 1.9650096 2.2898915 4.3183355 -2.5429325 0.9667313 0.9400037 -3.8449683 4.168505 -2.2613351
1552 -1.8378968 2.8485851 3.4936051 -3.3501475 -1.0045929 -1.0242455 -0.057852123 -0.44163212 2.4284263 -2.0896773 -3.8229458 -2.7922177 4.3352833 -1.7922242 4.5072503 1.980086
6 -2.747665 4.4184217 -2.471602 2.0668528 -2.5870943 -4.4991355 -3.524581 -2.6394188 2.4567695 -2.1171498 -1.5817355 -2.2882152 0.02093246 2.548429 -1.1446965 -4.344612
2746 7.1984377 0.40731528 -4.953781 -2.798569 2.4968293 -0.20992415 -0.36683148 2.0249674 -3.414374 0.016662458 -4.3360343 -0.39675945 0.86853135 -0.89641523 -3.5138392 1.6226354
1282 3.1209478 -3.2837374 -0.92782956 0.69184476 -1.6208774 -2.9567485 2.9093688 -0.19719346 4.319111 -0.6285262 1.2761319 2.5514739 -3.0035727 1.9986203 -2.5395515 0.28787836
235 -1.4124097 -0.90976036 -1.181762 2.7363765 1.8786165 2.1075964 -2.6768377 -0.5802208 2.1318362 2.2900805 0.10254551 1.6716671 -3.8329396 5.1624227 -1.5581279 -2.3999796
1276 -4.289617 -3.1475499 3.350166 -0.005290063 2.7022605 -1.3961112 1.7426989 2.5310767 -0.048483945 0.35969865 -0.41190487 3.0705214 -0.9199274 2.905683 -0.79043657 2.2321577
2336 1.1156356 1.1651275 2.6522725 -0.31882173 -0.44976738 4.407206 -1.938758 -2.4301982 2.7509944 -3.3052378 2.7469513 2.2794285 -3.3479793 6.4465747 -0.6377373 -3.4720879
1207 -2.075452 -2.80317 4.9584203 -0.41365686 -0.6166575 -1.8379699 3.5389092 4.7666693 -0.11869259 -2.4176443 1.463589 2.291796 -1.9999026 2.9471743 3.012898 0.6534571
1250 -3.2050374 0.07615219 3.5041165 -0.18996626 -1.9150568 -2.4452655 3.5325935 2.044212 -1.5767179 -1.3347216 2.0119708 2.510816 -1.8670765 2.4915943 0.5522871 2.2974641
2770 0.30614004 3.3967097 -2.7990856 -3.405095 4.8927345 3.6259675 -3.5735915 -0.43565366 -0.25594157 -1.4388264 -3.1413894 2.1627522 0.8922232 3.722471 0.8519827 4.206815
1320 -1.4816847 5.496243 6.354588 -0.22847492 -0.5495302 0.8681612 -0.9795678 0.9621632 -0.21440539 -0.051250935 -2.9061086 3.5047896 1.4995936 -4.622719 1.1481888 1.1534351
1375 3.210707 4.5818987 3.9876125 -4.9484925 0.7519606 -1.5498819 2.5444033 2.6061852 -1.17888 3.5990038 -2.7478473 -4.506755 3.8047116 -3.584925 -0.9708388 1.4369788
2712 3.3608928 4.624702 0.13126232 -3.475478 1.310051 4.4163857 -1.9516822 1.1842693 1.8412213 -3.6655383 2.4630394 0.9013852 0.55594677 3.5460064 0.30230317 -2.8618143
1080 -1.7728912 -2.6428237 1.7469625 0.2797845 3.3227637 -1.8318311 -2.1386516 2.248969 1.2664661 1.8798009 -3.3826413 1.3023189 -3.569371 4.2762794 -4.495589 0.17535003
3897 -2.665015 1.0532595 -0.8545981 -1.6206843 3.354155 -0.9602671 2.4937024 3.2280998 1.7566893 0.084465794 4.4890814 0.17084286 1.3263681 0.5125489 -1.181935 0.9173036
36 -2.8194768 1.0576539 2.4747179 3.1773539 -1.4104955 1.717234 -0.9757535 -1.1589024 1.5202351 -1.0112878 3.391759 2.897034 -4.364897 4.3958373 1.6179876 -3.2424693
293 -2.671113 1.1679858 -4.148665 3.0203433 -2.3683164 -1.7347593 -1.5741917 0.14028175 0.87664855 -1.3585999 1.1893054 1.3586799 -1.0297723 2.6932297 -0.8635556 -4.6366353
1912 -5.824051 -0.26151618 -0.42623827 0.52906245 -4.395406 -1.3953925 -1.5605823 -0.08070499 2.5538118 -2.1135416 -0.883121 -0.659771 0.703631 3.6314821 -2.2783668 -4.3575096
1199 -1.648417 1.8769375 4.374563 -0.6628391 1.83767 -1.7622901 1.5286309 1.2929058 -1.0363454 5.0155635 1.5950778 3.6533802 0.47730815 0.49915054 -2.0740843 -4.8994455
2248 -1.7387065 -3.5209239 -2.0258758 -1.122053 3.025275 0.04375425 0.2880652 -1.4233814 -2.793091 1.9071767 1.6622095 0.73469156 -2.1459756 4.1592183 -4.521246 -4.243947
70 -0.03457521 3.7562563 -1.0822508 -1.7457763 -1.549807 0.7261956 -2.1623573 4.101073 1.3898147 -3.2407093 -3.901264 0.20567001 3.3843727 -2.6911526 -0.23059762 0.8086957
1747 1.1157215 1.5717069 -5.3956027 0.81120104 1.893707 3.2372365 -3.4706652 -1.3063694 0.9030006 2.4471204 -1.5798775 -2.9325585 -1.709891 3.024884 1.1792489 0.05020921
1876 0.66033304 6.868283 4.0870976 -1.1660933 -0.659427 2.4966016 -0.5329706 -0.38169268 0.8972491 0.70482856 -1.778517 -1.2050278 3.4488912 -1.8456743 3.8823965 1.1798195
1777 0.9157086 0.2203309 -6.74799 -3.4979339 -0.4246228 3.4762201 -2.2444813 1.0613072 0.6376917 2.7519643 -3.9101427 -2.2228756 1.3279985 1.7013787 3.2744546 -0.35253868
3033 3.0993102 3.384124 0.6866284 -5.059468 3.3349879 1.6781882 1.3144844 3.1834989 -1.2151672 5.154799 -1.7838684 -0.13656361 2.792819 -4.635952 -1.6174344 1.440071
2470 3.7196314 -0.42950195 -0.79777974 -5.614337 3.7669756 -2.8105485 1.6424137 0.20055814 -1.3234477 2.5609508 -2.622641 -5.2866306 0.46382332 -3.597483 2.5205367 1.747333
903 -2.0952117 -2.5306878 1.3532351 2.1977017 0.16568461 -4.712517 3.59876 1.8176214 0.048300564 -0.06761692 -0.48655683 4.7114573 2.4684675 0.7685962 1.5929768 -0.74971396
2947 -1.2150565 -0.5055162 1.9135789 -1.5891819 -4.770311 -6.796334 0.3688357 -1.6569284 -0.11548014 -3.5315897 -2.3511145 -1.294649 -1.9658661 3.8824139 -4.8052416 -2.3655086
1129 4.7122393 5.6730556 0.032002635 -2.8242342 -0.92698646 -5.359806 1.6552973 -0.24632059 0.019992556 1.8235086 -0.84064186 -3.0153027 1.9697891 -0.9480955 -2.4909985 -1.7063985
10 0.67243344 3.7353325 0.57746345 -3.6326149 -2.2699242 -2.9039567 -1.0502973 -0.5063527 2.850518 -1.6477151 -4.1481514 -3.6839018 2.6155589 0.32831496 2.8451788 0.6215761
1407 3.2773864 2.8909123 -3.590576 1.7222251 -2.0356526 -1.2332449 -2.704713 -1.691699 2.4720948 -1.9935321 -3.9201093 4.086154 2.8667486 0.93546516 1.4260005 -3.4492538
3210 1.3771956 -1.0264641 -2.7771027 -1.0657154 5.81767 -2.6275775 -1.7609842 -3.006314 -0.98650813 2.5763607 -0.67898136 -0.69781107 -2.8682477 2.3627682 -4.226114 -1.956107
1625 -0.9681018 4.1956143 -5.9233603 3.056597 -1.9126765 -2.1671317 -0.70795345 -0.99693114 1.0044459 -0.4978944 -0.18327875 3.852121 3.330023 2.9384809 -0.41962847 -1.4436717
1997 3.4829879 0.11958596 2.7989097 0.8491666 1.392975 -3.7163775 -1.3307991 1.9061536 1.1983168 -3.731277 -2.313527 3.5208945 -1.4933703 2.2646818 -2.3838677 -2.1347835
1148 -3.6240458 -2.744092 2.6971695 -0.6416918 0.82156193 -0.77000207 1.3245705 4.349285 9.251811 2.4439025 -0.36766037 0.54582447 -0.06567772 1.6275554 -1.2864347 2.0924606
3499 3.0339208 0.8684794 -0.98999816 3.1504562 -1.8983985 0.2930923 -3.5301447 -1.7904172 2.249789 -1.7748024 -2.6981242 4.1839867 -1.5217923 2.46872 -0.5932287 -4.538202
1179 -1.004939 -0.85918653 -1.4193145 5.5165052 -0.20983402 -2.300375 -0.19915886 -0.6242924 2.5434403 0.21848233 1.6692083 -0.71156895 -0.32900435 1.2746108 2.3994563 -6.651367
1748 1.2489446 4.626111 -0.2094517 2.0831585 -0.43928432 -1.866081 0.4113933 -0.9145746 3.8906584 4.787671 0.8383835 1.6187783 2.8003817 0.18271297 1.7190781 -5.197801
2080 3.8006115 -5.030395 -4.080177 -1.0440005 -0.42980576 -1.724318 1.6501561 -2.3938031 1.051312 3.7736387 -2.1378534 0.68592167 -4.020204 3.172733 -1.391459 0.4822107
3699 4.495861 2.3917863 1.0463693 -2.5384357 -0.37996155 -3.0855448 3.0270674 0.4125386 -1.9027286 5.289411 1.1876931 -3.731832 0.02090999 0.66390336 -1.6817465 -3.8358335
3174 1.8848183 1.0685252 -4.617047 -1.6739373 0.6563848 5.395364 -1.7243875 3.4165618 3.3167071 0.2530984 0.20300196 0.07248777 2.5792954 1.7792771 -2.3627138 -2.7070196
1035 4.780387 -0.77317023 -4.324916 -1.6112096 -4.451626 -2.1544363 2.6318586 3.6367545 -0.036595482 -1.4541606 -0.820486 1.234576 -2.0751042 2.2245579 -3.4031727 2.5804782
3107 0.12163923 5.345245 0.5011706 -2.600335 -1.2480904 -0.2998024 -1.5423826 -0.5826182 -0.8465373 -1.0617069 -2.2637956 -4.4241023 0.3811611 0.67175674 4.632861 1.7088245
3555 0.30834293 2.8812914 -1.8490393 -4.2767453 -2.1854615 -2.2335682 1.980708 3.0404558 3.0804176 -3.6741304 1.2771858 -1.424177 3.4335968 0.08905708 -3.7108629 1.1027306
3006 -3.3236318 1.292672 1.3213241 0.5447616 -1.0384723 2.0408397 0.24116248 1.484713 2.189181 -1.8123405 3.8326354 2.4370277 -0.86757153 4.2159934 0.29289436 -2.0162578
2723 1.1340388 -1.0997325 1.1492319 -4.5789247 0.86462593 2.980877 -1.1690568 0.12757011 4.948028 -0.15233381 -4.084693 -3.9293334 5.212546 -1.1152177 -0.19965799 -2.0374024
2502 1.7827398 -1.5321194 -3.9573255 -2.7222257 1.7009002 3.5612113 -1.5202891 -1.0729392 3.2928147 1.9126134 -2.6138487 -1.5161601 3.757751 2.0296934 -1.5299838 -3.1927087
1722 0.57732254 3.470646 -2.355663 -3.5518706 -3.557736 -1.942645 -1.2405224 -0.8175458 0.46929315 -1.2608154 -4.86159 -3.519649 4.0989876 2.3737855 2.8726094 -0.6255584
1953 -3.238076 0.476058 3.102539 2.8495362 -1.7142879 -5.997435 -0.92677057 1.2065977 -2.3833985 -2.9661064 -2.378154 -0.15284725 -2.101718 2.8212135 -1.922363 -2.6673841
3608 1.9287951 0.5011375 -4.7967696 -2.7741172 4.5585713 -1.7111427 -1.188636 1.2087168 -2.3717132 1.494767 -0.30834344 -0.1125852 -1.3128295 2.3396113 -5.767925 -0.3923746
2915 1.9886513 -0.95935416 -3.4686859 -1.7258314 6.138031 -2.3140254 -1.8404305 -2.237452 -2.1063647 2.867442 -0.59239596 -1.7591231 -3.4527898 2.0341313 -3.9803777 -2.321112
2641 4.1164913 3.466522 4.503392 -4.206395 1.9559287 -1.9083244 2.6368098 1.0677854 -0.34217018 2.0899873 -2.1878247 -5.034269 3.0498402 -4.5199633 0.4835545 1.2780974
3543 -0.47015095 -1.8098018 2.6257787 -2.422939 6.1757803 0.7715003 -0.38746044 0.9305271 -2.7514246 -2.36221 0.76024204 2.7892425 -0.90003717 5.7632217 -3.8249443 -0.38055077
3082 -2.2854347 5.093602 -1.1765791 -4.8157134 -3.1782317 0.88694173 -0.21279405 3.2661028 1.5244523 -3.1906796 -1.9472511 -0.73064464 5.7650785 0.94778097 -0.7872536 1.9842675
2908 -2.4578273 3.2814069 0.9313527 0.13750647 0.14875029 4.0878468 -0.18445522 1.4881114 0.87037045 -2.2230754 3.3759422 5.7225165 -0.08270973 6.546963 -0.61157346 0.5098432
1246 2.6766331 2.5981 -0.46063095 -0.30022675 3.4477084 -1.0012822 -0.85363954 -3.478098 -3.2303362 0.04798741 3.309464 -1.2778357 -3.806862 1.4450725 -0.35394582 -3.3790395
2352 0.6020901 -1.4714404 -3.086804 0.26592255 5.3558335 -2.1092145 -1.1057185 -2.8990562 -2.7212694 2.2359273 0.5238321 -1.378072 -3.6451328 1.7053528 -2.3323066 -1.9501586
2369 2.39862 0.1054204 -0.03017474 -5.430869 4.029239 3.4366622 -0.48186645 1.1446037 -4.9241743 -2.6523554 -2.2985446 0.32498834 1.4023178 2.280253 -2.2787297 2.73418
17 -2.3866158 -3.113954 -1.5070446 0.82233757 -4.919697 2.4143443 1.6775224 -1.0084239 0.4025529 1.1573006 2.1678205 0.018125234 -2.2200239 5.5824127 0.7033243 -3.8473592
3039 1.7819433 -1.1555064 -4.051224 -1.8155034 5.49605 -2.7379045 -1.7639011 -2.531933 -1.5311463 2.890344 -1.101573 -2.0944014 -2.5188277 1.7551057 -3.3030775 -2.1905324
500 0.61787516 0.06730616 -3.5598981 -3.151253 2.6923118 2.4506035 -2.8134115 1.9092928 0.52291375 1.4077795 -4.615593 -1.3565627 0.34776616 -0.058444254 4.089714 2.112116
2108 0.7456981 -1.5876306 -6.0669794 0.11405513 -0.07982341 1.7831421 -2.7140865 -1.1893103 0.58650416 3.7232373 -3.659166 -2.8651707 -0.94956493 4.491701 -0.113592766 -2.5361984
910 -3.8167803 -5.246529 1.2608593 0.9803718 1.9770366 -2.1316245 2.3791244 3.942369 1.2262329 1.7601787 -1.8389536 1.4581397 -0.006889145 0.78272223 0.37631047 2.3294728
165 -2.8589895 4.036949 1.7657696 -4.601491 -0.3113589 -2.5917475 -1.7941127 -0.48132256 -0.24433792 -3.7963672 -4.236975 -1.0491127 4.26046 0.9976215 2.8411975 0.1496157
3072 0.11748589 -2.4470737 -0.95968646 -1.6124804 3.3681026 -0.7731664 -0.44520962 -0.1944687 -2.3119748 2.4651165 -0.57026535 -0.45634738 -2.7185798 1.6518189 -2.963855 -1.7541673
454 2.7113845 6.770454 -5.8342934 0.45317817 -1.7358427 0.553433 -0.95832664 -1.550528 -2.6611736 -2.3385305 -0.93796366 -0.6314645 2.9789052 2.3876612 2.10885 1.6472664
1201 -2.6949968 -0.2704625 4.022098 -0.4882264 -3.9910715 -5.7806897 0.74282366 -2.4702277 -0.3998647 -2.334441 -3.347037 -1.1391727 -1.2776989 3.9317663 -3.8316157 0.35244146
1645 1.5551312 4.382284 -3.6469781 3.0017264 1.2749006 -1.964026 -2.9122994 1.1181525 0.3771411 -3.1328495 -4.061958 2.0331333 4.734008 -0.90217966 3.7189379 -2.1352432
1204 -3.2421067 -2.748307 5.460406 -3.1235056 -1.7111795 -5.868932 6.1728716 2.767505 1.8209609 0.5924942 1.4686006 -1.5167042 -0.6515336 1.4864787 1.5976399 2.2618968
3526 2.8662992 0.07425128 -3.9487674 -1.017057 4.9611764 -0.8417261 -1.7169739 -1.3900398 -2.9537654 1.8756703 0.8428842 -2.2096689 -4.0648913 1.7226942 -3.0018392 -1.7964431
2701 -3.669656 -0.0921016 2.2964554 -2.0948102 0.5127739 -1.6967623 3.8506513 -5.5848975 6.3483152 3.4460232 2.3668182 1.0501789 3.5013742 -0.9483563 -1.3023291 1.3220844
2424 -0.6523756 -1.6683977 -2.6979277 -5.1582994 -0.65280807 3.133151 -0.33057258 1.1859685 -1.0172106 0.9189209 -3.5979807 -0.80522156 1.6297292 1.2357465 4.896393 0.34458014
2167 2.4135072 3.4168885 -0.8150144 -2.0803895 -2.3851147 -2.8107357 -2.38191 -0.504125 3.0925407 -1.9269364 -4.8854933 -0.19657044 2.226181 -0.52992386 0.06741039 -1.546549
2278 -1.8567897 5.6691947 -3.0339048 -0.049109522 -1.7293143 -4.630014 -2.9232705 -0.2576466 1.5805829 -2.5074203 -2.6123796 -3.3347664 1.9580284 1.7167706 1.0231823 -1.5999157
2393 -1.0101814 4.7634125 5.2612143 -2.715493 -1.0561373 2.093256 0.013369861 1.5192975 2.892043 3.8019776 -2.7699616 -1.7769061 3.153169 -2.2419908 0.6684958 0.56020516
1569 0.6926453 -1.6844438 -4.576581 -4.659237 -0.47010124 3.1270406 -0.96486026 2.0472388 -1.5596371 2.0485628 -4.301021 -2.0692496 1.3506238 1.6263162 4.2960186 -0.47173348
1285 0.3882731 -1.3614513 -2.005928 -0.43877286 5.8716545 -1.180845 -1.7811525 -1.6506394 -1.0873885 2.0317352 -0.2242558 0.60331976 -2.1560676 2.3354547 -4.3854756 -2.705401
2058 0.11365504 6.0496225 -4.5478506 -0.59235567 -3.6084898 -3.2342148 -2.5364697 -3.7905605 1.6993706 -1.8455524 -2.880184 -3.2053125 2.7191768 1.8063763 0.315502 -1.5803369
2002 -4.5542483 2.5435302 0.8972496 -2.3544226 0.90235066 3.1528573 -3.2341797 4.0264397 -1.7423621 -3.4751668 -3.6425018 -2.768057 2.1754243 -4.4097867 0.69953364 1.7181331
1597 -2.1598535 2.3216002 0.37516218 -1.5629977 -1.9113095 -0.12309646 0.52237535 -0.18635984 -0.79781604 -0.77434105 -3.9886198 -1.7567495 5.9038115 -0.7326276 4.46401 0.673696
1380 4.469537 -5.0342975 -0.4084139 -2.6738193 0.023716317 0.82856774 0.42692593 3.3449452 -3.2918582 -1.1180013 -6.500875 -1.9404719 -1.9457809 0.21897939 0.9467048 3.5139825
3809 -0.21027076 1.7462656 -6.2902517 -1.7430376 0.26808625 2.358831 -1.6783704 4.703581 -0.55642384 2.0264933 -2.7472618 -1.5914336 1.3595195 0.63023233 -2.6318326 2.1606352
3450 1.2111486 1.8702717 -6.8805394 -3.945721 -1.765625 3.3928704 -2.1305387 5.5322638 1.9018264 0.67342556 -3.8794072 -0.023719748 1.0470812 -0.5170663 -0.22123416 2.80726
2064 -1.1389283 -3.9154482 2.0481055 0.568398 6.0696673 -0.90771675 -0.19043994 -1.4915828 0.79115653 1.0765184 0.41163704 -0.31207183 -1.6138375 2.5747623 -4.4340706 -2.0290177
368 -1.5522488 0.2953883 0.3888635 -2.9889355 0.4022168 0.27353287 -1.8540729 -1.7472122 0.7795718 1.7663594 -7.297083 -3.9402385 2.2492292 1.3530337 1.8491538 4.205775
2427 -2.3222713 4.744028 0.044639442 -1.2785875 -4.8569703 0.7204242 -0.7404175 -1.6237859 -0.5903792 -0.48688444 0.49636996 -4.247857 -0.51065165 3.1504202 -0.56317675 -0.5695078
2193 3.0564427 0.4578347 2.6658573 -5.940253 0.5596474 -5.413307 0.74305844 1.6922632 0.6514252 -0.33165857 -2.3138638 -4.387957 0.163828 -3.9039476 1.997387 -4.025651
1994 5.413692 2.3272269 -1.430813 -0.43559343 2.4415252 -5.62368 -0.56127423 -4.0302377 -2.7521446 -1.7488885 -1.9413769 3.2769403 1.3618987 0.48658234 -1.1159611 -4.830742
1371 1.2742608 0.9324995 8.241293 -0.097874686 -0.035803244 0.57912964 1.3601961 2.4164662 1.6066173 2.0017316 -3.9983811 -3.1603463 1.2746717 -3.567467 -1.9761503 2.350064
1690 -0.4667247 6.105103 6.2632465 -1.3146346 -0.85045797 1.025183 -0.79488903 1.3561567 -0.29084146 0.44046888 -2.7828863 3.3199322 0.8115489 -4.303814 0.89464194 1.6940743
3424 -2.1947455 -2.2223744 1.4157732 0.021840299 5.5676994 -1.1669841 -0.15456058 -0.11685 -1.2658285 1.0241543 1.7440604 0.9946095 -2.5979636 3.3840322 -2.152976 -2.1668394
2243 1.4350954 -2.650991 -2.5061884 -0.5848595 2.6928492 -0.06291268 0.28262725 -1.7558267 -5.1494474 2.7099648 -0.045969088 -0.9848116 -2.4913137 4.02119 -2.1109498 -3.5994089
1060 -0.73317134 1.1836581 -4.018738 1.9310683 2.555875 2.1535594 -3.676529 -1.77418 2.8712666 2.6393752 0.28293264 -0.06434644 -2.906047 3.9477572 -1.5096302 -2.2117689
3510 1.97637 2.6826355 -1.1245842 -3.110565 0.01699378 0.031503808 0.8603066 1.7017627 3.4845726 -4.840026 3.3704238 0.35403538 1.5234164 1.2045771 -3.65122 -0.92351896
2694 -1.7234309 1.9257994 -1.6932819 -5.539523 5.206486 2.105086 -2.9535937 -1.3807384 1.6877675 -1.8459593 -2.2647016 4.037928 0.5115143 -0.10563819 0.47942314 3.7314105
2003 6.4354553 0.67703724 -2.4166317 -3.1858666 4.9525676 -0.68062747 -1.5020722 2.2607896 -3.7066457 0.5945634 -5.1212144 0.6792151 1.481831 -2.9997175 -0.674456 -0.9128878
2021 3.7175026 1.0891333 5.182368 -1.7782645 1.6079929 -0.5444046 2.0078042 3.4852743 0.9450237 4.0318365 -0.495296 -0.87233037 0.42037374 -4.64352 1.9539796 -3.177434
2490 2.0733604 3.0382977 -0.18803912 -3.6216524 -1.8040408 0.9847859 -0.51386315 -3.6283686 2.9569578 -2.0598893 -2.9077652 -3.3492963 7.2208147 1.707807 -0.8328257 -3.0321379
2881 -1.793583 3.2004828 5.4641585 -5.3051443 2.9634569 3.603588 -2.219693 -2.704814 2.089329 -6.46716 -1.4400275 1.0756053 2.8203175 2.2442243 -0.265452 2.572131
2671 0.56463647 -0.8767674 -5.959867 -3.9039352 -0.96930766 1.9576662 -1.0925452 1.832578 0.10282736 1.8075238 -2.4461534 -1.8100467 0.95050085 2.6466603 2.8917649 -1.4882547
3104 -0.2985078 0.17602152 -1.7977041 -1.656977 2.049989 -6.807535 -1.6786551 -1.8719074 -0.36119387 0.6303418 -1.6211619 -4.356026 -1.9247972 1.249819 -4.016044 -3.925312
265 -2.481885 -3.2064333 0.0105084395 1.8340051 -3.5156329 3.0969322 0.92912245 -1.076344 -0.89483666 -0.3858571 1.347053 0.36369777 -0.96715903 5.597931 -0.18212168 -4.0239367
3948 -2.053347 1.1970848 -2.7311032 -1.8566827 2.9018877 -0.48362082 2.057452 2.5262523 2.4227772 0.83151346 3.9100444 -1.1129527 1.4212022 0.12067016 -2.015574 1.5187771
2605 -0.9450125 2.9399002 3.3689222 -2.9058247 4.664797 3.2512689 -3.506279 0.22711632 3.2710745 -7.453562 0.71687347 1.2998993 1.8053675 -0.8091416 1.1810575 -1.7776937
2020 0.22183903 -3.3997178 1.26913 -0.36873326 -0.08139905 -0.46761328 2.5487478 -3.0475066 -4.766763 0.99323726 2.3918166 0.8352209 -2.2708669 3.9948113 -0.9548168 -5.674953
153 -4.126211 -1.1027622 1.8030642 0.15089533 3.8056366 0.23170608 -2.0628362 -2.1781216 4.530818 -1.1869048 -1.1256139 -2.8944833 -1.7093096 -5.6169543 1.0878923 2.4236994
2948 1.6521603 1.9079626 -2.4791086 -1.3320935 -6.149088 -5.781006 1.2867362 1.5034611 0.1315813 -3.3190663 -1.0150957 -1.4679662 -1.555286 3.286904 -7.0120277 -0.06925342
1302 2.627953 2.3453202 -1.0420394 -0.9667428 1.9173166 -2.0381477 -0.22508553 -3.644426 -3.339696 -0.9000863 3.74947 -1.2082667 -4.7260027 0.9732697 -0.6717828 -3.128224
3362 -4.0846224 -2.5165658 1.2219517 2.9590318 3.8329055 -3.7726958 -1.7141731 3.495887 -0.4920896 -1.7880181 -1.6745896 0.8938144 -3.3587315 3.9416668 -0.84452486 -0.48937717
785 2.8200946 -1.0250568 -2.820369 -3.7292724 3.769683 5.450622 -3.609166 1.9044484 3.5168228 -0.9636073 -2.9799964 -1.4793977 3.0491672 -0.8376984 -0.07637708 -4.1019764
1267 -1.547384 -3.3376734 3.3082664 1.7057195 -0.2756183 -4.6889296 3.921891 3.5163634 1.1271665 -0.3080709 -1.3822922 2.3982744 3.225698 0.3178953 2.144034 -2.1406221
594 2.9277706 -3.8309581 0.28018308 1.7270957 -1.3853713 -2.8506892 2.943571 -3.1136358 3.8712814 0.45748258 0.3504006 2.4481845 -3.4048023 1.084411 -1.2247068 0.732762
3386 0.5000642 2.0226054 -3.8775265 5.2422023 -1.100845 -0.23244508 -0.20000337 -2.3700178 0.2785327 0.76008016 0.5639801 0.6915139 0.8812369 1.5251364 3.9004035 -1.9101179
3354 -0.12679693 0.556786 1.3359997 -3.1347854 -1.5490627 3.5183914 3.1355252 3.2528043 5.299536 -0.33059675 2.4994156 1.0582865 4.293863 -2.005664 -5.1330624 -0.23970155
344 -2.8633263 1.4174052 -3.8636537 -3.1204417 2.512943 0.4352529 -1.3830812 1.9388514 -0.24762854 2.8935301 -2.3861628 2.1045747 0.7222216 -3.4155922 4.3991847 1.9571322
2288 2.363307 3.130235 2.827035 -0.36027598 0.06424174 -5.6365767 -0.10560771 -1.6066469 -0.57547975 1.9804596 -2.5231423 2.3884606 1.389273 0.4166533 -4.539936 -5.4110594
1513 0.70100015 -3.1997826 -0.3821331 -4.6660743 2.5188394 6.2997527 0.92488456 -0.6818587 1.7321831 1.8263434 -3.9345956 1.9772727 6.880763 0.9992108 1.5354834 0.33501494
2872 2.1693985 -0.07624 0.36674562 -2.792929 -1.0259094 -4.299247 -0.42679724 -0.66608936 -1.4455831 0.35702056 -0.8039251 -3.013562 -2.780739 -0.85457903 -1.7578746 -5.6706743
161 -0.7522815 5.471345 -2.740613 0.4687981 -2.72535 0.019305766 -0.5285119 -5.522015 -1.6433383 0.8755406 1.6533785 -1.7818815 -1.5924486 3.4071133 1.6489373 0.5742547
1965 3.7617424 2.9518392 -2.8991852 -1.9077713 1.8202329 -0.83869344 0.8134149 2.7673244 -0.32002237 6.3180194 0.50888216 0.49141154 -0.3784949 1.432898 -6.4698567 -2.4373748
1231 -1.4425296 -1.4525005 5.3707705 1.1937469 3.0923588 -2.2816606 1.5993431 -2.1538577 -3.633568 -1.3135982 4.0524607 3.7573588 -4.552013 3.0763905 -1.4972224 -4.2863135
1947 3.6032445 -5.6278977 -2.0021257 -1.0788788 -3.8889503 -2.1460595 3.535597 -2.001185 -1.834312 -0.4674024 -1.9923688 1.0114539 -2.0292506 5.5127115 -1.0386469 -0.95160204
2366 0.9435178 -2.7612927 3.4542522 -0.16155615 -3.5288444 -6.1529284 0.86497957 -0.67737114 0.52497363 -1.5189929 -3.7114 0.39282504 -1.357117 0.7120072 -3.5869746 -3.2912502
899 -0.21358779 -7.559686 1.2905376 0.03526847 -4.0867553 -0.8255053 5.6064634 0.60730237 -0.39807838 0.7061827 -0.5510758 3.2865295 -0.8327328 2.6536028 -0.5841822 -0.03187028
2391 -2.8439643 2.290072 -3.7254605 4.79335 -0.716312 -4.190704 -2.5717976 -2.6023707 2.9828587 -2.2321608 0.08097403 2.1791358 0.39129004 3.4362056 1.4306198 -4.7966104
1077 2.123721 2.2853632 0.44481802 1.4738019 0.9734495 -1.4425702 -1.0409027 3.498026 -0.64477026 6.3244176 -3.2527351 1.4322492 -2.3819995 4.669002 -6.7010946 -0.4779902
3624 0.53790426 1.96685 -1.9294072 -3.24712 -1.6678082 -2.2002847 1.80375 3.162773 3.6149735 -2.7972314 2.2097054 -2.085138 1.927881 0.19251522 -4.923169 -0.21088411
778 -0.6742441 1.0589582 0.3411046 3.624312 -1.7490277 1.6426516 -1.3915863 -2.1585078 1.5788225 -0.4379869 2.457245 0.7967166 -3.3335161 3.503488 -0.13929665 -3.706215
1092 -1.0967777 2.603402 -2.4119267 2.1317208 1.5571923 -2.577588 1.1694434 -1.741745 1.162705 -0.22115012 -2.1202748 1.1282482 5.734165 -0.981946 5.9879146 2.9094603
3396 2.349969 -2.205113 -0.017082326 -0.38253748 3.3874257 -2.298852 -2.399552 -0.09784727 2.6284044 1.8513767 -2.4185743 0.4366004 -6.583875 2.7507162 -3.1754446 0.68434536
2094 0.16860683 2.9625611 5.976067 -2.0137763 -1.9576668 2.1620746 0.72439283 0.31658715 3.1814919 2.2691202 -3.3544428 -2.7309206 2.5094595 -3.6276515 3.0844576 1.5813287
1275 1.6023029 2.3184657 -0.46936867 -4.361672 -0.732865 -6.868301 -0.08005812 -2.3004704 0.42147124 -0.18038985 -1.5280901 -4.822951 -0.4463975 -1.050424 -2.2469401 -2.3321805
1663 2.8844483 -0.22995539 -3.7109828 -2.1177654 6.8278694 -3.2059867 -2.5651848 -2.9758587 -2.2055235 3.1170468 -2.8084729 -2.1015513 -2.2458053 1.5400082 -3.289483 -1.56861
253 4.141482 4.37744 -2.6490443 0.38289344 -3.0540068 3.426176 -1.7783016 2.8359184 -2.3208783 -3.0298781 -2.9453595 1.3560038 1.9793152 -1.3501005 1.0341655 -0.41427898
2826 -1.3759546 5.2423162 0.5762592 -4.214285 0.42787918 -2.1113927 -0.22366285 1.6948866 0.7899238 -1.7833434 0.307936 3.4327161 1.8706542 -1.9200716 1.6999726 0.89713526
1299 -3.4223716 -1.1918167 5.3447404 -0.37768373 0.70675594 -2.2543101 3.9029946 0.4624313 -3.1697578 -1.0235765 3.7464461 0.6648721 -2.049216 1.6663773 -0.34671053 -0.5477957
353 0.27905288 3.1827075 -0.49851167 -2.999793 -2.2887452 -0.25238758 -0.9400457 -2.3560708 -0.56541944 -1.5496931 -3.6101985 -2.879835 3.8174684 0.20932749 2.5031588 -0.45003396
3698 0.81309706 2.071998 6.752242 -3.2103336 1.2794708 0.03167418 3.11837 3.226586 -1.1052693 1.6711819 -0.9996443 -4.062062 3.514158 -5.4436793 -1.3362428 1.098535
1249 -2.2814941 1.1621239 -1.6799991 2.8033597 -2.6159315 -1.863519 0.8479396 1.5455263 3.0590768 -1.3109298 2.2985134 5.1871758 0.02400335 2.3009865 -2.4032576 -1.6409811
292 -0.28934327 4.531306 2.2476232 -2.148254 -2.0405169 1.6304797 -0.37082347 -0.97803175 -0.9696619 -4.0948076 -2.3834536 -3.6473715 4.0140276 -1.3419001 4.4472985 1.3353435
2871 -0.1960065 1.6861577 3.01814 0.63247335 0.8848705 -8.424207 0.16848625 -1.2920594 1.5529554 0.7204971 -1.8987083 -0.008605598 -1.6949599 4.0446553 1.1974405 -1.0838449
1333 3.450913 -0.64712906 -0.08609769 0.77648586 -0.09922465 -3.6870666 0.15697955 0.056861658 -0.7610194 -2.2141514 -3.2042847 4.8317995 0.2973326 4.3922515 -3.7034187 -0.85147613
2580 -0.6081787 0.08667791 -1.1384486 0.6113629 1.5293508 1.0246959 -4.070117 -0.116295256 4.4428573 -4.8911185 1.9539976 -0.016851647 -1.1871173 1.5304352 -1.1045172 -7.540423
3704 2.8025062 4.4347367 4.2296677 -1.6728321 0.5704982 -0.77221364 2.0939739 2.1933696 -2.846971 2.6246161 -1.4982767 -5.1882553 3.993998 -3.1027052 -2.4901414 -0.7184302
2144 3.824468 -0.2471883 -5.0425453 -2.7028565 4.692781 -0.63398755 -1.7522888 -1.7560256 -1.719682 2.5380528 -1.2640378 -2.218498 -2.0046186 0.5307974 -1.825044 -1.7523605
953 0.3179645 -2.0051496 1.0240954 2.9129562 -0.52734256 -1.9992155 2.206625 -1.0284088 -1.1624267 0.16927105 2.579334 1.6351776 -4.4507422 1.7182432 -0.13251606 -0.796092
2140 6.060899 2.3623772 1.4731393 -2.0815692 1.3291655 -3.2222388 0.5830133 1.0218669 1.4215697 5.4385386 -0.7397693 -1.050178 -2.2471237 -3.5280592 0.7872966 -4.8498783
246 -2.20419 -3.0418699 4.0697355 1.9846004 1.7997395 0.23536147 1.4778 1.9906602 5.149565 -1.5641129 2.6773798 0.10264745 -0.60606337 1.0230577 1.2878877 -1.9167049
1244 -2.6159558 -2.898069 1.1722275 2.0818586 0.9839429 1.3916526 0.41077352 5.170731 -3.4267917 1.5157958 -1.9681404 1.311774 -1.5847998 5.126394 -4.2730403 0.6415846
529 0.40620488 1.8386998 -1.4087449 3.8458502 -3.097153 2.4687715 -0.5337872 -0.57265246 0.3018097 -0.0033726725 2.8888586 1.6314741 -4.0734386 4.215058 -3.850113 -1.7305982
1729 0.2205192 3.2607048 -4.719704 4.6731186 0.94890356 -1.2915027 -4.2750034 0.30106238 1.1076082 -3.0321336 1.1645637 -3.4441683 -2.324712 1.0148308 1.8771299 -5.4668665
1466 1.1180758 3.579797 -5.600203 3.8985124 -0.961613 -1.651207 -3.1448336 1.7761476 2.2768836 -4.041836 1.3497558 -1.5609108 -2.8971334 2.1613922 0.45257992 -2.9281359
968 7.135269 0.062242843 2.9493623 -1.0570725 0.18840937 -0.42574677 1.7030165 0.22051394 2.2583694 2.2001474 -3.1240513 2.307517 4.6041684 1.3303764 -3.9423707 -5.059273
3489 0.1739242 -2.6204753 4.2575245 -1.6430051 -3.406058 0.12362777 0.08158518 1.8435168 3.8768108 -0.17023328 -2.192231 -0.48753867 -1.4261941 -6.6889815 2.9708457 -3.8670452
2124 1.4898772 1.4766518 -6.440545 -2.1246612 1.9798694 -0.110569425 -2.0186145 0.7859949 -0.6180101 3.4836817 -4.0979877 -0.32082978 -0.2167035 -0.4553659 2.6314526 2.3015187
2005 4.564336 -1.2291722 1.729413 -5.1273894 2.5656586 -4.2975726 1.4183682 1.7382344 1.7896514 0.608867 -0.3875292 -2.651204 -1.3302745 -3.5461743 3.4122627 -3.7458088
300 2.3155773 2.328966 -2.5339196 4.2494226 -1.5376295 2.1742465 -1.5724716 -4.1074114 0.017856333 0.056756437 2.3924534 -0.6539428 -4.1149564 3.9274938 0.49394813 -2.8994079
2944 -2.5211823 1.082976 2.4720917 -2.9676604 -4.7832193 -5.6390367 1.6835703 -2.9457548 -3.611923 -2.9044967 -1.4946445 -0.99151886 -2.424633 5.0527816 -3.839171 1.3651652
1287 -0.83142614 -0.081288725 1.6324283 -0.21928845 -3.398676 -6.7735095 1.7653383 -1.9994589 -0.27969542 0.58043396 -0.4866768 -1.4848582 -3.60644 1.3237381 -1.1989748 -0.75562954
3763 -0.07734864 5.7666707 -2.7482471 -0.24610043 0.9316572 -5.388939 -0.39655328 1.7111347 -4.2106013 -2.252893 -0.3329902 -3.7650874 2.6126463 -0.7348264 -4.5188713 -1.2027049
2161 5.3869987 -1.033901 0.17555277 -4.998682 1.6725023 -4.9099646 1.3176507 1.6100391 2.9300838 1.9559302 -1.1278754 -3.5021129 -1.6047579 -4.1361723 3.9120064 -4.1528144
288 -1.667758 3.8999927 1.4735792 -1.3005677 -1.0774187 -0.30297995 -1.0197256 -1.3037897 0.76591825 -2.7804203 -2.958656 -2.2523699 4.461455 -0.7770841 2.5038104 0.5122171
2160 4.936279 2.273179 -2.8767843 0.78322685 -2.756669 -5.783027 1.7337765 3.9655426 -0.038305998 -4.1233473 -1.2866586 4.6880517 1.6118033 4.067902 -2.8133473 -1.470712
3148 1.3314475 2.4789333 -3.804794 1.9742942 -1.7094656 3.1270318 0.52677286 0.84622276 1.3919479 -1.4107488 3.8358855 0.40066803 -0.89693063 2.8607945 -2.309986 0.64393115
2 2.2681751 -2.271624 2.141631 -1.6175003 -1.532877 -0.38046417 0.06887433 0.9932181 5.0592194 0.7717971 -3.1953275 -2.2067971 -0.9840673 -5.454457 6.7038565 -2.159346
2150 2.763785 -0.6056203 -2.946978 -2.1373827 5.42252 -0.7035632 -1.3972161 -0.67875344 -2.442809 2.6438177 -1.4209663 -3.1369054 -1.2521583 0.37241277 -2.71294 -1.7153811
1263 -2.2088616 2.686816 4.9258885 0.53316957 0.029075492 -2.0324068 -0.20771325 -0.5974207 -4.769677 -0.13657561 0.48497194 0.018748395 -4.7853675 5.0608826 0.52765393 0.40804812
1262 -2.7230604 -1.7180623 5.2871914 -2.502156 -1.4728122 -5.827889 4.6018133 0.62942386 0.37296593 0.03450678 0.72785383 -0.5696187 -1.6981308 2.0237803 0.5878152 2.1668036
2359 -0.877264 -0.6570146 -4.255886 0.86837703 1.813244 2.4176722 -2.8723922 -1.5744629 3.1027348 3.2664945 -0.8896554 -0.39718288 -2.021083 3.7520344 -1.4329034 -1.0773345
337 0.8888913 1.43635 -1.6152893 4.065901 -1.9362147 2.571387 -1.2876898 -3.152806 0.7594007 0.43721512 2.5002232 0.7597697 -4.0994596 3.9869041 -0.6224306 -2.934453
2572 -1.6581426 2.6935136 -4.471785 -5.2537355 1.0713539 0.33671123 -0.6213167 2.1686854 1.0789654 0.96602523 0.22732781 3.7130919 0.39376983 1.6593055 2.338098 1.4707404
3504 -2.5784771 -3.2079487 3.2208226 2.313346 3.511845 -0.5870037 0.06338742 3.7679558 -1.3933167 0.39443842 -0.7474206 2.4254594 -3.98411 3.1866162 -1.6269039 0.75340563
1235 -2.407828 -2.540935 0.39882305 1.9982437 2.299631 0.3031352 -0.15411949 4.0163083 -0.90454286 0.76652783 -1.3642088 2.268157 -1.8304151 3.4158633 -5.966237 1.3060958
3868 0.67320615 0.32900867 -4.777236 -1.967627 1.8433164 -0.55973613 -1.3014178 2.4422674 -1.4473451 2.023438 0.3341905 0.16447306 -2.592287 0.044557106 -7.063016 -0.7226752
2145 4.5180063 -0.88501614 -3.463579 -4.9278274 2.538807 1.5052133 1.3258389 1.2818974 -5.808943 1.4859922 -1.8871094 -3.392819 1.3238685 -0.7641683 2.3318057 -0.6001501
2023 -2.8124702 2.2325897 1.1832947 -1.7143028 -0.23702107 -1.0399126 -1.2015368 3.9211526 -1.4973226 -3.867721 -0.81460714 -3.170495 0.5010623 -1.0322222 2.93933 0.010586615
16 1.8890957 4.7186494 -4.132948 3.8981516 -1.3775685 -0.842035 -1.7451344 -4.505707 -0.07489531 -0.745988 0.20236 0.022487573 0.27736422 2.884741 2.0997832 -2.2457452
1093 5.7254267 -0.09084106 1.6521636 -1.8603833 1.9868361 5.328197 -1.2250234 -1.9927093 0.60489064 -6.584016 -0.945312 -1.3094485 -0.57194376 2.4096262 2.426229 1.8687128
2688 3.0208945 2.8921907 3.6728342 -3.8194177 2.2960603 6.5863886 -2.8139076 -3.450182 2.4677951 -7.375812 1.103825 0.80175424 2.1231031 -0.95626384 0.31717765 -3.8622904
266 0.23189388 2.1891716 -1.1923856 -2.75914 -6.5001063 4.0209126 2.1195915 1.0158724 -1.7405386 -0.5343766 -0.5844594 -1.1854639 0.5269543 1.5533136 0.7781833 3.9230068
1343 0.60210276 3.9755037 -4.415756 3.4711382 -0.09234718 -2.5267205 -2.1245258 -5.7917542 0.44943863 -0.8294693 -1.564847 1.8629054 1.8472687 2.8631845 1.7873945 -1.2929626
543 0.53787696 1.4522042 -5.3714857 -1.661962 0.35594642 1.9912592 -1.8429838 -0.32301095 -0.069536276 2.289811 -4.299779 -0.44186988 3.7287426 0.7761811 3.3200257 -0.230873
434 -3.1380844 2.087298 3.2246091 -1.5403157 0.058206562 0.035345927 -1.6506047 3.3051734 1.6143266 -3.562325 -3.4466345 -3.0092936 1.6261898 -4.9557004 1.2775974 2.3889725
1084 -3.1825068 -2.7660441 1.6044037 4.201609 0.58900094 -4.1442575 0.4501242 1.1625439 -3.2250693 -5.5234375 -0.16587451 1.9780385 -2.0809853 2.8444414 1.07404 -1.1317683
3105 0.32461914 3.2510867 -1.714356 1.9825281 -1.0316048 0.91679776 -1.9629889 -2.6963372 0.67975026 0.9574135 2.6696439 1.1966149 -5.82566 3.6493092 2.2601197 -1.5336171
141 0.69778425 1.5935719 -5.0825067 -1.2029133 3.299982 1.7653931 -3.2918906 0.3004899 0.28561538 2.0746112 -4.536376 -0.72139484 0.80765027 0.7593004 2.7849073 2.355282
708 0.58761716 -0.26697624 -4.8315463 -2.9736953 0.026063815 2.8561018 -1.3545249 1.9573601 -1.0351229 1.9135128 -4.0077887 -2.2173438 1.7778605 1.5904278 3.9280617 -0.09093263
104 0.2448897 0.8073011 -5.871638 -1.7785976 2.2690446 1.8237792 -3.9712222 -0.074211806 2.445403 1.3230594 -3.0226197 -1.1024611 -0.3713783 0.27527773 0.6291408 -0.30411965
2405 0.31450063 -2.3912113 5.0253973 -5.9202967 0.7061551 -0.023165813 1.9837893 0.90211594 -4.241623 -1.6568733 -4.176091 -4.531421 1.6098948 -5.9443517 0.62450886 1.2452505
1228 -3.1855862 -1.9462634 6.0457344 0.9427241 3.5369053 -1.9024293 2.5398047 1.3987964 -3.0150228 -1.6934392 4.158232 2.2519298 -2.4221401 1.894542 -1.0460289 -3.275872
1883 0.53867877 0.5380493 -4.890834 0.7905294 2.8971694 2.5665195 -3.891024 -1.2406787 1.1755135 3.1256497 -3.568488 -1.4366332 -1.2341822 2.9734414 -0.26260224 0.7407055
1188 -3.230956 -4.38996 -1.2859519 0.07719474 -0.09904139 3.2288032 -0.60851395 -0.15565036 2.008099 2.489187 -1.1797881 0.8773008 -1.0214157 5.512334 -1.9297253 -1.220762
1293 -1.1399055 -0.50897664 3.664319 0.57504505 1.2390467 -1.8095212 1.3323683 -1.8147069 -3.4269273 -0.74028635 3.337604 1.8088095 -3.6425576 3.4166632 -2.4123874 -3.6030781
1918 -4.0640926 1.9886322 1.7323877 -2.1375742 1.2777432 2.151147 -3.5028005 0.45765245 -0.47611645 -2.7147048 -2.768126 -3.1087513 0.6847458 -4.0332265 2.0455809 -0.21219058
1339 3.2973044 1.2956715 -1.3523134 -1.0505804 -3.5625954 1.5433784 -1.4436053 0.25334653 -3.0473893 -2.1509473 -5.0025687 3.4348106 1.7253675 0.42755464 3.101283 -2.2361531
1088 4.3344994 -4.11077 0.18477109 -5.178663 -0.7719571 -0.21990041 3.0581625 0.0026285613 -4.8103123 -3.2823896 -2.1148427 0.028752556 0.60083777 -0.50127447 1.1062732 0.77393395
339 0.8465654 -1.4623383 -4.59237 -4.493372 -1.4581708 3.3825743 -0.8979963 1.2227608 -1.7570518 1.8991687 -4.9471097 -1.5867304 1.3019928 1.560478 5.050901 0.22822966
1269 -1.0503042 -0.86015654 -4.655271 1.5576545 0.69538045 -3.8399432 1.5293176 2.0383134 -0.5240342 3.0297568 -0.5074474 5.1647763 -1.1613708 2.8359556 -2.5120995 1.2633386
497 -0.48077378 -3.0477135 -5.3241563 -0.5833675 -0.7867403 1.5282038 -1.42023 -1.7535361 0.63617945 3.3502765 -2.0000744 -1.550096 -1.5881785 4.240134 -1.4977646 -2.602297
2078 4.644684 -2.94819 -3.0899925 -0.86313653 1.3050585 -2.5780025 0.3778859 -1.944387 3.267858 0.66436577 -2.091096 -0.19031689 -3.6852322 2.6160462 -1.1625974 2.3101964
555 -1.5808558 3.0112133 -3.2078402 0.2868399 -2.681614 -3.1162343 -2.9705036 -0.07453054 0.8827611 -1.4362346 -1.7023444 -4.3722167 0.20906089 2.431532 -0.30053166 -4.9462643
2761 1.9922215 -2.4073248 2.1176744 -0.56538266 -0.32118368 1.0917872 0.26871908 -0.7178438 8.400331 -1.2200129 1.5467302 3.0665958 -1.0628654 2.171706 -0.9448212 -3.3605044
3476 2.4530609 2.2000868 -2.004364 4.3180943 -1.3887763 -1.877759 -2.1326668 -1.4977788 0.5875461 -1.0948066 -3.8920305 3.9139607 2.7298305 1.0272627 2.1482975 -4.5150695
3263 0.008106706 2.2046814 -5.508273 -2.3767936 1.5624807 3.6720345 -2.4102147 3.1398454 -0.4476513 1.6907585 -4.1551375 -1.1453203 2.374714 -0.8882514 0.11539805 3.6382542
1952 -1.2753305 -2.0805395 5.1076884 2.1809897 0.15667765 -1.816025 3.2703967 2.9562159 -2.619408 -3.414511 1.2580943 2.9488037 -0.9440392 4.8130035 2.1294172 -0.059497222
1831 -2.264824 2.2425106 5.3747454 1.1493992 -0.15798508 3.6116357 -0.26829228 -4.1252565 3.4070153 1.6069862 -1.399434 0.89157814 1.6696539 -4.3684697 -1.763822 1.1328522
1485 0.63244593 0.806291 -4.8183117 -2.8179193 2.1714694 3.0636303 -3.0759895 1.4058949 0.9674053 1.8724339 -4.5836473 -1.800041 1.0002295 -0.90312785 3.774043 1.5659108
231 -0.86169654 0.06789618 -1.996322 -2.4093463 2.706627 2.8568532 -2.4824736 1.4639705 0.33025151 2.3798673 -3.0419319 1.3116645 0.18462661 -1.4799049 3.2567964 -0.03699118
586 -0.74504673 -2.93819 -0.18169166 -3.488316 2.2161324 3.204299 -1.068621 1.2207413 2.2360387 0.7489205 -3.6179688 1.5684632 -0.9123246 -3.5139813 4.3532305 2.9371784
2076 0.818746 0.9351666 -1.7997597 2.2034135 2.836748 -2.5442204 2.1586893 -0.44819388 -5.3686357 0.107289374 2.1111243 1.4473819 2.1206012 1.8624117 -1.7124797 -2.6923409
2300 -1.1830577 -7.025134 2.0721793 0.92653286 2.0649016 -0.68091476 2.809488 1.6469936 1.7532034 -0.21098061 -1.9207691 3.3394372 -0.64338577 4.050796 -2.0920467 2.56462
745 -2.4166727 -2.1376078 1.7918605 0.3016708 0.45394707 0.3151223 1.4086558 4.1853814 7.715716 1.954455 0.04229734 1.1908276 -0.021545071 1.2852999 -0.4113448 1.8789766
3247 -2.6461642 -0.6152973 -1.4931364 -1.1798636 4.0705743 1.4954132 -3.2674065 2.8029056 0.5215056 -0.6658875 -3.2374291 -0.22122893 0.6481466 -3.1448781 5.5415506 -0.35623574
441 -1.4083174 0.18259016 -4.1473165 1.24222 2.4422545 1.5318372 -4.0797033 -1.3600891 3.0074148 2.3504457 -1.9351103 -0.55391204 -1.4550705 2.8767264 -0.6969769 -1.2807385
3638 1.6639587 2.9337718 4.550123 -2.1672773 -1.0900363 1.1064855 1.3956021 5.079574 -2.583941 0.7803272 -4.7208686 -3.4063647 3.618276 -1.5634569 -1.8458973 3.663382
2949 1.1684318 2.291081 -1.0963255 -0.47683474 -3.71803 -5.7807193 0.6661742 -0.30754063 -1.2494112 -2.8534334 -1.6792051 -1.7598058 -0.4908586 4.333972 -7.2594757 -0.22342397
208 -2.3027196 -1.0792971 5.1093006 -1.1734173 -0.9521343 1.5634738 -0.48649442 -1.3415678 3.1931062 -2.6764622 -2.9411802 -3.9592671 0.45414817 -4.6978626 1.4797243 1.8741214
1962 3.8529353 0.56469285 0.11313721 -0.47020015 2.0215094 -1.5379293 0.38719758 -3.164017 -3.992592 0.023889795 2.7777343 -0.99464273 -4.7688694 1.5766106 0.11676745 -3.9509947
1272 -2.9082518 1.3888322 4.1156263 0.45223272 -1.2219996 -2.3637407 0.9832454 -0.73749477 -4.6130733 -0.48847738 0.91503626 0.9302241 -6.284383 3.9690528 -0.26791444 2.7023706
2329 -2.1000962 2.9867065 -0.97444385 1.9715295 -0.6002641 1.5027995 -1.7708876 0.7699759 1.5418677 -1.0911448 3.7549543 3.5010543 -4.053305 2.5990875 1.062601 -1.92368
442 -1.4902123 4.827141 5.789669 -2.0788443 0.35165894 1.8883125 -0.5198256 -0.13932829 1.7489027 1.3111595 -2.7018955 -1.2433335 2.8554533 -2.482796 1.9851139 1.2832348
2294 3.5374706 3.3202188 -2.6205044 -1.5619277 0.08583353 -0.2804309 -1.4153745 -0.99934304 5.463943 0.4395108 -0.7865515 2.0196903 -2.9945598 2.3960469 4.8936973 3.3446164
2527 3.5948393 5.552279 3.0419323 -0.12566432 0.037915565 -4.409105 0.5140489 -0.61221695 -0.9312507 4.157415 -4.6239543 -2.2907176 1.2165288 2.3270223 -1.1527311 1.8504665
317 1.711363 -1.6916693 -0.51561344 -3.5360503 0.19510324 0.8189044 -2.060278 2.5777588 2.606548 1.5840094 -3.9303205 0.7438813 -2.1691453 -2.6328979 5.310354 -1.8710479
3697 -1.5285002 3.8463087 5.453695 -0.26605675 -0.45244402 2.8441498 -0.09857574 -0.7311329 -0.16543858 1.3301864 -1.7790444 -2.0514455 3.3557386 -3.3286915 -1.2666515 0.28601846
3591 4.0700946 1.3693027 -3.7713377 -5.515675 5.152172 0.3327401 0.8067246 3.486506 -5.690383 0.35532096 -0.7008643 -1.7234805 0.915842 -1.777121 0.80047035 1.7630339
95 -3.739658 2.900159 4.6609197 -1.9874141 -0.036847025 1.4894468 -1.8271849 -1.5399678 -0.45662796 -3.82556 -4.0297003 -1.0970795 3.1225653 -1.230668 2.243361 2.1500187
2273 -0.41506982 4.666181 -0.92037666 -2.780297 -1.516469 -2.2876322 -1.300459 -1.2656559 1.6597856 -1.9109526 -3.5382397 -3.2769966 4.4997697 0.9218741 2.0734658 -0.088130675
2528 4.2208776 4.155791 4.6356697 -0.22069442 0.35274428 -2.720202 1.0614095 3.4834728 1.1679376 2.882739 -5.1374125 -4.683087 2.2823677 0.009132415 0.75834835 2.3299732
2724 -2.299002 -4.4925957 0.7875279 -6.517949 -0.39280042 4.749159 3.2514684 -3.7136128 1.4428735 1.042126 -0.8273811 2.7065628 5.6736484 1.0095793 1.4558069 -0.5002503
1960 -0.8131719 0.6181185 2.2955348 -0.70903444 -0.23157601 -1.2515155 1.804828 -3.984475 -4.750954 0.14806607 3.2961962 -0.70542747 -4.4007287 3.4120488 -2.945447 -1.2291237
3005 -1.080356 5.492201 -0.6441912 -3.6687353 2.1109655 0.44112638 -0.3035017 -1.4100966 0.041774154 -4.1798925 0.092161834 5.616375 4.281116 1.8757567 1.3344467 2.9814684
914 2.743852 -6.3120637 -2.0366874 -1.3483244 -4.0909824 -1.1765834 3.4888434 -1.4114608 -1.9325577 0.02090987 -1.542094 1.1536003 -2.110161 4.110024 -1.1774229 -0.80233127
1957 1.049458 -0.9151766 2.0170958 0.7788438 2.4625719 -1.9286017 1.947881 -1.695266 -3.9738498 -1.0289164 4.141953 1.5273373 -4.4319506 2.5515203 -1.893443 -2.6309059
24 3.9360375 1.9676133 3.3681905 -1.3770832 -0.83875155 6.483992 2.665505 -2.0522115 3.2814248 3.8451052 -0.20283984 0.13081549 5.637977 -0.5353739 1.7209015 -1.7019962
1805 0.41238084 3.946047 -5.023773 3.6782687 1.03445 -1.39718 -1.0446635 -1.5385499 0.7369883 -2.246247 -0.51760507 -1.2488792 4.220798 -1.3627836 6.4796157 -1.8251005
2707 -2.2458265 7.69018 -2.224683 -1.6906576 2.3862548 -1.4046227 -1.3362277 -3.2972298 0.7738771 -1.6900926 -0.38733786 4.2971106 2.73273 2.937466 3.2195165 4.4293146
3863 -1.021998 2.9135773 -0.4651552 -1.2657694 3.3180144 -0.57534075 2.4914904 2.8558931 3.5145729 -0.32186487 4.2519407 0.27587706 3.3992252 -0.8665362 -1.8686428 0.94889015
2664 1.8449023 0.32118765 4.529729 2.055065 -1.9112294 -3.2266874 2.2870958 0.0815917 -0.38844275 4.309713 -1.739622 5.5124254 -0.6843223 0.82387 -2.265389 -3.7890267
2581 2.0171638 -3.4870105 -2.037039 -5.224421 0.09187819 6.1462913 0.35974976 -0.46848637 2.1099217 0.29095298 -2.786185 -0.27542418 5.233316 0.21955894 0.15798579 -2.9459462
800 -2.2893584 0.23650816 0.46281865 6.4989157 -1.3768545 1.0688856 0.77512413 -0.89846617 0.48565057 -0.72199845 1.7077656 2.46352 1.123904 3.5379758 0.926508 -2.683945
3683 -2.7944386 -2.5112793 4.55994 2.867256 4.194735 -2.9372702 2.7839284 2.1742573 -2.2912765 -0.67204297 2.2239769 1.7001921 1.9490846 -1.197937 -0.09989483 -4.244881
3100 1.7252094 2.912045 -2.024449 2.2979727 -2.3653905 2.4781287 -1.6494778 -3.0052612 0.2718274 0.22851442 1.7659196 -1.0067935 -3.9549172 3.239141 1.6943028 -2.0040503
1711 -1.9222629 -0.63265306 -2.2624147 2.0780094 2.903278 1.3785182 -0.58750093 2.331213 -1.1929973 -1.6446885 -2.3938951 -1.2127715 4.1917715 -2.393495 6.1222663 0.50527817
610 5.715838 3.788478 1.356838 -2.8352554 0.5490888 -3.8123796 0.56529564 -0.35591194 1.9456389 1.6378161 -2.0001159 -0.03824263 0.6715331 -2.0014915 -1.7812696 -1.0963745
2542 -3.3848288 0.83858913 -3.22049 2.8487551 1.8347526 -0.73729235 -3.5650432 -0.12996747 3.6929858 0.0144381905 -1.0411991 1.1265353 0.36098912 3.2540994 -1.0941089 -2.551308
2019 -4.9328547 -1.6488179 3.8479786 0.4700473 -3.837525 -4.5399675 3.9318285 4.050015 0.069815375 -0.6894414 -0.07317454 -1.2228656 0.22803308 -0.51131916 -1.640832 0.41718307
3101 0.8833598 2.4517286 -1.4529765 -1.0303367 2.2751029 -3.944408 0.9089027 -2.614395 -3.8782752 -0.9453256 0.7211047 0.33064115 1.8785406 -0.583335 0.770082 -1.3723922
1921 1.7459536 5.7522526 -1.2198858 1.3838499 -0.7820751 0.010923309 -0.41729695 0.18980798 1.9143367 3.5970368 0.36466318 1.2565116 2.5678298 1.4306297 -0.10799786 -2.987502
2433 2.6982248 5.7731905 -1.8615994 -0.3466663 2.7755823 4.8025913 -2.062529 -3.6714656 -1.9721363 -3.289543 0.52572066 1.1712724 -0.20343408 4.6674843 1.9435842 4.162856
1172 -1.5496675 -4.2152286 1.3308532 0.17472202 2.7066383 1.1274477 1.5258932 -0.5361436 -2.8173096 2.4442914 1.4147778 0.46560565 -1.9357785 3.74472 -2.86983 -2.8451505
2616 -4.743913 1.580322 4.0108056 -0.6914089 2.6509404 -0.60452044 -2.6137567 0.8944131 -0.2517607 -3.862352 -2.646609 -2.8511047 1.3499656 -3.432719 2.945753 0.15455215
3257 -2.811356 -0.9786546 2.089528 -0.24162737 -1.8040843 1.4454154 0.65272224 -4.723644 -1.7752084 -4.830858 -1.2212306 -1.3132604 2.8168046 -3.399813 0.8309096 0.43754482
3070 2.2183564 2.3988762 0.023427501 -2.9531715 3.0587504 -3.6220715 1.069027 0.9930453 -0.82233673 7.2023816 -1.6586823 -0.9718899 -0.37258536 -1.500523 0.34469122 -0.7204802
653 -0.10394349 -0.1816753 4.091821 -3.5914295 -2.3433669 -1.1650451 -0.9150777 1.0861626 3.4766634 -0.9905192 -3.3838654 -3.0275044 0.053211566 -4.086987 4.6998835 -3.4245257
2539 -0.49221244 1.4085476 -3.823083 -1.0516018 2.946774 2.831651 -2.7827768 3.5446887 -0.4649041 1.1836377 -3.343627 1.1491269 -0.5322943 -1.1827214 4.6963506 3.2953286
1959 6.194826 -2.3571258 0.9731413 -5.1122885 0.7217143 3.6123698 3.9215784 -1.6000688 -3.3530967 -0.40344042 1.0531639 -3.2389953 4.2583437 2.3330212 -0.7553578 -4.2577186
852 0.3821288 -0.61070555 -4.4229617 -2.8541017 -0.23065895 2.7746587 -1.7484202 1.3329549 -1.1981379 1.57819 -4.1982026 -1.967968 0.72675717 1.9102485 4.086972 0.5483796
1037 -3.4999082 2.436569 6.1690097 0.9048821 0.46881965 3.9148679 -0.12474188 -2.3992279 1.9032716 1.1342605 -1.2156425 0.65912944 2.8660605 -4.782596 -0.9936993 0.23173818
1373 0.6941084 1.402405 7.5636525 -1.3087575 0.75976753 -0.118631296 2.4412508 -1.1664006 0.9001141 3.6754475 0.13822146 -2.807831 -0.6036638 -5.9728594 -5.161672 0.074051835
198 0.69283587 6.870232 1.281662 0.10324488 -0.7517881 -0.22697182 -1.4571747 2.0660286 2.4830859 3.2711124 -2.3373818 -3.1043134 3.55025 -1.3536636 2.7517407 -2.6219976
2013 4.347998 -2.654125 5.4704437 -4.26964 -0.030393418 0.16669925 2.9899807 -1.1737876 2.2530446 -1.0015696 -4.2601614 -3.2149491 5.5860624 2.2047057 -1.1854954 0.30327827
1885 -0.7900604 0.32331482 -2.6983707 3.8553858 1.2807859 3.2079158 -2.687113 -1.4749099 1.4694892 2.8902593 0.24992572 -0.25038671 -2.9220667 4.1339035 -1.4686769 -1.5966169
3535 1.6465262 1.9884484 -2.9002624 -1.4735541 1.0957627 -0.41198397 1.2112167 5.1271825 1.7568985 -3.8257895 1.2225918 2.845213 2.9986079 -0.29291284 -3.5902414 1.1050997
509 2.9035656 -0.14276531 -3.0824673 0.08640378 -4.0088897 3.092229 0.89732397 -0.9002746 -2.7296565 0.89334977 0.0418115 -2.5292196 -0.26547217 3.278538 3.3135026 -3.516886
3911 -1.7658138 0.27023065 -1.6235069 -0.86974174 4.1134806 -0.40230277 2.205613 2.7645376 2.201335 0.6797808 4.2757893 -1.3864553 0.5669669 0.8404035 -2.6496005 1.597275
1203 -2.0216877 -0.30966982 2.030591 -0.25929472 0.3651557 -3.165843 2.7824166 1.8455961 -1.7242566 0.19903408 2.182474 6.087795 -2.863893 2.6212778 3.0679026 0.46802625
1256 -3.7817106 -4.379386 2.5749583 0.4803896 1.5423026 -1.7002932 2.482776 2.7536335 0.8992282 2.994779 -1.4517875 1.565873 -0.9895752 2.232963 -2.2273893 2.5391483
471 0.21422492 -1.2218683 -4.9602704 0.33448675 0.29590034 2.2687492 -2.6998706 -0.40442154 0.3960257 3.0381033 -3.5877435 -2.4317646 -0.2837702 3.1587703 -0.27787858 -1.4398328
2722 -0.50414276 4.065143 6.0474205 -1.4159346 3.143926 4.1447167 -2.1136045 -4.081241 3.45481 -1.763806 -1.3380654 1.2952812 2.0682795 0.04224785 -2.0236485 2.192583
2087 5.4147615 -3.1201353 -1.4341913 -0.57529444 -1.0722505 -3.1721356 2.6417234 -2.1406953 2.8351169 2.2893703 -0.7151382 1.2966397 -3.317459 -0.80562526 0.68906534 -0.7131004
1271 4.396698 3.7507057 -4.3741403 2.2061548 -1.9797868 2.7221198 -2.248231 -3.0920818 -0.29845962 -0.26792756 0.19287063 -2.1233242 -2.7909145 2.8635051 3.1169777 -1.005414
2371 3.3693938 0.34639582 -2.2058334 -4.137352 6.1036963 -0.10592 -1.2697984 0.91481125 -3.6968346 3.026199 -2.4175003 -2.3649268 -0.7763063 -1.1724745 -0.27277502 -0.2616572
1292 -1.9793266 -2.9004064 0.94331694 1.8148266 4.3676715 -2.0497265 -1.3370235 1.0857722 0.40575853 1.458999 -2.6184044 0.6800275 -3.489024 3.259625 -3.1220758 2.2676294
1562 -3.8013468 -0.31664935 -0.37249616 2.0710664 4.067776 -3.887673 -1.592048 -3.0454311 7.905544 -2.1031892 0.52329165 -4.8683558 -2.1356974 -5.1164927 0.5941705 2.8831558
2501 -1.927344 0.223914 0.9480624 1.5848842 -2.3664806 1.8325686 0.028458564 -1.4842467 2.2649143 -0.9553029 3.5298696 3.190726 -4.15136 4.1105423 1.4489589 -1.8485534
2018 3.49515 -0.3293831 -0.7997704 1.7743816 1.955071 -3.3210077 2.521064 -3.3800044 3.9256043 2.91938 1.690264 1.3176228 -4.423899 0.6864242 0.66313237 3.5183175
3037 -1.1764991 -2.372782 2.7534337 2.8520176 1.5640906 -1.90318 -0.7609521 -0.4625466 -0.98976547 1.9516523 -3.2879872 -0.7329743 -3.8064659 3.7854886 -2.4141648 1.489392
3044 0.8888944 1.8803964 -6.143122 3.1605523 -2.787582 -0.802139 0.901574 -1.5741427 -2.3655818 1.0536578 -2.1308408 1.0517216 5.013131 3.2787786 0.00628406 -2.0008948
3740 -0.034160245 1.7638153 -1.2005162 -3.3107457 2.9866517 -3.6694844 -0.6957191 0.67875797 -3.9551988 0.44163948 -3.654287 -4.3738885 2.1331797 -2.3737051 -2.6319993 0.85115445
3360 1.1508796 0.68985385 0.8056448 -0.98323363 1.9273314 -2.3136437 0.5432983 -2.4077039 -2.2787588 -0.5488223 4.113877 1.248722 -3.9036934 2.1347733 -1.4621228 -4.3401613
1019 4.418471 2.772659 0.888217 -2.6083443 -0.8073527 -5.8998613 4.040963 2.2452464 1.174464 6.746752 -1.4926862 1.3818256 -0.4703075 -2.2090828 5.1045804 0.7224592
1022 6.1548243 -2.0816212 -2.102515 0.6191155 -0.3787811 -2.1598012 3.04595 -3.752907 2.1522734 2.0501857 -0.5711989 2.5220585 -3.7259827 1.1893516 0.08173352 2.658512
3298 -1.4205393 3.901065 -2.702054 -2.2008476 2.55795 2.0161357 0.8211444 1.9636979 0.7046018 -4.8597775 3.2179756 2.3429909 3.4416215 2.460896 -3.1401758 3.4947278
2686 1.3856398 -0.94755626 0.13536605 1.6775213 -1.4524455 3.4036999 2.7384336 -2.900469 1.5444653 0.07835093 2.3924832 1.5937406 4.1377525 4.3753276 1.3865179 -3.8519518
898 -3.0786867 -6.9759736 -1.4598817 1.3270121 -0.10798706 -0.4935265 3.1929634 1.095663 -1.0542272 3.3842533 -1.249419 1.8881054 -0.961236 3.9285939 -1.3078774 0.44637513
866 -3.033283 1.0916083 -3.626651 4.3602686 -1.9178853 -0.94223964 -1.6803665 -2.0265524 -0.058823988 -1.790452 0.5787401 2.084042 0.38421938 3.2640312 1.0420243 -5.075695
2333 2.2039435 -0.18304422 1.3076774 1.4095936 -0.14006485 4.094715 -1.7210929 -1.3594328 2.0317874 -2.8414264 2.5976574 0.76066536 -2.1547947 3.5324514 -2.2476 -6.0378456
112 -0.018648766 3.8117282 -1.761503 -1.4156132 -1.7593348 -3.1874285 -2.5265734 0.45604777 3.4163969 -1.2911818 -3.8873787 -6.469589 1.8454432 -0.3162995 1.528405 -0.99735886
2394 6.194348 -2.816968 -0.84418964 -5.375748 -2.414402 2.9368267 2.514995 -3.3516753 6.787005 -0.4562648 -1.4575852 1.3675005 2.7040873 2.4215088 0.5070668 -0.3708054
3785 -0.4867006 0.08422676 -2.2753987 -2.5943186 2.933983 -0.9481356 0.8636506 2.6456666 3.2647686 -2.941204 1.0107791 0.17997487 3.3994935 -1.019624 -2.7891722 1.2137243
3301 -2.8975017 0.32272854 -3.3393452 -2.7985072 2.3904653 2.537546 0.652922 3.9199972 2.333344 -2.8367696 1.0101005 -0.792394 4.0531273 -1.9686413 -2.911001 2.6311455
1253 1.4089837 1.9897604 2.8986478 1.4795517 -1.9578801 -2.2668529 3.148566 -0.8926384 -2.4736876 7.3762465 -0.27167705 4.377464 -1.3778199 1.6315202 -1.0176985 -2.5979807
1587 1.8132844 2.4180388 2.125209 -4.297202 -0.11358135 -1.3080937 0.9006959 2.5561252 -2.3708777 -2.181029 -2.7836404 -5.2457023 1.7927049 -3.8804708 -1.2248287 2.5267556
2109 3.55563 -0.6741066 -1.3905275 0.60530794 4.2372017 0.2638186 -3.57399 2.061254 -1.1829717 1.5972987 -5.666486 -3.2123778 -3.2890315 1.6870707 -0.78422433 2.0552847
2662 1.8884251 4.221788 1.7754213 -1.3550619 -3.5821297 -3.6119514 2.459812 -1.534569 -0.83520925 5.7108536 -0.82795525 -0.5135003 -0.78621745 1.8335814 -3.1865745 -0.21703446
3060 0.72819614 0.8020333 -2.967103 2.5981457 1.861432 3.4296198 -3.225771 -2.493253 0.54331553 2.5043738 -0.5449056 -1.7782457 -2.9661357 4.2812037 -1.3252275 -1.3486029
1095 -0.7697401 1.9372152 0.44402105 4.339611 -1.2006428 1.6782174 -1.2231504 -1.2032396 0.46857047 -0.43995002 2.7376482 0.45453858 -2.625368 4.2763653 0.40539214 -3.9307876
1029 5.4080386 -2.1788952 -3.0045125 1.3681703 -0.21350788 -1.6868378 2.669708 -1.8205155 2.4200187 1.1412752 0.24825288 1.3589096 -3.8429961 -0.14328556 -0.33910075 2.9319427
466 -5.4324026 2.1645317 3.0459833 -4.787989 -1.8022532 3.4317355 -1.4595009 -0.8216646 -1.0228765 0.12393138 -1.9837571 -2.665395 -1.626078 -2.7570734 0.5174331 3.3372314
2717 1.8009757 -1.3916364 2.1707826 -4.04841 3.5879266 2.8537753 -0.2955314 -0.76680315 -2.956297 -1.0547997 -1.6406499 3.363316 -0.49077412 -4.8506413 -3.9081304 -0.41990885
832 3.2686143 5.2698007 -3.573125 0.17362383 -0.88351744 0.8857636 -0.8457893 -3.0872197 -1.0916834 -2.6698494 -0.8653739 -1.0379324 2.6315217 1.5307976 7.503329 0.15026446
3717 -0.6728868 0.52338874 0.031714216 -2.725903 2.9828203 0.11803122 -0.37375903 1.6710497 4.466585 -6.1768394 1.6628768 -1.8200297 3.105945 -1.6848255 -3.0255914 -0.46389833
2541 1.6814848 2.6744704 1.7832202 -2.8517644 4.1414948 6.2204804 -1.7299607 -4.191886 0.17345476 -5.77697 0.83999354 0.11233102 -0.08249392 1.9393759 1.8691705 3.5756152
3273 0.17071211 -0.21290739 -1.1889209 -1.6137239 0.14933881 2.4356997 2.2848089 0.53342974 3.9813514 -3.1794336 -0.1248971 5.3494067 7.972278 -1.2173783 -2.9567745 -0.24476758
1378 -0.5427067 -0.1267434 3.7078516 -5.3975587 3.2573564 -2.3928955 1.1409856 -2.0099897 -3.961937 0.32102835 -5.082616 -2.8509486 2.2287173 -1.7974683 0.45232576 4.0605626
508 3.5680707 3.499683 -3.579907 1.9539791 -1.2656156 2.3456082 -1.1781399 -1.8453621 0.3415153 0.6461403 1.5324243 -2.2722392 -2.0424523 2.3733833 2.949134 -1.7126253
1296 0.44720697 -2.9083433 -0.575489 -0.66635436 -1.1093018 0.5858756 3.0239003 0.8815568 -5.4832363 0.9352086 2.1183493 0.25882003 -1.5418293 5.040189 -3.22011 -3.9265013
1345 7.4902077 0.9561973 1.4342926 2.861658 0.928333 -2.6127045 -1.9831545 0.7863357 -1.5489305 -1.6384354 -5.6346703 2.3142338 -2.2455015 1.9544797 -1.5072826 -0.99918616
151 -0.10449225 2.5842001 -2.2941494 -2.1794074 -4.8687572 2.4359038 0.48428693 -3.8025508 -3.000546 1.9250544 0.9187722 -2.947719 -2.2110941 3.215497 1.8744051 -0.51563674
1479 -4.1803637 0.5398836 3.9503522 -1.4333392 -2.6159015 2.3380444 -0.3646778 -3.787428 -0.8563065 -3.8356962 -2.8511233 -1.3622551 3.806372 -3.4960163 2.0140502 -0.90093553
1967 5.231803 -1.5554589 1.1458194 -4.1721263 1.8627027 -5.168768 0.9661374 0.9320326 2.402042 1.5410872 -0.8666216 -3.4175847 -3.0640533 -3.864815 2.3653262 -4.434546
2067 -0.4034663 -2.4040575 -0.70511764 -0.8467197 -2.5603235 -1.6495702 2.5506206 -1.0409516 -5.599975 -1.5194101 0.14652841 -0.62640303 -2.636876 6.8608646 0.5361312 0.08272688
2085 4.641909 0.12428214 -2.4864235 -2.6185899 1.6825815 -4.4534783 2.7807777 0.10593583 2.3831902 -0.20605646 0.9016812 2.7669685 -2.112585 1.4746413 3.3891857 2.6251001
1321 5.4809213 2.144417 -1.5665491 -0.08638773 4.3443403 -3.472336 -1.5713738 0.9812144 -2.615695 -1.1006087 -1.2270565 4.356108 -2.553494 -0.41592857 -0.49896422 -2.3438957
185 -1.7021316 2.5551145 4.257537 1.0946972 -0.37175322 4.220906 1.5382735 -2.4291196 2.2413905 2.0690153 0.27368245 2.6826982 3.8488803 -3.8959942 0.93098307 0.7730788
173 -2.8334107 0.59161794 4.535193 1.6357775 -0.66777194 1.2542442 0.061038554 -3.3214865 4.539105 2.6021664 -0.55913407 -0.8495168 0.08492475 -5.669244 -2.7203856 -0.61924934
1186 2.4004955 0.6759351 0.42281926 1.0622783 2.7515416 -1.3079082 0.950614 -1.9306198 -4.086043 -0.023999449 3.4864013 -0.30140153 -2.6945536 2.4243782 -1.2071 -4.5081706
3252 2.2302613 3.5341814 -2.917758 0.9673945 -2.2841532 3.2831748 -1.1178305 -0.58495545 0.09407845 -1.2754796 1.3047664 -2.2572792 -1.5420961 1.6486827 4.978145 -0.30828646
902 0.99695534 -3.0071201 -1.5972977 -0.008669779 -2.828402 -0.55174464 1.7936568 -0.71687996 -5.012895 -1.522158 -0.8771338 0.28223428 -1.4312078 3.7815971 0.5777098 -0.9382943
196 0.7783348 2.6110244 4.968638 3.310386 -0.2208904 4.8263783 0.03760077 -1.489797 2.3046296 3.0245998 -2.1797178 4.8086133 2.0009189 -4.9185643 -0.32999536 0.20696414
2478 -0.8629188 -3.4735723 4.136323 -3.5052326 3.2311747 -0.15555474 2.2299836 -4.609443 -3.9789534 2.010466 -3.4852536 0.37677345 0.10730959 -2.190059 -0.45619833 4.1450305
1261 2.2377784 1.2042011 -1.4560717 -2.3697019 0.31465706 -4.733838 -1.07955 1.5532897 1.090912 -0.6111285 -1.939183 0.8595857 -0.12676959 -0.00365895 -5.5799236 -3.48768
1586 -3.1400328 3.8608494 3.4519503 -3.1793582 -4.3556347 3.8756979 -0.009571793 -1.1101947 -0.99611545 -2.503661 -0.6168707 -5.177221 -0.1965096 -1.2030978 3.720305 3.16791
1357 0.78075296 0.3588436 -3.3179932 2.2430954 -3.4704711 2.6329021 0.13492814 -2.295183 -1.1802506 1.955575 1.6570143 -1.7421795 -1.9274626 4.943171 2.482043 -4.3762736
673 -0.8517452 -1.9417527 0.98673844 -3.2259161 -2.5802684 0.15467177 0.3553103 2.117742 5.5272818 0.42206627 -1.4418664 1.2550464 -2.025105 -6.3745155 -0.15625267 0.16259484
2976 1.7449629 5.0641975 -0.29759473 -0.5936171 1.4684048 5.858468 -0.73712647 1.8381195 -0.6601881 -3.4345498 0.31526732 4.1236305 2.8050208 1.8359361 -2.2833767 3.2858398
3435 -1.3426406 -4.8088517 -0.3158251 3.0328925 -0.21177001 -3.5907164 4.2791557 5.4703536 0.2739057 0.45717162 0.07899126 -1.8393719 2.099457 -2.932811 1.4271336 -2.2478902
45 1.540021 1.5581669 -4.8459225 1.9515814 2.366351 3.041147 -2.6523314 -0.8752176 0.0013132447 1.7263792 -1.1644166 -2.852633 -0.34602293 2.5282712 1.4727215 -0.4349393
3098 2.1984336 1.4326915 -0.34106955 0.50073737 2.438481 -2.400695 0.2009677 -3.3326156 -3.9205794 -0.13387421 3.3397875 -1.5771508 -3.8929286 0.7892088 -0.57308376 -3.8799057
163 -1.480956 4.04554 -1.4479871 -1.3491051 -3.36835 -1.2831942 -2.325277 -1.6089963 -0.09318956 -1.6604507 -4.0284944 -2.716075 3.1873186 1.4235775 1.2624344 -1.4596847
2795 2.5082366 -0.07867118 -3.034085 -2.4038908 5.7084007 -2.0593007 -2.104048 -0.92155844 -2.3223228 2.4890115 -1.6018331 -2.0524912 -2.6810346 0.18836306 -2.9322705 -1.1700006
3113 -1.8763154 3.9553928 5.0724206 -3.8155801 1.098752 4.339055 -2.8473055 -3.082999 4.2090826 -5.897259 1.3444822 1.214642 0.032586157 -1.3731551 -3.5402517 -0.07755525
160 -3.7010927 -0.21886015 0.74685276 3.8954504 -0.24463734 -1.3881663 1.4549947 -3.9341936 4.5288286 2.4482265 -0.15057646 -0.38793686 2.224134 -4.3240576 -0.8538515 1.2038571
1779 -0.7886281 1.0306813 4.4103413 2.4519546 -0.7377543 3.6015003 1.0113692 -2.1752381 5.2189384 1.3390346 -0.7024433 1.1856676 2.397698 -5.5097623 0.82759243 0.92798156
2046 4.080724 3.3174028 1.3367918 -2.359724 -0.8141703 0.079605885 1.0724828 1.4595282 4.593116 5.2722135 -2.2491121 -1.5136698 0.7618027 -2.7016878 3.87965 0.82045245
3479 3.7116432 -2.9276106 -0.034216423 -4.072586 -0.21836407 -3.9123538 2.3634307 -0.00013400691 -0.25969368 2.6851733 -0.8951025 -4.2579184 -0.86791664 -2.2532623 1.9457588 -5.080753
3685 2.0930674 -2.7465017 -2.8632333 -0.83278364 1.5729296 -0.42562768 0.80401236 -0.74271923 -5.5867476 1.5470109 -0.36355305 -3.7329798 -1.4898272 2.9731827 -2.736785 -2.752902
2792 -0.9677838 0.7061719 -0.44059616 -5.9691796 -0.68462443 0.7640255 1.6958281 6.1704288 -3.3616085 -0.6284571 -0.81920385 3.1498594 -1.4727311 -5.0064683 -3.713401 4.3890324
62 3.1058657 3.0585122 -3.2413611 0.8014508 -2.223967 1.9596653 -1.7819176 -2.2462895 -0.21796866 -0.9091558 0.45772946 -1.8238791 -3.2596083 1.9270723 4.043566 -0.9302695
3614 -0.19689159 0.22997083 -5.1292334 -2.5093431 -0.22854574 3.066356 -0.87905884 4.1775827 -3.7577312 0.76862115 -4.2870097 -1.7115445 2.6716452 -0.47628403 2.0758412 1.9182447
435 -1.3986042 1.3928708 3.2454371 -0.17253245 1.172434 5.0296016 0.3033037 -1.070246 0.7615529 4.3921533 -1.7821993 2.3412077 1.2150363 -4.7914014 0.3190714 2.4845374
2133 2.032771 -0.4028396 -2.2231727 -5.28729 3.4593136 -3.158187 1.6518855 1.5785953 -2.0405319 3.12669 -2.6504354 -2.322927 0.56653595 -4.9906025 2.9573283 1.7296531
3752 -0.5034321 -1.8100958 -1.1570187 -2.7824936 3.4197278 2.9560502 1.5530161 2.6882012 3.7356887 -2.3436782 1.9611697 -1.0549854 4.9548163 -2.2937305 -3.994637 -1.1246697
1284 -0.61027044 -2.6735356 -1.9403912 3.4582565 -0.5946384 -3.781416 4.260333 5.1012964 0.8542938 1.6740453 1.2110139 2.6424487 1.937124 -1.3286328 -2.133091 -2.3330045
3524 0.5909099 0.1971179 0.3105386 -4.698514 3.5309792 0.90808904 1.2457062 1.4002897 -6.44284 2.2694523 -2.0484262 0.560996 -0.06868628 -1.0073607 2.0542321 2.8880086
2598 -0.16808896 -3.536573 2.2456057 -5.3812146 2.0602176 7.2271695 2.1510265 -2.3975797 1.1182424 1.2827978 -2.3423252 2.3988836 7.391714 -0.30214843 0.52663934 -0.7155418
3020 -0.39547324 4.5959044 0.6113669 -1.9433595 -1.5626038 2.3215322 -1.965014 -0.5653667 -1.028514 -3.2351315 -2.1945136 -5.524267 2.0456522 -1.1790241 3.3678608 0.73638344
3438 0.08774367 -0.70565474 4.4702396 -2.5769308 -0.27385348 -0.3673284 -2.0952735 -0.49491742 4.375229 -1.3297268 -3.5224607 -2.0825593 -0.98724186 -4.709587 2.985118 -2.307315
3300 1.4161222 3.1439598 0.870683 -2.825737 -1.5721555 0.3460061 2.483627 1.8332508 3.5532851 -0.85560685 1.2900807 -0.080048285 4.9879556 -0.046244305 -3.8624916 -0.42045692
1042 1.3729336 1.16095 -5.3166184 -0.67803204 1.8302824 2.7792273 -3.5351224 -0.6809632 1.654487 2.9824035 -3.6783001 -1.6264169 -0.54415905 1.2830179 1.3288076 1.1179651
